{"learner":{"attributes":{},"feature_names":[],"feature_types":[],"gradient_booster":{"model":{"gbtree_model_param":{"num_trees":"1000","size_leaf_vector":"0"},"tree_info":[0,1,0,1,0,1,0,1,0,1,0,1,0,1,0,1,0,1,0,1,0,1,0,1,0,1,0,1,0,1,0,1,0,1,0,1,0,1,0,1,0,1,0,1,0,1,0,1,0,1,0,1,0,1,0,1,0,1,0,1,0,1,0,1,0,1,0,1,0,1,0,1,0,1,0,1,0,1,0,1,0,1,0,1,0,1,0,1,0,1,0,1,0,1,0,1,0,1,0,1,0,1,0,1,0,1,0,1,0,1,0,1,0,1,0,1,0,1,0,1,0,1,0,1,0,1,0,1,0,1,0,1,0,1,0,1,0,1,0,1,0,1,0,1,0,1,0,1,0,1,0,1,0,1,0,1,0,1,0,1,0,1,0,1,0,1,0,1,0,1,0,1,0,1,0,1,0,1,0,1,0,1,0,1,0,1,0,1,0,1,0,1,0,1,0,1,0,1,0,1,0,1,0,1,0,1,0,1,0,1,0,1,0,1,0,1,0,1,0,1,0,1,0,1,0,1,0,1,0,1,0,1,0,1,0,1,0,1,0,1,0,1,0,1,0,1,0,1,0,1,0,1,0,1,0,1,0,1,0,1,0,1,0,1,0,1,0,1,0,1,0,1,0,1,0,1,0,1,0,1,0,1,0,1,0,1,0,1,0,1,0,1,0,1,0,1,0,1,0,1,0,1,0,1,0,1,0,1,0,1,0,1,0,1,0,1,0,1,0,1,0,1,0,1,0,1,0,1,0,1,0,1,0,1,0,1,0,1,0,1,0,1,0,1,0,1,0,1,0,1,0,1,0,1,0,1,0,1,0,1,0,1,0,1,0,1,0,1,0,1,0,1,0,1,0,1,0,1,0,1,0,1,0,1,0,1,0,1,0,1,0,1,0,1,0,1,0,1,0,1,0,1,0,1,0,1,0,1,0,1,0,1,0,1,0,1,0,1,0,1,0,1,0,1,0,1,0,1,0,1,0,1,0,1,0,1,0,1,0,1,0,1,0,1,0,1,0,1,0,1,0,1,0,1,0,1,0,1,0,1,0,1,0,1,0,1,0,1,0,1,0,1,0,1,0,1,0,1,0,1,0,1,0,1,0,1,0,1,0,1,0,1,0,1,0,1,0,1,0,1,0,1,0,1,0,1,0,1,0,1,0,1,0,1,0,1,0,1,0,1,0,1,0,1,0,1,0,1,0,1,0,1,0,1,0,1,0,1,0,1,0,1,0,1,0,1,0,1,0,1,0,1,0,1,0,1,0,1,0,1,0,1,0,1,0,1,0,1,0,1,0,1,0,1,0,1,0,1,0,1,0,1,0,1,0,1,0,1,0,1,0,1,0,1,0,1,0,1,0,1,0,1,0,1,0,1,0,1,0,1,0,1,0,1,0,1,0,1,0,1,0,1,0,1,0,1,0,1,0,1,0,1,0,1,0,1,0,1,0,1,0,1,0,1,0,1,0,1,0,1,0,1,0,1,0,1,0,1,0,1,0,1,0,1,0,1,0,1,0,1,0,1,0,1,0,1,0,1,0,1,0,1,0,1,0,1,0,1,0,1,0,1,0,1,0,1,0,1,0,1,0,1,0,1,0,1,0,1,0,1,0,1,0,1,0,1,0,1,0,1,0,1,0,1,0,1,0,1,0,1,0,1,0,1,0,1,0,1,0,1,0,1,0,1,0,1,0,1,0,1,0,1,0,1,0,1,0,1,0,1,0,1,0,1,0,1,0,1,0,1,0,1,0,1,0,1,0,1,0,1,0,1,0,1,0,1,0,1,0,1,0,1,0,1,0,1,0,1,0,1,0,1,0,1,0,1,0,1,0,1,0,1,0,1,0,1,0,1,0,1,0,1,0,1,0,1,0,1,0,1,0,1,0,1,0,1,0,1,0,1,0,1,0,1,0,1,0,1,0,1,0,1,0,1,0,1,0,1,0,1,0,1,0,1,0,1,0,1,0,1,0,1,0,1,0,1,0,1,0,1,0,1,0,1,0,1,0,1,0,1,0,1,0,1,0,1,0,1,0,1,0,1,0,1,0,1,0,1,0,1,0,1,0,1,0,1,0,1,0,1,0,1,0,1,0,1,0,1,0,1,0,1,0,1,0,1,0,1,0,1,0,1,0,1,0,1,0,1,0,1,0,1,0,1,0,1,0,1,0,1,0,1,0,1,0,1,0,1,0,1,0,1,0,1,0,1,0,1,0,1,0,1,0,1,0,1,0,1,0,1,0,1,0,1,0,1,0,1,0,1],"trees":[{"base_weights":[-1.7459956E-1,-4.006229E-1,4.619198E-2,-2.2350764E-1,-5.7645434E-1,-2.1864662E-1,2.0475419E-1],"categories":[],"categories_nodes":[],"categories_segments":[],"categories_sizes":[],"default_left":[true,true,true,false,false,false,false],"id":0,"left_children":[1,3,5,-1,-1,-1,-1],"loss_changes":[4.3775183E2,1.3485797E2,1.8641144E2,0E0,0E0,0E0,0E0],"parents":[2147483647,0,0,1,1,2,2],"right_children":[2,4,6,-1,-1,-1,-1],"split_conditions":[1.45E1,1.25E1,-1.45E0,-2.2350764E-3,-5.764543E-3,-2.186466E-3,2.0475418E-3],"split_indices":[51,80,77,0,0,0,0],"split_type":[0,0,0,0,0,0,0],"sum_hessian":[8.7705E3,4.3335E3,4.437E3,2.16E3,2.1735E3,1.6615E3,2.7755E3],"tree_param":{"num_deleted":"0","num_feature":"104","num_nodes":"7","size_leaf_vector":"0"}},{"base_weights":[1.7459956E-1,4.006229E-1,-4.619198E-2,2.2350764E-1,5.7645434E-1,2.1864662E-1,-2.0475419E-1],"categories":[],"categories_nodes":[],"categories_segments":[],"categories_sizes":[],"default_left":[true,true,true,false,false,false,false],"id":1,"left_children":[1,3,5,-1,-1,-1,-1],"loss_changes":[4.3775183E2,1.3485797E2,1.8641144E2,0E0,0E0,0E0,0E0],"parents":[2147483647,0,0,1,1,2,2],"right_children":[2,4,6,-1,-1,-1,-1],"split_conditions":[1.45E1,1.25E1,-1.45E0,2.2350764E-3,5.764543E-3,2.186466E-3,-2.0475418E-3],"split_indices":[51,80,77,0,0,0,0],"split_type":[0,0,0,0,0,0,0],"sum_hessian":[8.7705E3,4.3335E3,4.437E3,2.16E3,2.1735E3,1.6615E3,2.7755E3],"tree_param":{"num_deleted":"0","num_feature":"104","num_nodes":"7","size_leaf_vector":"0"}},{"base_weights":[-1.7285651E-1,-3.966261E-1,4.573024E-2,-2.2127463E-1,-5.707115E-1,-2.1646245E-1,2.0270823E-1],"categories":[],"categories_nodes":[],"categories_segments":[],"categories_sizes":[],"default_left":[true,true,true,false,false,false,false],"id":2,"left_children":[1,3,5,-1,-1,-1,-1],"loss_changes":[4.2905414E2,1.321867E2,1.8270442E2,0E0,0E0,0E0,0E0],"parents":[2147483647,0,0,1,1,2,2],"right_children":[2,4,6,-1,-1,-1,-1],"split_conditions":[1.45E1,1.25E1,-1.45E0,-2.2127463E-3,-5.707115E-3,-2.1646244E-3,2.0270823E-3],"split_indices":[51,80,77,0,0,0,0],"split_type":[0,0,0,0,0,0,0],"sum_hessian":[8.770397E3,4.3334175E3,4.4369805E3,2.1599893E3,2.173428E3,1.6614922E3,2.7754885E3],"tree_param":{"num_deleted":"0","num_feature":"104","num_nodes":"7","size_leaf_vector":"0"}},{"base_weights":[1.7285651E-1,3.9662614E-1,-4.5730256E-2,2.2127472E-1,5.7071143E-1,2.1646243E-1,-2.0270823E-1],"categories":[],"categories_nodes":[],"categories_segments":[],"categories_sizes":[],"default_left":[true,true,true,false,false,false,false],"id":3,"left_children":[1,3,5,-1,-1,-1,-1],"loss_changes":[4.2905426E2,1.3218658E2,1.8270439E2,0E0,0E0,0E0,0E0],"parents":[2147483647,0,0,1,1,2,2],"right_children":[2,4,6,-1,-1,-1,-1],"split_conditions":[1.45E1,1.25E1,-1.45E0,2.2127472E-3,5.707114E-3,2.1646244E-3,-2.0270823E-3],"split_indices":[51,80,77,0,0,0,0],"split_type":[0,0,0,0,0,0,0],"sum_hessian":[8.770397E3,4.333417E3,4.4369805E3,2.1599893E3,2.1734277E3,1.6614921E3,2.7754885E3],"tree_param":{"num_deleted":"0","num_feature":"104","num_nodes":"7","size_leaf_vector":"0"}},{"base_weights":[-1.7113487E-1,-3.9268416E-1,4.527352E-2,-2.190663E-1,-5.650628E-1,-2.1430218E-1,2.0068441E-1],"categories":[],"categories_nodes":[],"categories_segments":[],"categories_sizes":[],"default_left":[true,true,true,false,false,false,false],"id":4,"left_children":[1,3,5,-1,-1,-1,-1],"loss_changes":[4.2054898E2,1.295893E2,1.7907275E2,0E0,0E0,0E0,0E0],"parents":[2147483647,0,0,1,1,2,2],"right_children":[2,4,6,-1,-1,-1,-1],"split_conditions":[1.45E1,1.25E1,-1.45E0,-2.190663E-3,-5.650628E-3,-2.1430217E-3,2.0068442E-3],"split_indices":[51,80,77,0,0,0,0],"split_type":[0,0,0,0,0,0,0],"sum_hessian":[8.770094E3,4.333171E3,4.4369224E3,2.159957E3,2.1732139E3,1.6614686E3,2.7754539E3],"tree_param":{"num_deleted":"0","num_feature":"104","num_nodes":"7","size_leaf_vector":"0"}},{"base_weights":[1.7113486E-1,3.926841E-1,-4.527349E-2,2.190662E-1,5.650628E-1,2.1430227E-1,-2.0068441E-1],"categories":[],"categories_nodes":[],"categories_segments":[],"categories_sizes":[],"default_left":[true,true,true,false,false,false,false],"id":5,"left_children":[1,3,5,-1,-1,-1,-1],"loss_changes":[4.205488E2,1.2958942E2,1.7907283E2,0E0,0E0,0E0,0E0],"parents":[2147483647,0,0,1,1,2,2],"right_children":[2,4,6,-1,-1,-1,-1],"split_conditions":[1.45E1,1.25E1,-1.45E0,2.190662E-3,5.650628E-3,2.1430226E-3,-2.0068442E-3],"split_indices":[51,80,77,0,0,0,0],"split_type":[0,0,0,0,0,0,0],"sum_hessian":[8.770094E3,4.3331714E3,4.4369224E3,2.1599573E3,2.1732139E3,1.6614685E3,2.7754539E3],"tree_param":{"num_deleted":"0","num_feature":"104","num_nodes":"7","size_leaf_vector":"0"}},{"base_weights":[-1.6943417E-1,-3.8879555E-1,4.4821728E-2,-2.057197E-1,-5.491187E-1,-2.0815434E-1,2.0114537E-1],"categories":[],"categories_nodes":[],"categories_segments":[],"categories_sizes":[],"default_left":[true,true,true,false,false,false,false],"id":6,"left_children":[1,3,5,-1,-1,-1,-1],"loss_changes":[4.122307E2,1.27088745E2,1.755408E2,0E0,0E0,0E0,0E0],"parents":[2147483647,0,0,1,1,2,2],"right_children":[2,4,6,-1,-1,-1,-1],"split_conditions":[1.45E1,1.15E1,-1.3499999E0,-2.0571968E-3,-5.491187E-3,-2.0815432E-3,2.0114535E-3],"split_indices":[51,80,77,0,0,0,0],"split_type":[0,0,0,0,0,0,0],"sum_hessian":[8.769595E3,4.3327676E3,4.436827E3,2.0239108E3,2.308857E3,1.6944287E3,2.7423987E3],"tree_param":{"num_deleted":"0","num_feature":"104","num_nodes":"7","size_leaf_vector":"0"}},{"base_weights":[1.694342E-1,3.887955E-1,-4.482161E-2,2.057196E-1,5.491187E-1,2.0815445E-1,-2.0114525E-1],"categories":[],"categories_nodes":[],"categories_segments":[],"categories_sizes":[],"default_left":[true,true,true,false,false,false,false],"id":7,"left_children":[1,3,5,-1,-1,-1,-1],"loss_changes":[4.122304E2,1.27088806E2,1.755408E2,0E0,0E0,0E0,0E0],"parents":[2147483647,0,0,1,1,2,2],"right_children":[2,4,6,-1,-1,-1,-1],"split_conditions":[1.45E1,1.15E1,-1.3499999E0,2.057196E-3,5.491187E-3,2.0815446E-3,-2.0114523E-3],"split_indices":[51,80,77,0,0,0,0],"split_type":[0,0,0,0,0,0,0],"sum_hessian":[8.769595E3,4.3327676E3,4.436827E3,2.0239109E3,2.308857E3,1.6944287E3,2.7423987E3],"tree_param":{"num_deleted":"0","num_feature":"104","num_nodes":"7","size_leaf_vector":"0"}},{"base_weights":[-1.6775389E-1,-3.8495862E-1,4.4374745E-2,-2.1461737E-1,-5.541382E-1,-2.1009178E-1,1.9672576E-1],"categories":[],"categories_nodes":[],"categories_segments":[],"categories_sizes":[],"default_left":[true,true,true,false,false,false,false],"id":8,"left_children":[1,3,5,-1,-1,-1,-1],"loss_changes":[4.0409387E2,1.24756775E2,1.7208301E2,0E0,0E0,0E0,0E0],"parents":[2147483647,0,0,1,1,2,2],"right_children":[2,4,6,-1,-1,-1,-1],"split_conditions":[1.45E1,1.25E1,-1.45E0,-2.1461737E-3,-5.541382E-3,-2.1009177E-3,1.9672576E-3],"split_indices":[51,80,77,0,0,0,0],"split_type":[0,0,0,0,0,0,0],"sum_hessian":[8.768913E3,4.332216E3,4.4366978E3,2.1598267E3,2.1723892E3,1.6613778E3,2.7753198E3],"tree_param":{"num_deleted":"0","num_feature":"104","num_nodes":"7","size_leaf_vector":"0"}},{"base_weights":[1.6775389E-1,3.8495862E-1,-4.4374745E-2,2.1461728E-1,5.541383E-1,2.1009178E-1,-1.9672576E-1],"categories":[],"categories_nodes":[],"categories_segments":[],"categories_sizes":[],"default_left":[true,true,true,false,false,false,false],"id":9,"left_children":[1,3,5,-1,-1,-1,-1],"loss_changes":[4.0409387E2,1.2475696E2,1.7208301E2,0E0,0E0,0E0,0E0],"parents":[2147483647,0,0,1,1,2,2],"right_children":[2,4,6,-1,-1,-1,-1],"split_conditions":[1.45E1,1.25E1,-1.45E0,2.1461728E-3,5.541383E-3,2.1009177E-3,-1.9672576E-3],"split_indices":[51,80,77,0,0,0,0],"split_type":[0,0,0,0,0,0,0],"sum_hessian":[8.768913E3,4.332216E3,4.4366978E3,2.159827E3,2.172389E3,1.6613778E3,2.7753198E3],"tree_param":{"num_deleted":"0","num_feature":"104","num_nodes":"7","size_leaf_vector":"0"}},{"base_weights":[-1.660939E-1,-3.811731E-1,4.3932635E-2,-2.0153332E-1,-5.3855115E-1,-2.0406802E-1,1.9718084E-1],"categories":[],"categories_nodes":[],"categories_segments":[],"categories_sizes":[],"default_left":[true,true,true,false,false,false,false],"id":10,"left_children":[1,3,5,-1,-1,-1,-1],"loss_changes":[3.96135E2,1.2237744E2,1.6869154E2,0E0,0E0,0E0,0E0],"parents":[2147483647,0,0,1,1,2,2],"right_children":[2,4,6,-1,-1,-1,-1],"split_conditions":[1.45E1,1.15E1,-1.3499999E0,-2.0153332E-3,-5.3855116E-3,-2.0406803E-3,1.9718083E-3],"split_indices":[51,80,77,0,0,0,0],"split_type":[0,0,0,0,0,0,0],"sum_hessian":[8.768044E3,4.331512E3,4.4365317E3,2.023762E3,2.3077505E3,1.6943093E3,2.7422224E3],"tree_param":{"num_deleted":"0","num_feature":"104","num_nodes":"7","size_leaf_vector":"0"}},{"base_weights":[1.6609389E-1,3.811731E-1,-4.3932665E-2,2.0153333E-1,5.3855115E-1,2.0406793E-1,-1.9718084E-1],"categories":[],"categories_nodes":[],"categories_segments":[],"categories_sizes":[],"default_left":[true,true,true,false,false,false,false],"id":11,"left_children":[1,3,5,-1,-1,-1,-1],"loss_changes":[3.9613504E2,1.2237744E2,1.6869147E2,0E0,0E0,0E0,0E0],"parents":[2147483647,0,0,1,1,2,2],"right_children":[2,4,6,-1,-1,-1,-1],"split_conditions":[1.45E1,1.15E1,-1.3499999E0,2.0153334E-3,5.3855116E-3,2.0406793E-3,-1.9718083E-3],"split_indices":[51,80,77,0,0,0,0],"split_type":[0,0,0,0,0,0,0],"sum_hessian":[8.768044E3,4.331512E3,4.4365317E3,2.0237621E3,2.3077502E3,1.6943094E3,2.7422224E3],"tree_param":{"num_deleted":"0","num_feature":"104","num_nodes":"7","size_leaf_vector":"0"}},{"base_weights":[-1.6445357E-1,-3.7743694E-1,4.3495215E-2,-2.1026666E-1,-5.435527E-1,-2.05971E-1,1.9285104E-1],"categories":[],"categories_nodes":[],"categories_segments":[],"categories_sizes":[],"default_left":[true,true,true,false,false,false,false],"id":12,"left_children":[1,3,5,-1,-1,-1,-1],"loss_changes":[3.8834808E2,1.201745E2,1.6537135E2,0E0,0E0,0E0,0E0],"parents":[2147483647,0,0,1,1,2,2],"right_children":[2,4,6,-1,-1,-1,-1],"split_conditions":[1.45E1,1.25E1,-1.45E0,-2.1026665E-3,-5.435527E-3,-2.05971E-3,1.9285104E-3],"split_indices":[51,80,77,0,0,0,0],"split_type":[0,0,0,0,0,0,0],"sum_hessian":[8.767003E3,4.33067E3,4.4363335E3,2.1596128E3,2.171057E3,1.6612312E3,2.7751025E3],"tree_param":{"num_deleted":"0","num_feature":"104","num_nodes":"7","size_leaf_vector":"0"}},{"base_weights":[1.6445354E-1,3.7743694E-1,-4.3495245E-2,2.1026666E-1,5.435527E-1,2.059709E-1,-1.9285104E-1],"categories":[],"categories_nodes":[],"categories_segments":[],"categories_sizes":[],"default_left":[true,true,true,false,false,false,false],"id":13,"left_children":[1,3,5,-1,-1,-1,-1],"loss_changes":[3.8834808E2,1.2017456E2,1.6537128E2,0E0,0E0,0E0,0E0],"parents":[2147483647,0,0,1,1,2,2],"right_children":[2,4,6,-1,-1,-1,-1],"split_conditions":[1.45E1,1.25E1,-1.45E0,2.1026665E-3,5.435527E-3,2.059709E-3,-1.9285104E-3],"split_indices":[51,80,77,0,0,0,0],"split_type":[0,0,0,0,0,0,0],"sum_hessian":[8.767003E3,4.3306694E3,4.436334E3,2.1596128E3,2.1710566E3,1.6612313E3,2.7751025E3],"tree_param":{"num_deleted":"0","num_feature":"104","num_nodes":"7","size_leaf_vector":"0"}},{"base_weights":[-1.6283274E-1,-3.737499E-1,4.3062575E-2,-1.9743848E-1,-5.283038E-1,-2.0006827E-1,1.9330028E-1],"categories":[],"categories_nodes":[],"categories_segments":[],"categories_sizes":[],"default_left":[true,true,true,false,false,false,false],"id":14,"left_children":[1,3,5,-1,-1,-1,-1],"loss_changes":[3.8073004E2,1.1790521E2,1.6211455E2,0E0,0E0,0E0,0E0],"parents":[2147483647,0,0,1,1,2,2],"right_children":[2,4,6,-1,-1,-1,-1],"split_conditions":[1.45E1,1.15E1,-1.3499999E0,-1.9743848E-3,-5.283038E-3,-2.0006825E-3,1.9330027E-3],"split_indices":[51,80,77,0,0,0,0],"split_type":[0,0,0,0,0,0,0],"sum_hessian":[8.765786E3,4.329684E3,4.436102E3,2.0235471E3,2.3061372E3,1.6941362E3,2.7419656E3],"tree_param":{"num_deleted":"0","num_feature":"104","num_nodes":"7","size_leaf_vector":"0"}},{"base_weights":[1.6283278E-1,3.737499E-1,-4.3062493E-2,1.9743848E-1,5.283038E-1,2.0006835E-1,-1.9330017E-1],"categories":[],"categories_nodes":[],"categories_segments":[],"categories_sizes":[],"default_left":[true,true,true,false,false,false,false],"id":15,"left_children":[1,3,5,-1,-1,-1,-1],"loss_changes":[3.8072992E2,1.1790521E2,1.6211453E2,0E0,0E0,0E0,0E0],"parents":[2147483647,0,0,1,1,2,2],"right_children":[2,4,6,-1,-1,-1,-1],"split_conditions":[1.45E1,1.15E1,-1.3499999E0,1.9743848E-3,5.283038E-3,2.0006835E-3,-1.9330017E-3],"split_indices":[51,80,77,0,0,0,0],"split_type":[0,0,0,0,0,0,0],"sum_hessian":[8.765786E3,4.329684E3,4.436102E3,2.0235471E3,2.3061372E3,1.6941361E3,2.7419658E3],"tree_param":{"num_deleted":"0","num_feature":"104","num_nodes":"7","size_leaf_vector":"0"}},{"base_weights":[-1.612309E-1,1.2382859E-1,-3.1110615E-1,-6.859306E-2,2.9659456E-1,-5.492805E-1,-1.8584982E-1],"categories":[],"categories_nodes":[],"categories_segments":[],"categories_sizes":[],"default_left":[true,true,true,false,false,false,false],"id":16,"left_children":[1,3,5,-1,-1,-1,-1],"loss_changes":[3.7452612E2,1.0045715E2,1.7129352E2,0E0,0E0,0E0,0E0],"parents":[2147483647,0,0,1,1,2,2],"right_children":[2,4,6,-1,-1,-1,-1],"split_conditions":[-1.6500001E0,-2.5E-1,-1.45E0,-6.859306E-4,2.9659455E-3,-5.492805E-3,-1.8584981E-3],"split_indices":[25,77,77,0,0,0,0],"split_type":[0,0,0,0,0,0,0],"sum_hessian":[8.764407E3,3.0202085E3,5.7441987E3,1.4291105E3,1.591098E3,1.9785703E3,3.7656287E3],"tree_param":{"num_deleted":"0","num_feature":"104","num_nodes":"7","size_leaf_vector":"0"}},{"base_weights":[1.6123092E-1,-1.23828575E-1,3.1110615E-1,6.8593085E-2,-2.9659456E-1,5.492805E-1,1.8584982E-1],"categories":[],"categories_nodes":[],"categories_segments":[],"categories_sizes":[],"default_left":[true,true,true,false,false,false,false],"id":17,"left_children":[1,3,5,-1,-1,-1,-1],"loss_changes":[3.7452612E2,1.0045717E2,1.7129352E2,0E0,0E0,0E0,0E0],"parents":[2147483647,0,0,1,1,2,2],"right_children":[2,4,6,-1,-1,-1,-1],"split_conditions":[-1.6500001E0,-2.5E-1,-1.45E0,6.8593083E-4,-2.9659455E-3,5.492805E-3,1.8584981E-3],"split_indices":[25,77,77,0,0,0,0],"split_type":[0,0,0,0,0,0,0],"sum_hessian":[8.764407E3,3.0202085E3,5.744199E3,1.4291105E3,1.591098E3,1.9785703E3,3.7656287E3],"tree_param":{"num_deleted":"0","num_feature":"104","num_nodes":"7","size_leaf_vector":"0"}},{"base_weights":[-1.5964235E-1,5.5694655E-2,-3.5480842E-1,-1.14100896E-1,2.526333E-1,-1.8510567E-1,-5.220668E-1],"categories":[],"categories_nodes":[],"categories_segments":[],"categories_sizes":[],"default_left":[true,true,true,false,false,false,false],"id":18,"left_children":[1,3,5,-1,-1,-1,-1],"loss_changes":[3.6834607E2,1.3939104E2,1.304007E2,0E0,0E0,0E0,0E0],"parents":[2147483647,0,0,1,1,2,2],"right_children":[2,4,6,-1,-1,-1,-1],"split_conditions":[5E-2,6.5E-1,1.25E1,-1.1410089E-3,2.526333E-3,-1.8510566E-3,-5.2206675E-3],"split_indices":[25,77,80,0,0,0,0],"split_type":[0,0,0,0,0,0,0],"sum_hessian":[8.76315E3,4.1666167E3,4.5965337E3,2.237726E3,1.9288906E3,2.2826404E3,2.313893E3],"tree_param":{"num_deleted":"0","num_feature":"104","num_nodes":"7","size_leaf_vector":"0"}},{"base_weights":[1.5964235E-1,-5.5694662E-2,3.5480842E-1,1.1410089E-1,-2.526333E-1,1.8510567E-1,5.2206683E-1],"categories":[],"categories_nodes":[],"categories_segments":[],"categories_sizes":[],"default_left":[true,true,true,false,false,false,false],"id":19,"left_children":[1,3,5,-1,-1,-1,-1],"loss_changes":[3.6834613E2,1.3939105E2,1.3040076E2,0E0,0E0,0E0,0E0],"parents":[2147483647,0,0,1,1,2,2],"right_children":[2,4,6,-1,-1,-1,-1],"split_conditions":[5E-2,6.5E-1,1.25E1,1.1410088E-3,-2.526333E-3,1.8510566E-3,5.2206684E-3],"split_indices":[25,77,80,0,0,0,0],"split_type":[0,0,0,0,0,0,0],"sum_hessian":[8.76315E3,4.1666167E3,4.596533E3,2.237726E3,1.9288906E3,2.2826404E3,2.313893E3],"tree_param":{"num_deleted":"0","num_feature":"104","num_nodes":"7","size_leaf_vector":"0"}},{"base_weights":[-1.5807477E-1,-2.8544125E-1,1.6742556E-1,-9.9456556E-2,-4.4193467E-1,-1.517428E-2,3.287219E-1],"categories":[],"categories_nodes":[],"categories_segments":[],"categories_sizes":[],"default_left":[true,true,true,false,false,false,false],"id":20,"left_children":[1,3,5,-1,-1,-1,-1],"loss_changes":[3.6332642E2,1.832774E2,7.260789E1,0E0,0E0,0E0,0E0],"parents":[2147483647,0,0,1,1,2,2],"right_children":[2,4,6,-1,-1,-1,-1],"split_conditions":[2.15E1,1.15E1,-2.5E-1,-9.945655E-4,-4.419347E-3,-1.517428E-4,3.287219E-3],"split_indices":[51,80,77,0,0,0,0],"split_type":[0,0,0,0,0,0,0],"sum_hessian":[8.761606E3,6.2975376E3,2.4640688E3,2.8783716E3,3.4191663E3,1.156138E3,1.3079308E3],"tree_param":{"num_deleted":"0","num_feature":"104","num_nodes":"7","size_leaf_vector":"0"}},{"base_weights":[1.5807477E-1,2.8544125E-1,-1.6742557E-1,9.9456556E-2,4.419347E-1,1.5174279E-2,-3.2872194E-1],"categories":[],"categories_nodes":[],"categories_segments":[],"categories_sizes":[],"default_left":[true,true,true,false,false,false,false],"id":21,"left_children":[1,3,5,-1,-1,-1,-1],"loss_changes":[3.6332648E2,1.832774E2,7.2607895E1,0E0,0E0,0E0,0E0],"parents":[2147483647,0,0,1,1,2,2],"right_children":[2,4,6,-1,-1,-1,-1],"split_conditions":[2.15E1,1.15E1,-2.5E-1,9.945655E-4,4.419347E-3,1.5174279E-4,-3.2872194E-3],"split_indices":[51,80,77,0,0,0,0],"split_type":[0,0,0,0,0,0,0],"sum_hessian":[8.761606E3,6.2975376E3,2.4640688E3,2.8783716E3,3.4191663E3,1.156138E3,1.3079309E3],"tree_param":{"num_deleted":"0","num_feature":"104","num_nodes":"7","size_leaf_vector":"0"}},{"base_weights":[-1.5652099E-1,-3.6100686E-1,4.2929184E-2,-2.010747E-1,-5.2023333E-1,-2.3516318E-1,1.6645135E-1],"categories":[],"categories_nodes":[],"categories_segments":[],"categories_sizes":[],"default_left":[true,true,true,false,false,false,false],"id":22,"left_children":[1,3,5,-1,-1,-1,-1],"loss_changes":[3.5733572E2,1.1006036E2,1.5242056E2,0E0,0E0,0E0,0E0],"parents":[2147483647,0,0,1,1,2,2],"right_children":[2,4,6,-1,-1,-1,-1],"split_conditions":[1.45E1,1.25E1,-2.45E0,-2.010747E-3,-5.2023334E-3,-2.3516319E-3,1.6645135E-3],"split_indices":[51,80,77,0,0,0,0],"split_type":[0,0,0,0,0,0,0],"sum_hessian":[8.760125E3,4.325058E3,4.435067E3,2.1588767E3,2.1661816E3,1.3637888E3,3.0712778E3],"tree_param":{"num_deleted":"0","num_feature":"104","num_nodes":"7","size_leaf_vector":"0"}},{"base_weights":[1.5652102E-1,3.6100692E-1,-4.2929173E-2,2.010748E-1,5.2023333E-1,2.3516323E-1,-1.6645135E-1],"categories":[],"categories_nodes":[],"categories_segments":[],"categories_sizes":[],"default_left":[true,true,true,false,false,false,false],"id":23,"left_children":[1,3,5,-1,-1,-1,-1],"loss_changes":[3.5733575E2,1.100603E2,1.524206E2,0E0,0E0,0E0,0E0],"parents":[2147483647,0,0,1,1,2,2],"right_children":[2,4,6,-1,-1,-1,-1],"split_conditions":[1.45E1,1.25E1,-2.45E0,2.0107478E-3,5.2023334E-3,2.351632E-3,-1.6645135E-3],"split_indices":[51,80,77,0,0,0,0],"split_type":[0,0,0,0,0,0,0],"sum_hessian":[8.760125E3,4.325058E3,4.435067E3,2.1588765E3,2.1661816E3,1.3637887E3,3.0712778E3],"tree_param":{"num_deleted":"0","num_feature":"104","num_nodes":"7","size_leaf_vector":"0"}},{"base_weights":[-1.5499038E-1,-2.8036907E-1,1.6532679E-1,-9.753301E-2,-4.3431893E-1,-1.4103671E-2,3.2384917E-1],"categories":[],"categories_nodes":[],"categories_segments":[],"categories_sizes":[],"default_left":[true,true,true,false,false,false,false],"id":24,"left_children":[1,3,5,-1,-1,-1,-1],"loss_changes":[3.51826E2,1.7716226E2,7.0109634E1,0E0,0E0,0E0,0E0],"parents":[2147483647,0,0,1,1,2,2],"right_children":[2,4,6,-1,-1,-1,-1],"split_conditions":[2.15E1,1.15E1,-2.5E-1,-9.7533007E-4,-4.3431893E-3,-1.410367E-4,3.2384917E-3],"split_indices":[51,80,77,0,0,0,0],"split_type":[0,0,0,0,0,0,0],"sum_hessian":[8.758245E3,6.294553E3,2.4636924E3,2.8780803E3,3.416473E3,1.156063E3,1.3076293E3],"tree_param":{"num_deleted":"0","num_feature":"104","num_nodes":"7","size_leaf_vector":"0"}},{"base_weights":[1.5499033E-1,2.80369E-1,-1.6532682E-1,9.753293E-2,4.3431887E-1,1.4103617E-2,-3.2384917E-1],"categories":[],"categories_nodes":[],"categories_segments":[],"categories_sizes":[],"default_left":[true,true,true,false,false,false,false],"id":25,"left_children":[1,3,5,-1,-1,-1,-1],"loss_changes":[3.5182593E2,1.7716226E2,7.010962E1,0E0,0E0,0E0,0E0],"parents":[2147483647,0,0,1,1,2,2],"right_children":[2,4,6,-1,-1,-1,-1],"split_conditions":[2.15E1,1.15E1,-2.5E-1,9.7532925E-4,4.343189E-3,1.4103616E-4,-3.2384917E-3],"split_indices":[51,80,77,0,0,0,0],"split_type":[0,0,0,0,0,0,0],"sum_hessian":[8.758245E3,6.294553E3,2.4636924E3,2.8780803E3,3.4164727E3,1.156063E3,1.3076293E3],"tree_param":{"num_deleted":"0","num_feature":"104","num_nodes":"7","size_leaf_vector":"0"}},{"base_weights":[-1.5347154E-1,-3.5487533E-1,4.2868964E-2,-1.9791031E-1,-5.113096E-1,-2.3085666E-1,1.6443701E-1],"categories":[],"categories_nodes":[],"categories_segments":[],"categories_sizes":[],"default_left":[true,true,true,false,false,false,false],"id":26,"left_children":[1,3,5,-1,-1,-1,-1],"loss_changes":[3.4631952E2,1.060517E2,1.4763113E2,0E0,0E0,0E0,0E0],"parents":[2147483647,0,0,1,1,2,2],"right_children":[2,4,6,-1,-1,-1,-1],"split_conditions":[1.45E1,1.25E1,-2.45E0,-1.979103E-3,-5.113096E-3,-2.3085666E-3,1.64437E-3],"split_indices":[51,80,77,0,0,0,0],"split_type":[0,0,0,0,0,0,0],"sum_hessian":[8.756503E3,4.322118E3,4.4343853E3,2.1585298E3,2.1635881E3,1.363468E3,3.0709172E3],"tree_param":{"num_deleted":"0","num_feature":"104","num_nodes":"7","size_leaf_vector":"0"}},{"base_weights":[1.5347156E-1,3.5487533E-1,-4.2868946E-2,1.9791031E-1,5.113096E-1,2.3085669E-1,-1.6443698E-1],"categories":[],"categories_nodes":[],"categories_segments":[],"categories_sizes":[],"default_left":[true,true,true,false,false,false,false],"id":27,"left_children":[1,3,5,-1,-1,-1,-1],"loss_changes":[3.4631946E2,1.060517E2,1.4763112E2,0E0,0E0,0E0,0E0],"parents":[2147483647,0,0,1,1,2,2],"right_children":[2,4,6,-1,-1,-1,-1],"split_conditions":[1.45E1,1.25E1,-2.45E0,1.979103E-3,5.113096E-3,2.3085668E-3,-1.6443698E-3],"split_indices":[51,80,77,0,0,0,0],"split_type":[0,0,0,0,0,0,0],"sum_hessian":[8.756503E3,4.322118E3,4.4343853E3,2.1585298E3,2.1635881E3,1.3634679E3,3.0709175E3],"tree_param":{"num_deleted":"0","num_feature":"104","num_nodes":"7","size_leaf_vector":"0"}},{"base_weights":[-1.5197517E-1,-2.7184495E-1,1.7310834E-1,-1.4185488E-1,-4.8433813E-1,-7.698074E-3,3.3745304E-1],"categories":[],"categories_nodes":[],"categories_segments":[],"categories_sizes":[],"default_left":[true,true,true,false,false,false,false],"id":28,"left_children":[1,3,5,-1,-1,-1,-1],"loss_changes":[3.412237E2,1.7663141E2,7.010807E1,0E0,0E0,0E0,0E0],"parents":[2147483647,0,0,1,1,2,2],"right_children":[2,4,6,-1,-1,-1,-1],"split_conditions":[2.05E1,1.65E1,-2.5E-1,-1.4185488E-3,-4.8433812E-3,-7.698074E-5,3.3745302E-3],"split_indices":[28,80,77,0,0,0,0],"split_type":[0,0,0,0,0,0,0],"sum_hessian":[8.754373E3,6.396077E3,2.358296E3,3.9694705E3,2.4266064E3,1.1233632E3,1.2349326E3],"tree_param":{"num_deleted":"0","num_feature":"104","num_nodes":"7","size_leaf_vector":"0"}},{"base_weights":[1.5197515E-1,2.7184492E-1,-1.7310832E-1,1.4185482E-1,4.8433813E-1,7.6980954E-3,-3.37453E-1],"categories":[],"categories_nodes":[],"categories_segments":[],"categories_sizes":[],"default_left":[true,true,true,false,false,false,false],"id":29,"left_children":[1,3,5,-1,-1,-1,-1],"loss_changes":[3.412236E2,1.7663147E2,7.010808E1,0E0,0E0,0E0,0E0],"parents":[2147483647,0,0,1,1,2,2],"right_children":[2,4,6,-1,-1,-1,-1],"split_conditions":[2.05E1,1.65E1,-2.5E-1,1.4185482E-3,4.8433812E-3,7.6980956E-5,-3.37453E-3],"split_indices":[28,80,77,0,0,0,0],"split_type":[0,0,0,0,0,0,0],"sum_hessian":[8.754373E3,6.396077E3,2.3582957E3,3.9694705E3,2.4266064E3,1.1233632E3,1.2349326E3],"tree_param":{"num_deleted":"0","num_feature":"104","num_nodes":"7","size_leaf_vector":"0"}},{"base_weights":[-1.5048832E-1,4.0520504E-2,-3.5152632E-1,-1.9066201E-1,1.7877649E-1,-1.9434819E-1,-5.076951E-1],"categories":[],"categories_nodes":[],"categories_segments":[],"categories_sizes":[],"default_left":[true,true,true,false,false,false,false],"id":30,"left_children":[1,3,5,-1,-1,-1,-1],"loss_changes":[3.3614886E2,1.4353267E2,1.0458862E2,0E0,0E0,0E0,0E0],"parents":[2147483647,0,0,1,1,2,2],"right_children":[2,4,6,-1,-1,-1,-1],"split_conditions":[5.5E-1,-1.45E0,1.25E1,-1.9066201E-3,1.7877648E-3,-1.9434819E-3,-5.076951E-3],"split_indices":[25,77,80,0,0,0,0],"split_type":[0,0,0,0,0,0,0],"sum_hessian":[8.752499E3,4.4886104E3,4.2638887E3,1.6796432E3,2.8089673E3,2.1261956E3,2.1376934E3],"tree_param":{"num_deleted":"0","num_feature":"104","num_nodes":"7","size_leaf_vector":"0"}},{"base_weights":[1.5048832E-1,-4.0520493E-2,3.515263E-1,1.9066203E-1,-1.7877647E-1,1.9434811E-1,5.076951E-1],"categories":[],"categories_nodes":[],"categories_segments":[],"categories_sizes":[],"default_left":[true,true,true,false,false,false,false],"id":31,"left_children":[1,3,5,-1,-1,-1,-1],"loss_changes":[3.361488E2,1.4353267E2,1.04588684E2,0E0,0E0,0E0,0E0],"parents":[2147483647,0,0,1,1,2,2],"right_children":[2,4,6,-1,-1,-1,-1],"split_conditions":[5.5E-1,-1.45E0,1.25E1,1.9066202E-3,-1.7877647E-3,1.943481E-3,5.076951E-3],"split_indices":[25,77,80,0,0,0,0],"split_type":[0,0,0,0,0,0,0],"sum_hessian":[8.752499E3,4.4886104E3,4.263889E3,1.6796432E3,2.8089673E3,2.1261956E3,2.1376934E3],"tree_param":{"num_deleted":"0","num_feature":"104","num_nodes":"7","size_leaf_vector":"0"}},{"base_weights":[-1.4902465E-1,-2.7085665E-1,1.6199587E-1,-9.3675286E-2,-4.2028838E-1,-1.1120678E-2,3.1499377E-1],"categories":[],"categories_nodes":[],"categories_segments":[],"categories_sizes":[],"default_left":[true,true,true,false,false,false,false],"id":32,"left_children":[1,3,5,-1,-1,-1,-1],"loss_changes":[3.316449E2,1.6645563E2,6.525961E1,0E0,0E0,0E0,0E0],"parents":[2147483647,0,0,1,1,2,2],"right_children":[2,4,6,-1,-1,-1,-1],"split_conditions":[2.15E1,1.15E1,-2.5E-1,-9.367528E-4,-4.2028837E-3,-1.1120678E-4,3.1499376E-3],"split_indices":[51,80,77,0,0,0,0],"split_type":[0,0,0,0,0,0,0],"sum_hessian":[8.750155E3,6.287403E3,2.462753E3,2.8773513E3,3.4100515E3,1.1558455E3,1.3069075E3],"tree_param":{"num_deleted":"0","num_feature":"104","num_nodes":"7","size_leaf_vector":"0"}},{"base_weights":[1.4902465E-1,2.7085665E-1,-1.6199583E-1,9.36753E-2,4.2028835E-1,1.1120676E-2,-3.1499368E-1],"categories":[],"categories_nodes":[],"categories_segments":[],"categories_sizes":[],"default_left":[true,true,true,false,false,false,false],"id":33,"left_children":[1,3,5,-1,-1,-1,-1],"loss_changes":[3.3164484E2,1.664556E2,6.525959E1,0E0,0E0,0E0,0E0],"parents":[2147483647,0,0,1,1,2,2],"right_children":[2,4,6,-1,-1,-1,-1],"split_conditions":[2.15E1,1.15E1,-2.5E-1,9.36753E-4,4.202883E-3,1.11206755E-4,-3.1499367E-3],"split_indices":[51,80,77,0,0,0,0],"split_type":[0,0,0,0,0,0,0],"sum_hessian":[8.750156E3,6.287403E3,2.462753E3,2.8773516E3,3.4100515E3,1.1558455E3,1.3069076E3],"tree_param":{"num_deleted":"0","num_feature":"104","num_nodes":"7","size_leaf_vector":"0"}},{"base_weights":[-1.4757209E-1,-3.572218E-1,3.051785E-2,-2.0979208E-1,-5.051511E-1,-2.0061427E-1,1.6794468E-1],"categories":[],"categories_nodes":[],"categories_segments":[],"categories_sizes":[],"default_left":[true,true,true,false,false,false,false],"id":34,"left_children":[1,3,5,-1,-1,-1,-1],"loss_changes":[3.2666644E2,8.753418E1,1.5032257E2,0E0,0E0,0E0,0E0],"parents":[2147483647,0,0,1,1,2,2],"right_children":[2,4,6,-1,-1,-1,-1],"split_conditions":[1.35E1,1.25E1,-1.45E0,-2.0979207E-3,-5.051511E-3,-2.0061426E-3,1.6794468E-3],"split_indices":[51,80,77,0,0,0,0],"split_type":[0,0,0,0,0,0,0],"sum_hessian":[8.747957E3,4.0174998E3,4.7304575E3,2.0133582E3,2.0041415E3,1.7637031E3,2.9667544E3],"tree_param":{"num_deleted":"0","num_feature":"104","num_nodes":"7","size_leaf_vector":"0"}},{"base_weights":[1.4757212E-1,3.5722184E-1,-3.0517817E-2,2.0979208E-1,5.051511E-1,2.0061429E-1,-1.6794464E-1],"categories":[],"categories_nodes":[],"categories_segments":[],"categories_sizes":[],"default_left":[true,true,true,false,false,false,false],"id":35,"left_children":[1,3,5,-1,-1,-1,-1],"loss_changes":[3.2666632E2,8.753418E1,1.5032254E2,0E0,0E0,0E0,0E0],"parents":[2147483647,0,0,1,1,2,2],"right_children":[2,4,6,-1,-1,-1,-1],"split_conditions":[1.35E1,1.25E1,-1.45E0,2.0979207E-3,5.051511E-3,2.0061429E-3,-1.6794463E-3],"split_indices":[51,80,77,0,0,0,0],"split_type":[0,0,0,0,0,0,0],"sum_hessian":[8.747957E3,4.0174998E3,4.7304575E3,2.0133582E3,2.0041415E3,1.7637031E3,2.9667542E3],"tree_param":{"num_deleted":"0","num_feature":"104","num_nodes":"7","size_leaf_vector":"0"}},{"base_weights":[-1.4614035E-1,-2.8462452E-1,1.20107055E-1,-1.2168717E-1,-4.4339487E-1,-1.3079892E-1,2.3120697E-1],"categories":[],"categories_nodes":[],"categories_segments":[],"categories_sizes":[],"default_left":[true,true,true,false,false,false,false],"id":36,"left_children":[1,3,5,-1,-1,-1,-1],"loss_changes":[3.2252347E2,1.4880008E2,8.3473175E1,0E0,0E0,0E0,0E0],"parents":[2147483647,0,0,1,1,2,2],"right_children":[2,4,6,-1,-1,-1,-1],"split_conditions":[1.85E1,1.25E1,-2.45E0,-1.2168717E-3,-4.4339485E-3,-1.3079892E-3,2.3120695E-3],"split_indices":[27,80,77,0,0,0,0],"split_type":[0,0,0,0,0,0,0],"sum_hessian":[8.745408E3,5.753008E3,2.9924006E3,2.840117E3,2.912891E3,9.183159E2,2.0740847E3],"tree_param":{"num_deleted":"0","num_feature":"104","num_nodes":"7","size_leaf_vector":"0"}},{"base_weights":[1.4614035E-1,2.8462452E-1,-1.20107025E-1,1.2168716E-1,4.433948E-1,1.30799E-1,-2.3120698E-1],"categories":[],"categories_nodes":[],"categories_segments":[],"categories_sizes":[],"default_left":[true,true,true,false,false,false,false],"id":37,"left_children":[1,3,5,-1,-1,-1,-1],"loss_changes":[3.2252338E2,1.4880005E2,8.347322E1,0E0,0E0,0E0,0E0],"parents":[2147483647,0,0,1,1,2,2],"right_children":[2,4,6,-1,-1,-1,-1],"split_conditions":[1.85E1,1.25E1,-2.45E0,1.2168715E-3,4.433948E-3,1.3079899E-3,-2.3120698E-3],"split_indices":[27,80,77,0,0,0,0],"split_type":[0,0,0,0,0,0,0],"sum_hessian":[8.745408E3,5.753008E3,2.9924006E3,2.840117E3,2.912891E3,9.183159E2,2.0740847E3],"tree_param":{"num_deleted":"0","num_feature":"104","num_nodes":"7","size_leaf_vector":"0"}},{"base_weights":[-1.4472021E-1,-2.6046744E-1,1.6886723E-1,-1.3521165E-1,-4.656756E-1,-4.2923978E-3,3.2633838E-1],"categories":[],"categories_nodes":[],"categories_segments":[],"categories_sizes":[],"default_left":[true,true,true,false,false,false,false],"id":38,"left_children":[1,3,5,-1,-1,-1,-1],"loss_changes":[3.174231E2,1.6410593E2,6.4297264E1,0E0,0E0,0E0,0E0],"parents":[2147483647,0,0,1,1,2,2],"right_children":[2,4,6,-1,-1,-1,-1],"split_conditions":[2.05E1,1.65E1,-2.5E-1,-1.3521165E-3,-4.656756E-3,-4.2923977E-5,3.2633836E-3],"split_indices":[28,80,77,0,0,0,0],"split_type":[0,0,0,0,0,0,0],"sum_hessian":[8.742977E3,6.3860225E3,2.3569546E3,3.9665574E3,2.4194648E3,1.1230217E3,1.233933E3],"tree_param":{"num_deleted":"0","num_feature":"104","num_nodes":"7","size_leaf_vector":"0"}},{"base_weights":[1.447202E-1,2.6046744E-1,-1.6886725E-1,1.3521162E-1,4.656756E-1,4.2923996E-3,-3.2633838E-1],"categories":[],"categories_nodes":[],"categories_segments":[],"categories_sizes":[],"default_left":[true,true,true,false,false,false,false],"id":39,"left_children":[1,3,5,-1,-1,-1,-1],"loss_changes":[3.1742307E2,1.6410593E2,6.429727E1,0E0,0E0,0E0,0E0],"parents":[2147483647,0,0,1,1,2,2],"right_children":[2,4,6,-1,-1,-1,-1],"split_conditions":[2.05E1,1.65E1,-2.5E-1,1.3521161E-3,4.656756E-3,4.2923995E-5,-3.2633836E-3],"split_indices":[28,80,77,0,0,0,0],"split_type":[0,0,0,0,0,0,0],"sum_hessian":[8.742977E3,6.3860225E3,2.3569546E3,3.9665574E3,2.4194648E3,1.1230217E3,1.233933E3],"tree_param":{"num_deleted":"0","num_feature":"104","num_nodes":"7","size_leaf_vector":"0"}},{"base_weights":[-1.4331315E-1,-3.4880593E-1,3.107193E-2,-1.5229356E-1,-4.5431036E-1,-1.9458546E-1,1.6520067E-1],"categories":[],"categories_nodes":[],"categories_segments":[],"categories_sizes":[],"default_left":[true,true,true,false,false,false,false],"id":40,"left_children":[1,3,5,-1,-1,-1,-1],"loss_changes":[3.13264E2,8.313098E1,1.431843E2,0E0,0E0,0E0,0E0],"parents":[2147483647,0,0,1,1,2,2],"right_children":[2,4,6,-1,-1,-1,-1],"split_conditions":[1.35E1,9.5E0,-1.45E0,-1.5229356E-3,-4.5431033E-3,-1.9458545E-3,1.6520066E-3],"split_indices":[51,103,77,0,0,0,0],"split_type":[0,0,0,0,0,0,0],"sum_hessian":[8.740572E3,4.0119502E3,4.7286226E3,1.4023601E3,2.60959E3,1.7626686E3,2.9659536E3],"tree_param":{"num_deleted":"0","num_feature":"104","num_nodes":"7","size_leaf_vector":"0"}},{"base_weights":[1.4331315E-1,3.488059E-1,-3.107191E-2,1.5229358E-1,4.5431033E-1,1.9458547E-1,-1.6520065E-1],"categories":[],"categories_nodes":[],"categories_segments":[],"categories_sizes":[],"default_left":[true,true,true,false,false,false,false],"id":41,"left_children":[1,3,5,-1,-1,-1,-1],"loss_changes":[3.1326392E2,8.313098E1,1.4318427E2,0E0,0E0,0E0,0E0],"parents":[2147483647,0,0,1,1,2,2],"right_children":[2,4,6,-1,-1,-1,-1],"split_conditions":[1.35E1,9.5E0,-1.45E0,1.5229357E-3,4.5431033E-3,1.9458546E-3,-1.6520065E-3],"split_indices":[51,103,77,0,0,0,0],"split_type":[0,0,0,0,0,0,0],"sum_hessian":[8.740572E3,4.0119502E3,4.7286226E3,1.4023602E3,2.60959E3,1.7626686E3,2.9659539E3],"tree_param":{"num_deleted":"0","num_feature":"104","num_nodes":"7","size_leaf_vector":"0"}},{"base_weights":[-1.4192587E-1,-2.596156E-1,1.5818691E-1,-8.899748E-2,-4.038667E-1,2.4963804E-1,-1.1113421E-1],"categories":[],"categories_nodes":[],"categories_segments":[],"categories_sizes":[],"default_left":[true,true,true,false,false,false,false],"id":42,"left_children":[1,3,5,-1,-1,-1,-1],"loss_changes":[3.0869818E2,1.544671E2,6.067201E1,0E0,0E0,0E0,0E0],"parents":[2147483647,0,0,1,1,2,2],"right_children":[2,4,6,-1,-1,-1,-1],"split_conditions":[2.15E1,1.15E1,2.15E1,-8.899748E-4,-4.038667E-3,2.4963804E-3,-1.1113421E-3],"split_indices":[51,80,80,0,0,0,0],"split_type":[0,0,0,0,0,0,0],"sum_hessian":[8.737827E3,6.2765874E3,2.4612397E3,2.876235E3,3.4003525E3,1.8374017E3,6.2383795E2],"tree_param":{"num_deleted":"0","num_feature":"104","num_nodes":"7","size_leaf_vector":"0"}},{"base_weights":[1.4192587E-1,2.596156E-1,-1.5818693E-1,8.8997506E-2,4.038667E-1,-2.4963804E-1,1.111342E-1],"categories":[],"categories_nodes":[],"categories_segments":[],"categories_sizes":[],"default_left":[true,true,true,false,false,false,false],"id":43,"left_children":[1,3,5,-1,-1,-1,-1],"loss_changes":[3.0869818E2,1.544671E2,6.067201E1,0E0,0E0,0E0,0E0],"parents":[2147483647,0,0,1,1,2,2],"right_children":[2,4,6,-1,-1,-1,-1],"split_conditions":[2.15E1,1.15E1,2.15E1,8.8997505E-4,4.038667E-3,-2.4963804E-3,1.111342E-3],"split_indices":[51,80,80,0,0,0,0],"split_type":[0,0,0,0,0,0,0],"sum_hessian":[8.737827E3,6.276588E3,2.4612395E3,2.876235E3,3.4003525E3,1.8374016E3,6.2383795E2],"tree_param":{"num_deleted":"0","num_feature":"104","num_nodes":"7","size_leaf_vector":"0"}},{"base_weights":[-1.4054994E-1,-3.4311396E-1,3.1220894E-2,-2.0171508E-1,-4.8550236E-1,-1.9091545E-1,1.6322885E-1],"categories":[],"categories_nodes":[],"categories_segments":[],"categories_sizes":[],"default_left":[true,true,true,false,false,false,false],"id":44,"left_children":[1,3,5,-1,-1,-1,-1],"loss_changes":[3.0398276E2,8.061456E1,1.3868375E2,0E0,0E0,0E0,0E0],"parents":[2147483647,0,0,1,1,2,2],"right_children":[2,4,6,-1,-1,-1,-1],"split_conditions":[1.35E1,1.25E1,-1.45E0,-2.0171509E-3,-4.8550237E-3,-1.9091545E-3,1.6322886E-3],"split_indices":[51,80,77,0,0,0,0],"split_type":[0,0,0,0,0,0,0],"sum_hessian":[8.7351875E3,4.0078533E3,4.7273345E3,2.0121267E3,1.9957266E3,1.7619567E3,2.965378E3],"tree_param":{"num_deleted":"0","num_feature":"104","num_nodes":"7","size_leaf_vector":"0"}},{"base_weights":[1.4054993E-1,3.4311396E-1,-3.1220902E-2,2.0171513E-1,4.8550233E-1,1.9091545E-1,-1.6322887E-1],"categories":[],"categories_nodes":[],"categories_segments":[],"categories_sizes":[],"default_left":[true,true,true,false,false,false,false],"id":45,"left_children":[1,3,5,-1,-1,-1,-1],"loss_changes":[3.039828E2,8.061453E1,1.3868378E2,0E0,0E0,0E0,0E0],"parents":[2147483647,0,0,1,1,2,2],"right_children":[2,4,6,-1,-1,-1,-1],"split_conditions":[1.35E1,1.25E1,-1.45E0,2.0171513E-3,4.855023E-3,1.9091545E-3,-1.6322887E-3],"split_indices":[51,80,77,0,0,0,0],"split_type":[0,0,0,0,0,0,0],"sum_hessian":[8.7351875E3,4.0078533E3,4.7273345E3,2.0121268E3,1.9957266E3,1.7619567E3,2.965378E3],"tree_param":{"num_deleted":"0","num_feature":"104","num_nodes":"7","size_leaf_vector":"0"}},{"base_weights":[-1.3919425E-1,-2.5189093E-1,1.6583835E-1,-1.3009945E-1,-4.5184422E-1,-1.6786447E-3,3.1824636E-1],"categories":[],"categories_nodes":[],"categories_segments":[],"categories_sizes":[],"default_left":[true,true,true,false,false,false,false],"id":46,"left_children":[1,3,5,-1,-1,-1,-1],"loss_changes":[3.002541E2,1.5524963E2,6.0168472E1,0E0,0E0,0E0,0E0],"parents":[2147483647,0,0,1,1,2,2],"right_children":[2,4,6,-1,-1,-1,-1],"split_conditions":[2.05E1,1.65E1,-2.5E-1,-1.3009944E-3,-4.518442E-3,-1.6786447E-5,3.1824636E-3],"split_indices":[28,80,77,0,0,0,0],"split_type":[0,0,0,0,0,0,0],"sum_hessian":[8.732153E3,6.376485E3,2.3556682E3,3.9637913E3,2.4126938E3,1.1226802E3,1.232988E3],"tree_param":{"num_deleted":"0","num_feature":"104","num_nodes":"7","size_leaf_vector":"0"}},{"base_weights":[1.3919422E-1,2.5189093E-1,-1.6583839E-1,1.3009942E-1,4.5184422E-1,1.6786035E-3,-3.182464E-1],"categories":[],"categories_nodes":[],"categories_segments":[],"categories_sizes":[],"default_left":[true,true,true,false,false,false,false],"id":47,"left_children":[1,3,5,-1,-1,-1,-1],"loss_changes":[3.002541E2,1.5524963E2,6.0168465E1,0E0,0E0,0E0,0E0],"parents":[2147483647,0,0,1,1,2,2],"right_children":[2,4,6,-1,-1,-1,-1],"split_conditions":[2.05E1,1.65E1,-2.5E-1,1.3009941E-3,4.518442E-3,1.6786034E-5,-3.1824638E-3],"split_indices":[28,80,77,0,0,0,0],"split_type":[0,0,0,0,0,0,0],"sum_hessian":[8.732153E3,6.376485E3,2.3556682E3,3.9637913E3,2.4126938E3,1.1226802E3,1.2329882E3],"tree_param":{"num_deleted":"0","num_feature":"104","num_nodes":"7","size_leaf_vector":"0"}},{"base_weights":[-1.3784677E-1,-3.3757964E-1,3.1388808E-2,-1.4640306E-1,-4.4047335E-1,-2.2294486E-1,1.4325702E-1],"categories":[],"categories_nodes":[],"categories_segments":[],"categories_sizes":[],"default_left":[true,true,true,false,false,false,false],"id":48,"left_children":[1,3,5,-1,-1,-1,-1],"loss_changes":[2.9511426E2,7.870691E1,1.3452144E2,0E0,0E0,0E0,0E0],"parents":[2147483647,0,0,1,1,2,2],"right_children":[2,4,6,-1,-1,-1,-1],"split_conditions":[1.35E1,9.5E0,-2.45E0,-1.4640306E-3,-4.4047334E-3,-2.2294484E-3,1.4325702E-3],"split_indices":[51,103,77,0,0,0,0],"split_type":[0,0,0,0,0,0,0],"sum_hessian":[8.729386E3,4.0034705E3,4.725915E3,1.401642E3,2.6018286E3,1.4433805E3,3.2825347E3],"tree_param":{"num_deleted":"0","num_feature":"104","num_nodes":"7","size_leaf_vector":"0"}},{"base_weights":[1.3784677E-1,3.3757964E-1,-3.1388823E-2,1.4640306E-1,4.4047338E-1,2.2294481E-1,-1.4325704E-1],"categories":[],"categories_nodes":[],"categories_segments":[],"categories_sizes":[],"default_left":[true,true,true,false,false,false,false],"id":49,"left_children":[1,3,5,-1,-1,-1,-1],"loss_changes":[2.9511432E2,7.870694E1,1.3452141E2,0E0,0E0,0E0,0E0],"parents":[2147483647,0,0,1,1,2,2],"right_children":[2,4,6,-1,-1,-1,-1],"split_conditions":[1.35E1,9.5E0,-2.45E0,1.4640306E-3,4.404734E-3,2.2294482E-3,-1.4325703E-3],"split_indices":[51,103,77,0,0,0,0],"split_type":[0,0,0,0,0,0,0],"sum_hessian":[8.729386E3,4.0034705E3,4.725915E3,1.401642E3,2.6018286E3,1.4433805E3,3.2825347E3],"tree_param":{"num_deleted":"0","num_feature":"104","num_nodes":"7","size_leaf_vector":"0"}},{"base_weights":[-1.3651733E-1,-2.510345E-1,1.5519658E-1,-4.675677E-1,-1.4282042E-1,2.4382854E-1,-1.05777286E-1],"categories":[],"categories_nodes":[],"categories_segments":[],"categories_sizes":[],"default_left":[true,true,true,false,false,false,false],"id":50,"left_children":[1,3,5,-1,-1,-1,-1],"loss_changes":[2.915866E2,1.4679218E2,5.69472E1,0E0,0E0,0E0,0E0],"parents":[2147483647,0,0,1,1,2,2],"right_children":[2,4,6,-1,-1,-1,-1],"split_conditions":[2.15E1,-1.75E0,2.15E1,-4.675677E-3,-1.4282041E-3,2.4382854E-3,-1.0577728E-3],"split_indices":[51,77,80,0,0,0,0],"split_type":[0,0,0,0,0,0,0],"sum_hessian":[8.726338E3,6.2664697E3,2.459868E3,2.087041E3,4.1794287E3,1.836292E3,6.235759E2],"tree_param":{"num_deleted":"0","num_feature":"104","num_nodes":"7","size_leaf_vector":"0"}},{"base_weights":[1.3651736E-1,2.5103453E-1,-1.5519655E-1,4.6756777E-1,1.4282042E-1,-2.4382854E-1,1.0577738E-1],"categories":[],"categories_nodes":[],"categories_segments":[],"categories_sizes":[],"default_left":[true,true,true,false,false,false,false],"id":51,"left_children":[1,3,5,-1,-1,-1,-1],"loss_changes":[2.915866E2,1.4679227E2,5.694724E1,0E0,0E0,0E0,0E0],"parents":[2147483647,0,0,1,1,2,2],"right_children":[2,4,6,-1,-1,-1,-1],"split_conditions":[2.15E1,-1.75E0,2.15E1,4.6756775E-3,1.4282041E-3,-2.4382854E-3,1.0577738E-3],"split_indices":[51,77,80,0,0,0,0],"split_type":[0,0,0,0,0,0,0],"sum_hessian":[8.726338E3,6.26647E3,2.459868E3,2.087041E3,4.1794287E3,1.836292E3,6.235759E2],"tree_param":{"num_deleted":"0","num_feature":"104","num_nodes":"7","size_leaf_vector":"0"}},{"base_weights":[-1.3519798E-1,-2.6616028E-1,1.160571E-1,-1.1222003E-1,-4.1688237E-1,2.0719892E-1,-1.527522E-1],"categories":[],"categories_nodes":[],"categories_segments":[],"categories_sizes":[],"default_left":[true,true,true,false,false,false,false],"id":52,"left_children":[1,3,5,-1,-1,-1,-1],"loss_changes":[2.8710846E2,1.3302762E2,7.328662E1,0E0,0E0,0E0,0E0],"parents":[2147483647,0,0,1,1,2,2],"right_children":[2,4,6,-1,-1,-1,-1],"split_conditions":[1.85E1,1.25E1,2.15E1,-1.1222003E-3,-4.1688234E-3,2.0719892E-3,-1.527522E-3],"split_indices":[27,80,80,0,0,0,0],"split_type":[0,0,0,0,0,0,0],"sum_hessian":[8.723451E3,5.734424E3,2.989027E3,2.837788E3,2.8966355E3,2.2323584E3,7.566687E2],"tree_param":{"num_deleted":"0","num_feature":"104","num_nodes":"7","size_leaf_vector":"0"}},{"base_weights":[1.3519798E-1,2.661603E-1,-1.1605713E-1,1.1222004E-1,4.1688243E-1,-2.0719896E-1,1.5275222E-1],"categories":[],"categories_nodes":[],"categories_segments":[],"categories_sizes":[],"default_left":[true,true,true,false,false,false,false],"id":53,"left_children":[1,3,5,-1,-1,-1,-1],"loss_changes":[2.8710855E2,1.3302768E2,7.3286644E1,0E0,0E0,0E0,0E0],"parents":[2147483647,0,0,1,1,2,2],"right_children":[2,4,6,-1,-1,-1,-1],"split_conditions":[1.85E1,1.25E1,2.15E1,1.1222004E-3,4.1688243E-3,-2.0719895E-3,1.5275222E-3],"split_indices":[27,80,80,0,0,0,0],"split_type":[0,0,0,0,0,0,0],"sum_hessian":[8.723451E3,5.734424E3,2.989027E3,2.8377883E3,2.8966355E3,2.2323584E3,7.566687E2],"tree_param":{"num_deleted":"0","num_feature":"104","num_nodes":"7","size_leaf_vector":"0"}},{"base_weights":[-1.3389453E-1,4.1346725E-2,-3.191078E-1,-1.10140264E-1,2.1595755E-1,-2.2250438E-1,-5.319788E-1],"categories":[],"categories_nodes":[],"categories_segments":[],"categories_sizes":[],"default_left":[true,true,true,false,false,false,false],"id":54,"left_children":[1,3,5,-1,-1,-1,-1],"loss_changes":[2.830825E2,1.1858379E2,8.707654E1,0E0,0E0,0E0,0E0],"parents":[2147483647,0,0,1,1,2,2],"right_children":[2,4,6,-1,-1,-1,-1],"split_conditions":[5.5E-1,6.5E-1,1.85E1,-1.1014026E-3,2.1595755E-3,-2.2250437E-3,-5.3197877E-3],"split_indices":[25,77,80,0,0,0,0],"split_type":[0,0,0,0,0,0,0],"sum_hessian":[8.720362E3,4.481205E3,4.239157E3,2.3996829E3,2.081522E3,2.9172979E3,1.3218595E3],"tree_param":{"num_deleted":"0","num_feature":"104","num_nodes":"7","size_leaf_vector":"0"}},{"base_weights":[1.3389453E-1,-4.1346736E-2,3.191078E-1,1.10140264E-1,-2.159576E-1,2.2250439E-1,5.319788E-1],"categories":[],"categories_nodes":[],"categories_segments":[],"categories_sizes":[],"default_left":[true,true,true,false,false,false,false],"id":55,"left_children":[1,3,5,-1,-1,-1,-1],"loss_changes":[2.8308252E2,1.1858382E2,8.7076416E1,0E0,0E0,0E0,0E0],"parents":[2147483647,0,0,1,1,2,2],"right_children":[2,4,6,-1,-1,-1,-1],"split_conditions":[5.5E-1,6.5E-1,1.85E1,1.1014026E-3,-2.159576E-3,2.225044E-3,5.3197877E-3],"split_indices":[25,77,80,0,0,0,0],"split_type":[0,0,0,0,0,0,0],"sum_hessian":[8.720362E3,4.4812046E3,4.239157E3,2.399683E3,2.0815217E3,2.9172979E3,1.3218595E3],"tree_param":{"num_deleted":"0","num_feature":"104","num_nodes":"7","size_leaf_vector":"0"}},{"base_weights":[-1.3260624E-1,-2.4151942E-1,1.6178979E-1,-1.2395579E-1,-4.351506E-1,5.9297105E-4,3.0855912E-1],"categories":[],"categories_nodes":[],"categories_segments":[],"categories_sizes":[],"default_left":[true,true,true,false,false,false,false],"id":56,"left_children":[1,3,5,-1,-1,-1,-1],"loss_changes":[2.7957355E2,1.4482068E2,5.5714233E1,0E0,0E0,0E0,0E0],"parents":[2147483647,0,0,1,1,2,2],"right_children":[2,4,6,-1,-1,-1,-1],"split_conditions":[2.05E1,1.65E1,-2.5E-1,-1.2395579E-3,-4.351506E-3,5.9297104E-6,3.0855911E-3],"split_indices":[28,80,77,0,0,0,0],"split_type":[0,0,0,0,0,0,0],"sum_hessian":[8.717122E3,6.3632046E3,2.3539177E3,3.9603242E3,2.4028804E3,1.1222997E3,1.231618E3],"tree_param":{"num_deleted":"0","num_feature":"104","num_nodes":"7","size_leaf_vector":"0"}},{"base_weights":[1.3260622E-1,2.415194E-1,-1.617898E-1,1.2395579E-1,4.3515053E-1,-5.930013E-4,-3.0855912E-1],"categories":[],"categories_nodes":[],"categories_segments":[],"categories_sizes":[],"default_left":[true,true,true,false,false,false,false],"id":57,"left_children":[1,3,5,-1,-1,-1,-1],"loss_changes":[2.7957355E2,1.4482065E2,5.571422E1,0E0,0E0,0E0,0E0],"parents":[2147483647,0,0,1,1,2,2],"right_children":[2,4,6,-1,-1,-1,-1],"split_conditions":[2.05E1,1.65E1,-2.5E-1,1.2395579E-3,4.351505E-3,-5.9300132E-6,-3.0855911E-3],"split_indices":[28,80,77,0,0,0,0],"split_type":[0,0,0,0,0,0,0],"sum_hessian":[8.717122E3,6.3632046E3,2.3539177E3,3.9603242E3,2.4028804E3,1.1222997E3,1.231618E3],"tree_param":{"num_deleted":"0","num_feature":"104","num_nodes":"7","size_leaf_vector":"0"}},{"base_weights":[-1.3132873E-1,-3.245965E-1,3.20942E-2,-1.390485E-1,-4.2479324E-1,-2.134868E-1,1.4002773E-1],"categories":[],"categories_nodes":[],"categories_segments":[],"categories_sizes":[],"default_left":[true,true,true,false,false,false,false],"id":58,"left_children":[1,3,5,-1,-1,-1,-1],"loss_changes":[2.7526678E2,7.4175476E1,1.25219284E2,0E0,0E0,0E0,0E0],"parents":[2147483647,0,0,1,1,2,2],"right_children":[2,4,6,-1,-1,-1,-1],"split_conditions":[1.35E1,9.5E0,-2.45E0,-1.390485E-3,-4.247932E-3,-2.134868E-3,1.4002773E-3],"split_indices":[51,103,77,0,0,0,0],"split_type":[0,0,0,0,0,0,0],"sum_hessian":[8.713953E3,3.9919702E3,4.721983E3,1.4006268E3,2.5913433E3,1.4413969E3,3.2805862E3],"tree_param":{"num_deleted":"0","num_feature":"104","num_nodes":"7","size_leaf_vector":"0"}},{"base_weights":[1.3132873E-1,3.2459652E-1,-3.209421E-2,1.3904847E-1,4.2479333E-1,2.1348682E-1,-1.4002776E-1],"categories":[],"categories_nodes":[],"categories_segments":[],"categories_sizes":[],"default_left":[true,true,true,false,false,false,false],"id":59,"left_children":[1,3,5,-1,-1,-1,-1],"loss_changes":[2.7526688E2,7.417554E1,1.2521933E2,0E0,0E0,0E0,0E0],"parents":[2147483647,0,0,1,1,2,2],"right_children":[2,4,6,-1,-1,-1,-1],"split_conditions":[1.35E1,9.5E0,-2.45E0,1.3904847E-3,4.247933E-3,2.1348682E-3,-1.4002776E-3],"split_indices":[51,103,77,0,0,0,0],"split_type":[0,0,0,0,0,0,0],"sum_hessian":[8.713953E3,3.99197E3,4.721983E3,1.4006268E3,2.5913433E3,1.4413969E3,3.2805862E3],"tree_param":{"num_deleted":"0","num_feature":"104","num_nodes":"7","size_leaf_vector":"0"}},{"base_weights":[-1.300679E-1,-2.4073668E-1,1.514308E-1,-4.5092258E-1,-1.3603799E-1,2.366456E-1,-9.9415615E-2],"categories":[],"categories_nodes":[],"categories_segments":[],"categories_sizes":[],"default_left":[true,true,true,false,false,false,false],"id":60,"left_children":[1,3,5,-1,-1,-1,-1],"loss_changes":[2.7142786E2,1.3755533E2,5.258644E1,0E0,0E0,0E0,0E0],"parents":[2147483647,0,0,1,1,2,2],"right_children":[2,4,6,-1,-1,-1,-1],"split_conditions":[2.15E1,-1.75E0,2.15E1,-4.5092255E-3,-1.3603799E-3,2.366456E-3,-9.941561E-4],"split_indices":[51,77,80,0,0,0,0],"split_type":[0,0,0,0,0,0,0],"sum_hessian":[8.710533E3,6.252544E3,2.457989E3,2.0778628E3,4.174681E3,1.8347609E3,6.2322815E2],"tree_param":{"num_deleted":"0","num_feature":"104","num_nodes":"7","size_leaf_vector":"0"}},{"base_weights":[1.3006791E-1,2.407367E-1,-1.5143076E-1,4.5092264E-1,1.3603799E-1,-2.3664553E-1,9.941563E-2],"categories":[],"categories_nodes":[],"categories_segments":[],"categories_sizes":[],"default_left":[true,true,true,false,false,false,false],"id":61,"left_children":[1,3,5,-1,-1,-1,-1],"loss_changes":[2.7142786E2,1.3755536E2,5.2586433E1,0E0,0E0,0E0,0E0],"parents":[2147483647,0,0,1,1,2,2],"right_children":[2,4,6,-1,-1,-1,-1],"split_conditions":[2.15E1,-1.75E0,2.15E1,4.5092264E-3,1.3603799E-3,-2.3664553E-3,9.941562E-4],"split_indices":[51,77,80,0,0,0,0],"split_type":[0,0,0,0,0,0,0],"sum_hessian":[8.710533E3,6.252544E3,2.457989E3,2.0778628E3,4.174681E3,1.8347609E3,6.232282E2],"tree_param":{"num_deleted":"0","num_feature":"104","num_nodes":"7","size_leaf_vector":"0"}},{"base_weights":[-1.2881655E-1,-2.3542783E-1,1.591215E-1,-1.20302394E-1,-4.2545503E-1,1.6502503E-3,3.0257687E-1],"categories":[],"categories_nodes":[],"categories_segments":[],"categories_sizes":[],"default_left":[true,true,true,false,false,false,false],"id":62,"left_children":[1,3,5,-1,-1,-1,-1],"loss_changes":[2.6735913E2,1.389903E2,5.3168938E1,0E0,0E0,0E0,0E0],"parents":[2147483647,0,0,1,1,2,2],"right_children":[2,4,6,-1,-1,-1,-1],"split_conditions":[2.05E1,1.65E1,-2.5E-1,-1.203024E-3,-4.25455E-3,1.6502503E-5,3.0257686E-3],"split_indices":[28,80,77,0,0,0,0],"split_type":[0,0,0,0,0,0,0],"sum_hessian":[8.707272E3,6.3546113E3,2.3526614E3,3.9582139E3,2.3963975E3,1.1220244E3,1.230637E3],"tree_param":{"num_deleted":"0","num_feature":"104","num_nodes":"7","size_leaf_vector":"0"}},{"base_weights":[1.2881653E-1,2.3542783E-1,-1.5912156E-1,1.203024E-1,4.2545503E-1,-1.6502768E-3,-3.0257696E-1],"categories":[],"categories_nodes":[],"categories_segments":[],"categories_sizes":[],"default_left":[true,true,true,false,false,false,false],"id":63,"left_children":[1,3,5,-1,-1,-1,-1],"loss_changes":[2.6735925E2,1.389903E2,5.316896E1,0E0,0E0,0E0,0E0],"parents":[2147483647,0,0,1,1,2,2],"right_children":[2,4,6,-1,-1,-1,-1],"split_conditions":[2.05E1,1.65E1,-2.5E-1,1.203024E-3,4.25455E-3,-1.6502769E-5,-3.0257695E-3],"split_indices":[28,80,77,0,0,0,0],"split_type":[0,0,0,0,0,0,0],"sum_hessian":[8.707272E3,6.3546113E3,2.3526614E3,3.9582139E3,2.3963975E3,1.1220244E3,1.2306368E3],"tree_param":{"num_deleted":"0","num_feature":"104","num_nodes":"7","size_leaf_vector":"0"}},{"base_weights":[-1.2757881E-1,-3.172586E-1,3.2609712E-2,-1.351576E-1,-4.1580838E-1,-2.073782E-1,1.3801669E-1],"categories":[],"categories_nodes":[],"categories_segments":[],"categories_sizes":[],"default_left":[true,true,true,false,false,false,false],"id":64,"left_children":[1,3,5,-1,-1,-1,-1],"loss_changes":[2.645042E2,7.147046E1,1.19433395E2,0E0,0E0,0E0,0E0],"parents":[2147483647,0,0,1,1,2,2],"right_children":[2,4,6,-1,-1,-1,-1],"split_conditions":[1.35E1,9.5E0,-2.45E0,-1.351576E-3,-4.158084E-3,-2.0737818E-3,1.3801669E-3],"split_indices":[51,103,77,0,0,0,0],"split_type":[0,0,0,0,0,0,0],"sum_hessian":[8.703887E3,3.9846584E3,4.7192285E3,1.4000352E3,2.5846233E3,1.4399102E3,3.279318E3],"tree_param":{"num_deleted":"0","num_feature":"104","num_nodes":"7","size_leaf_vector":"0"}},{"base_weights":[1.2757881E-1,3.172586E-1,-3.2609716E-2,1.351576E-1,4.1580838E-1,2.0737815E-1,-1.3801667E-1],"categories":[],"categories_nodes":[],"categories_segments":[],"categories_sizes":[],"default_left":[true,true,true,false,false,false,false],"id":65,"left_children":[1,3,5,-1,-1,-1,-1],"loss_changes":[2.645042E2,7.147046E1,1.1943336E2,0E0,0E0,0E0,0E0],"parents":[2147483647,0,0,1,1,2,2],"right_children":[2,4,6,-1,-1,-1,-1],"split_conditions":[1.35E1,9.5E0,-2.45E0,1.351576E-3,4.158084E-3,2.0737813E-3,-1.3801666E-3],"split_indices":[51,103,77,0,0,0,0],"split_type":[0,0,0,0,0,0,0],"sum_hessian":[8.703887E3,3.9846584E3,4.7192285E3,1.4000352E3,2.5846233E3,1.4399102E3,3.2793184E3],"tree_param":{"num_deleted":"0","num_feature":"104","num_nodes":"7","size_leaf_vector":"0"}},{"base_weights":[-1.2635696E-1,1.1122706E-1,-2.5208387E-1,-4.5622226E-2,2.5228056E-1,-4.5735535E-1,-1.4556569E-1],"categories":[],"categories_nodes":[],"categories_segments":[],"categories_sizes":[],"default_left":[true,true,true,false,false,false,false],"id":66,"left_children":[1,3,5,-1,-1,-1,-1],"loss_changes":[2.5994104E2,6.664596E1,1.2435538E2,0E0,0E0,0E0,0E0],"parents":[2147483647,0,0,1,1,2,2],"right_children":[2,4,6,-1,-1,-1,-1],"split_conditions":[-1.6500001E0,-2.5E-1,-1.45E0,-4.5622225E-4,2.5228055E-3,-4.5735533E-3,-1.4556568E-3],"split_indices":[25,77,77,0,0,0,0],"split_type":[0,0,0,0,0,0,0],"sum_hessian":[8.700268E3,3.0108435E3,5.6894243E3,1.4259197E3,1.5849237E3,1.94258E3,3.7468442E3],"tree_param":{"num_deleted":"0","num_feature":"104","num_nodes":"7","size_leaf_vector":"0"}},{"base_weights":[1.2635696E-1,-1.1122705E-1,2.5208387E-1,4.5622226E-2,-2.5228056E-1,4.5735535E-1,1.4556567E-1],"categories":[],"categories_nodes":[],"categories_segments":[],"categories_sizes":[],"default_left":[true,true,true,false,false,false,false],"id":67,"left_children":[1,3,5,-1,-1,-1,-1],"loss_changes":[2.5994104E2,6.664595E1,1.2435538E2,0E0,0E0,0E0,0E0],"parents":[2147483647,0,0,1,1,2,2],"right_children":[2,4,6,-1,-1,-1,-1],"split_conditions":[-1.6500001E0,-2.5E-1,-1.45E0,4.5622225E-4,-2.5228055E-3,4.5735533E-3,1.4556567E-3],"split_indices":[25,77,77,0,0,0,0],"split_type":[0,0,0,0,0,0,0],"sum_hessian":[8.700268E3,3.0108435E3,5.689424E3,1.4259197E3,1.5849237E3,1.94258E3,3.746844E3],"tree_param":{"num_deleted":"0","num_feature":"104","num_nodes":"7","size_leaf_vector":"0"}},{"base_weights":[-1.2514651E-1,-3.120166E-1,3.2510933E-2,-1.323946E-1,-4.0938404E-1,-1.0344273E-1,2.1295652E-1],"categories":[],"categories_nodes":[],"categories_segments":[],"categories_sizes":[],"default_left":[true,true,true,false,false,false,false],"id":68,"left_children":[1,3,5,-1,-1,-1,-1],"loss_changes":[2.562556E2,6.955652E1,1.1577664E2,0E0,0E0,0E0,0E0],"parents":[2147483647,0,0,1,1,2,2],"right_children":[2,4,6,-1,-1,-1,-1],"split_conditions":[1.35E1,9.5E0,5.445E-1,-1.3239459E-3,-4.0938403E-3,-1.0344273E-3,2.1295652E-3],"split_indices":[51,103,55,0,0,0,0],"split_type":[0,0,0,0,0,0,0],"sum_hessian":[8.69665E3,3.9791804E3,4.7174697E3,1.3995927E3,2.579588E3,2.6906624E3,2.0268071E3],"tree_param":{"num_deleted":"0","num_feature":"104","num_nodes":"7","size_leaf_vector":"0"}},{"base_weights":[1.251465E-1,3.1201658E-1,-3.2510955E-2,1.323946E-1,4.09384E-1,1.0344271E-1,-2.1295655E-1],"categories":[],"categories_nodes":[],"categories_segments":[],"categories_sizes":[],"default_left":[true,true,true,false,false,false,false],"id":69,"left_children":[1,3,5,-1,-1,-1,-1],"loss_changes":[2.562556E2,6.955649E1,1.1577666E2,0E0,0E0,0E0,0E0],"parents":[2147483647,0,0,1,1,2,2],"right_children":[2,4,6,-1,-1,-1,-1],"split_conditions":[1.35E1,9.5E0,5.445E-1,1.3239459E-3,4.0938403E-3,1.0344271E-3,-2.1295655E-3],"split_indices":[51,103,55,0,0,0,0],"split_type":[0,0,0,0,0,0,0],"sum_hessian":[8.696649E3,3.9791804E3,4.7174697E3,1.3995927E3,2.5795876E3,2.6906624E3,2.0268071E3],"tree_param":{"num_deleted":"0","num_feature":"104","num_nodes":"7","size_leaf_vector":"0"}},{"base_weights":[-1.2394808E-1,-2.278326E-1,1.5626982E-1,-1.156756E-1,-4.134959E-1,4.181534E-3,2.949387E-1],"categories":[],"categories_nodes":[],"categories_segments":[],"categories_sizes":[],"default_left":[true,true,true,false,false,false,false],"id":70,"left_children":[1,3,5,-1,-1,-1,-1],"loss_changes":[2.5312077E2,1.3203589E2,4.9601788E1,0E0,0E0,0E0,0E0],"parents":[2147483647,0,0,1,1,2,2],"right_children":[2,4,6,-1,-1,-1,-1],"split_conditions":[2.05E1,1.65E1,-2.5E-1,-1.156756E-3,-4.134959E-3,4.181534E-5,2.949387E-3],"split_indices":[28,80,77,0,0,0,0],"split_type":[0,0,0,0,0,0,0],"sum_hessian":[8.693008E3,6.3420293E3,2.3509785E3,3.954678E3,2.387351E3,1.1217279E3,1.2292506E3],"tree_param":{"num_deleted":"0","num_feature":"104","num_nodes":"7","size_leaf_vector":"0"}},{"base_weights":[1.239481E-1,2.2783262E-1,-1.5626982E-1,1.1567564E-1,4.134959E-1,-4.181532E-3,-2.949387E-1],"categories":[],"categories_nodes":[],"categories_segments":[],"categories_sizes":[],"default_left":[true,true,true,false,false,false,false],"id":71,"left_children":[1,3,5,-1,-1,-1,-1],"loss_changes":[2.5312082E2,1.320358E2,4.960179E1,0E0,0E0,0E0,0E0],"parents":[2147483647,0,0,1,1,2,2],"right_children":[2,4,6,-1,-1,-1,-1],"split_conditions":[2.05E1,1.65E1,-2.5E-1,1.1567564E-3,4.134959E-3,-4.181532E-5,-2.949387E-3],"split_indices":[28,80,77,0,0,0,0],"split_type":[0,0,0,0,0,0,0],"sum_hessian":[8.693008E3,6.3420293E3,2.3509785E3,3.954678E3,2.387351E3,1.1217279E3,1.2292506E3],"tree_param":{"num_deleted":"0","num_feature":"104","num_nodes":"7","size_leaf_vector":"0"}},{"base_weights":[-1.2276079E-1,-3.0708948E-1,3.2594565E-2,-3.662418E-1,-1.8008988E-2,-2.0078538E-1,1.3503425E-1],"categories":[],"categories_nodes":[],"categories_segments":[],"categories_sizes":[],"default_left":[true,true,true,false,false,false,false],"id":72,"left_children":[1,3,5,-1,-1,-1,-1],"loss_changes":[2.4887141E2,6.795923E1,1.12791306E2,0E0,0E0,0E0,0E0],"parents":[2147483647,0,0,1,1,2,2],"right_children":[2,4,6,-1,-1,-1,-1],"split_conditions":[1.35E1,5.6499996E0,-2.45E0,-3.662418E-3,-1.8008988E-4,-2.0078537E-3,1.3503424E-3],"split_indices":[51,77,77,0,0,0,0],"split_type":[0,0,0,0,0,0,0],"sum_hessian":[8.689373E3,3.97366E3,4.715713E3,3.2984553E3,6.752045E2,1.4382059E3,3.277507E3],"tree_param":{"num_deleted":"0","num_feature":"104","num_nodes":"7","size_leaf_vector":"0"}},{"base_weights":[1.227608E-1,3.0708948E-1,-3.2594554E-2,3.662418E-1,1.800902E-2,2.007854E-1,-1.3503423E-1],"categories":[],"categories_nodes":[],"categories_segments":[],"categories_sizes":[],"default_left":[true,true,true,false,false,false,false],"id":73,"left_children":[1,3,5,-1,-1,-1,-1],"loss_changes":[2.4887141E2,6.795923E1,1.1279129E2,0E0,0E0,0E0,0E0],"parents":[2147483647,0,0,1,1,2,2],"right_children":[2,4,6,-1,-1,-1,-1],"split_conditions":[1.35E1,5.6499996E0,-2.45E0,3.662418E-3,1.800902E-4,2.007854E-3,-1.3503423E-3],"split_indices":[51,77,77,0,0,0,0],"split_type":[0,0,0,0,0,0,0],"sum_hessian":[8.689373E3,3.97366E3,4.715713E3,3.2984553E3,6.752045E2,1.4382059E3,3.277507E3],"tree_param":{"num_deleted":"0","num_feature":"104","num_nodes":"7","size_leaf_vector":"0"}},{"base_weights":[-1.2158651E-1,-2.2718501E-1,1.4641562E-1,-7.279966E-2,-3.5901168E-1,2.2756521E-1,-9.232112E-2],"categories":[],"categories_nodes":[],"categories_segments":[],"categories_sizes":[],"default_left":[true,true,true,false,false,false,false],"id":74,"left_children":[1,3,5,-1,-1,-1,-1],"loss_changes":[2.458708E2,1.268031E2,4.7600025E1,0E0,0E0,0E0,0E0],"parents":[2147483647,0,0,1,1,2,2],"right_children":[2,4,6,-1,-1,-1,-1],"split_conditions":[2.15E1,1.15E1,2.15E1,-7.279966E-4,-3.5901167E-3,2.275652E-3,-9.2321116E-4],"split_indices":[51,80,80,0,0,0,0],"split_type":[0,0,0,0,0,0,0],"sum_hessian":[8.6856455E3,6.2307505E3,2.4548953E3,2.8705425E3,3.3602083E3,1.832166E3,6.227293E2],"tree_param":{"num_deleted":"0","num_feature":"104","num_nodes":"7","size_leaf_vector":"0"}},{"base_weights":[1.215865E-1,2.2718503E-1,-1.4641565E-1,7.2799675E-2,3.590117E-1,-2.2756526E-1,9.23211E-2],"categories":[],"categories_nodes":[],"categories_segments":[],"categories_sizes":[],"default_left":[true,true,true,false,false,false,false],"id":75,"left_children":[1,3,5,-1,-1,-1,-1],"loss_changes":[2.4587083E2,1.268031E2,4.7600033E1,0E0,0E0,0E0,0E0],"parents":[2147483647,0,0,1,1,2,2],"right_children":[2,4,6,-1,-1,-1,-1],"split_conditions":[2.15E1,1.15E1,2.15E1,7.2799675E-4,3.590117E-3,-2.2756525E-3,9.2321093E-4],"split_indices":[51,80,80,0,0,0,0],"split_type":[0,0,0,0,0,0,0],"sum_hessian":[8.6856455E3,6.2307505E3,2.4548953E3,2.8705425E3,3.3602083E3,1.832166E3,6.2272925E2],"tree_param":{"num_deleted":"0","num_feature":"104","num_nodes":"7","size_leaf_vector":"0"}},{"base_weights":[-1.204236E-1,-2.2213031E-1,1.5366949E-1,-4.1656858E-1,-1.18546404E-1,5.0685196E-3,2.892509E-1],"categories":[],"categories_nodes":[],"categories_segments":[],"categories_sizes":[],"default_left":[true,true,true,false,false,false,false],"id":76,"left_children":[1,3,5,-1,-1,-1,-1],"loss_changes":[2.4208804E2,1.275087E2,4.7356018E1,0E0,0E0,0E0,0E0],"parents":[2147483647,0,0,1,1,2,2],"right_children":[2,4,6,-1,-1,-1,-1],"split_conditions":[2.05E1,-1.45E0,-2.5E-1,-4.1656857E-3,-1.185464E-3,5.0685194E-5,2.892509E-3],"split_indices":[28,77,77,0,0,0,0],"split_type":[0,0,0,0,0,0,0],"sum_hessian":[8.681892E3,6.332357E3,2.349535E3,2.1998945E3,4.1324624E3,1.1214417E3,1.2280934E3],"tree_param":{"num_deleted":"0","num_feature":"104","num_nodes":"7","size_leaf_vector":"0"}},{"base_weights":[1.2042361E-1,2.2213033E-1,-1.5366948E-1,4.165686E-1,1.18546404E-1,-5.0685257E-3,-2.892509E-1],"categories":[],"categories_nodes":[],"categories_segments":[],"categories_sizes":[],"default_left":[true,true,true,false,false,false,false],"id":77,"left_children":[1,3,5,-1,-1,-1,-1],"loss_changes":[2.4208806E2,1.2750873E2,4.735601E1,0E0,0E0,0E0,0E0],"parents":[2147483647,0,0,1,1,2,2],"right_children":[2,4,6,-1,-1,-1,-1],"split_conditions":[2.05E1,-1.45E0,-2.5E-1,4.165686E-3,1.185464E-3,-5.0685256E-5,-2.892509E-3],"split_indices":[28,77,77,0,0,0,0],"split_type":[0,0,0,0,0,0,0],"sum_hessian":[8.681892E3,6.3323564E3,2.349535E3,2.1998945E3,4.1324624E3,1.1214417E3,1.2280933E3],"tree_param":{"num_deleted":"0","num_feature":"104","num_nodes":"7","size_leaf_vector":"0"}},{"base_weights":[-1.1927206E-1,4.182126E-2,-2.904287E-1,-9.766344E-2,2.0251739E-1,-3.546183E-1,-7.0981686E-3],"categories":[],"categories_nodes":[],"categories_segments":[],"categories_sizes":[],"default_left":[true,true,true,false,false,false,false],"id":78,"left_children":[1,3,5,-1,-1,-1,-1],"loss_changes":[2.3931448E2,1.0025523E2,7.653235E1,0E0,0E0,0E0,0E0],"parents":[2147483647,0,0,1,1,2,2],"right_children":[2,4,6,-1,-1,-1,-1],"split_conditions":[5.5E-1,6.5E-1,5.3500004E0,-9.766343E-4,2.0251737E-3,-3.546183E-3,-7.098168E-5],"split_indices":[25,77,77,0,0,0,0],"split_type":[0,0,0,0,0,0,0],"sum_hessian":[8.678119E3,4.470872E3,4.207247E3,2.3936067E3,2.0772654E3,3.4299314E3,7.773157E2],"tree_param":{"num_deleted":"0","num_feature":"104","num_nodes":"7","size_leaf_vector":"0"}},{"base_weights":[1.1927204E-1,-4.182126E-2,2.9042867E-1,9.766343E-2,-2.0251738E-1,3.5461828E-1,7.098067E-3],"categories":[],"categories_nodes":[],"categories_segments":[],"categories_sizes":[],"default_left":[true,true,true,false,false,false,false],"id":79,"left_children":[1,3,5,-1,-1,-1,-1],"loss_changes":[2.3931439E2,1.0025522E2,7.653241E1,0E0,0E0,0E0,0E0],"parents":[2147483647,0,0,1,1,2,2],"right_children":[2,4,6,-1,-1,-1,-1],"split_conditions":[5.5E-1,6.5E-1,5.3500004E0,9.766343E-4,-2.0251737E-3,3.5461828E-3,7.098067E-5],"split_indices":[25,77,77,0,0,0,0],"split_type":[0,0,0,0,0,0,0],"sum_hessian":[8.678119E3,4.470872E3,4.207247E3,2.3936067E3,2.0772651E3,3.4299314E3,7.773157E2],"tree_param":{"num_deleted":"0","num_feature":"104","num_nodes":"7","size_leaf_vector":"0"}},{"base_weights":[-1.18132465E-1,-2.0580298E-1,1.9213109E-1,-5.2407406E-2,-3.367984E-1,-6.224065E-2,2.6549634E-1],"categories":[],"categories_nodes":[],"categories_segments":[],"categories_sizes":[],"default_left":[true,true,true,false,false,false,false],"id":80,"left_children":[1,3,5,-1,-1,-1,-1],"loss_changes":[2.3601564E2,1.3590857E2,3.5694733E1,0E0,0E0,0E0,0E0],"parents":[2147483647,0,0,1,1,2,2],"right_children":[2,4,6,-1,-1,-1,-1],"split_conditions":[2.35E1,1.15E1,3.595E-1,-5.240741E-4,-3.367984E-3,-6.224065E-4,2.6549634E-3],"split_indices":[51,80,55,0,0,0,0],"split_type":[0,0,0,0,0,0,0],"sum_hessian":[8.674283E3,6.763478E3,1.9108052E3,3.1160203E3,3.647458E3,4.2777548E2,1.4830297E3],"tree_param":{"num_deleted":"0","num_feature":"104","num_nodes":"7","size_leaf_vector":"0"}},{"base_weights":[1.1813245E-1,2.0580296E-1,-1.9213109E-1,5.2407365E-2,3.367984E-1,6.2240656E-2,-2.6549634E-1],"categories":[],"categories_nodes":[],"categories_segments":[],"categories_sizes":[],"default_left":[true,true,true,false,false,false,false],"id":81,"left_children":[1,3,5,-1,-1,-1,-1],"loss_changes":[2.3601562E2,1.3590863E2,3.5694725E1,0E0,0E0,0E0,0E0],"parents":[2147483647,0,0,1,1,2,2],"right_children":[2,4,6,-1,-1,-1,-1],"split_conditions":[2.35E1,1.15E1,3.595E-1,5.2407366E-4,3.367984E-3,6.2240654E-4,-2.6549634E-3],"split_indices":[51,80,55,0,0,0,0],"split_type":[0,0,0,0,0,0,0],"sum_hessian":[8.674283E3,6.7634785E3,1.9108052E3,3.1160203E3,3.647458E3,4.2777548E2,1.4830297E3],"tree_param":{"num_deleted":"0","num_feature":"104","num_nodes":"7","size_leaf_vector":"0"}},{"base_weights":[-1.1700179E-1,-2.9577807E-1,3.3317603E-2,-4.8264727E-1,-2.084707E-1,-1.9242707E-1,1.3231108E-1],"categories":[],"categories_nodes":[],"categories_segments":[],"categories_sizes":[],"default_left":[true,true,true,false,false,false,false],"id":82,"left_children":[1,3,5,-1,-1,-1,-1],"loss_changes":[2.3304599E2,6.452295E1,1.0531691E2,0E0,0E0,0E0,0E0],"parents":[2147483647,0,0,1,1,2,2],"right_children":[2,4,6,-1,-1,-1,-1],"split_conditions":[1.35E1,-1.75E0,-2.45E0,-4.8264726E-3,-2.084707E-3,-1.9242706E-3,1.3231108E-3],"split_indices":[51,77,77,0,0,0,0],"split_type":[0,0,0,0,0,0,0],"sum_hessian":[8.670584E3,3.9599775E3,4.7106064E3,1.2595529E3,2.7004248E3,1.4356979E3,3.2749087E3],"tree_param":{"num_deleted":"0","num_feature":"104","num_nodes":"7","size_leaf_vector":"0"}},{"base_weights":[1.17001764E-1,2.9577804E-1,-3.3317614E-2,4.8264718E-1,2.0847067E-1,1.9242704E-1,-1.3231108E-1],"categories":[],"categories_nodes":[],"categories_segments":[],"categories_sizes":[],"default_left":[true,true,true,false,false,false,false],"id":83,"left_children":[1,3,5,-1,-1,-1,-1],"loss_changes":[2.3304599E2,6.452295E1,1.0531688E2,0E0,0E0,0E0,0E0],"parents":[2147483647,0,0,1,1,2,2],"right_children":[2,4,6,-1,-1,-1,-1],"split_conditions":[1.35E1,-1.75E0,-2.45E0,4.8264717E-3,2.0847067E-3,1.9242703E-3,-1.3231108E-3],"split_indices":[51,77,77,0,0,0,0],"split_type":[0,0,0,0,0,0,0],"sum_hessian":[8.670584E3,3.9599775E3,4.7106064E3,1.2595529E3,2.7004248E3,1.4356979E3,3.2749087E3],"tree_param":{"num_deleted":"0","num_feature":"104","num_nodes":"7","size_leaf_vector":"0"}},{"base_weights":[-1.15888216E-1,-2.3370552E-1,1.0891407E-1,-3.1886363E-1,-5.7200766E-3,1.9067869E-1,-1.322468E-1],"categories":[],"categories_nodes":[],"categories_segments":[],"categories_sizes":[],"default_left":[true,true,true,false,false,false,false],"id":84,"left_children":[1,3,5,-1,-1,-1,-1],"loss_changes":[2.2958891E2,1.10415924E2,5.880954E1,0E0,0E0,0E0,0E0],"parents":[2147483647,0,0,1,1,2,2],"right_children":[2,4,6,-1,-1,-1,-1],"split_conditions":[1.85E1,6.3549995E-1,2.15E1,-3.1886362E-3,-5.7200767E-5,1.9067868E-3,-1.322468E-3],"split_indices":[27,55,80,0,0,0,0],"split_type":[0,0,0,0,0,0,0],"sum_hessian":[8.666483E3,5.686296E3,2.9801873E3,4.1396406E3,1.5466552E3,2.2257612E3,7.54426E2],"tree_param":{"num_deleted":"0","num_feature":"104","num_nodes":"7","size_leaf_vector":"0"}},{"base_weights":[1.158882E-1,2.337055E-1,-1.0891411E-1,3.1886363E-1,5.720079E-3,-1.9067873E-1,1.322468E-1],"categories":[],"categories_nodes":[],"categories_segments":[],"categories_sizes":[],"default_left":[true,true,true,false,false,false,false],"id":85,"left_children":[1,3,5,-1,-1,-1,-1],"loss_changes":[2.2958894E2,1.10415955E2,5.8809547E1,0E0,0E0,0E0,0E0],"parents":[2147483647,0,0,1,1,2,2],"right_children":[2,4,6,-1,-1,-1,-1],"split_conditions":[1.85E1,6.3549995E-1,2.15E1,3.1886362E-3,5.720079E-5,-1.9067873E-3,1.322468E-3],"split_indices":[27,55,80,0,0,0,0],"split_type":[0,0,0,0,0,0,0],"sum_hessian":[8.666483E3,5.686296E3,2.9801873E3,4.1396406E3,1.5466553E3,2.2257612E3,7.5442596E2],"tree_param":{"num_deleted":"0","num_feature":"104","num_nodes":"7","size_leaf_vector":"0"}},{"base_weights":[-1.1478045E-1,-2.0073707E-1,1.8914667E-1,-3.9938197E-1,-1.0282086E-1,-5.8720976E-2,2.606565E-1],"categories":[],"categories_nodes":[],"categories_segments":[],"categories_sizes":[],"default_left":[true,true,true,false,false,false,false],"id":86,"left_children":[1,3,5,-1,-1,-1,-1],"loss_changes":[2.2637299E2,1.3133023E2,3.3880203E1,0E0,0E0,0E0,0E0],"parents":[2147483647,0,0,1,1,2,2],"right_children":[2,4,6,-1,-1,-1,-1],"split_conditions":[2.35E1,-1.75E0,3.595E-1,-3.9938195E-3,-1.0282085E-3,-5.8720977E-4,2.606565E-3],"split_indices":[51,77,55,0,0,0,0],"split_type":[0,0,0,0,0,0,0],"sum_hessian":[8.66269E3,6.7531147E3,1.9095754E3,2.2286738E3,4.524441E3,4.2760126E2,1.4819741E3],"tree_param":{"num_deleted":"0","num_feature":"104","num_nodes":"7","size_leaf_vector":"0"}},{"base_weights":[1.1478042E-1,2.0073704E-1,-1.8914671E-1,3.993819E-1,1.02820836E-1,5.872095E-2,-2.6065654E-1],"categories":[],"categories_nodes":[],"categories_segments":[],"categories_sizes":[],"default_left":[true,true,true,false,false,false,false],"id":87,"left_children":[1,3,5,-1,-1,-1,-1],"loss_changes":[2.2637299E2,1.313302E2,3.388021E1,0E0,0E0,0E0,0E0],"parents":[2147483647,0,0,1,1,2,2],"right_children":[2,4,6,-1,-1,-1,-1],"split_conditions":[2.35E1,-1.75E0,3.595E-1,3.993819E-3,1.0282083E-3,5.872095E-4,-2.6065654E-3],"split_indices":[51,77,55,0,0,0,0],"split_type":[0,0,0,0,0,0,0],"sum_hessian":[8.66269E3,6.7531147E3,1.9095754E3,2.228674E3,4.524441E3,4.2760126E2,1.4819741E3],"tree_param":{"num_deleted":"0","num_feature":"104","num_nodes":"7","size_leaf_vector":"0"}},{"base_weights":[-1.1368335E-1,3.2541946E-2,-2.9057565E-1,-1.8883097E-1,1.2893713E-1,-3.755247E-1,-9.3506075E-2],"categories":[],"categories_nodes":[],"categories_segments":[],"categories_sizes":[],"default_left":[true,true,true,false,false,false,false],"id":88,"left_children":[1,3,5,-1,-1,-1,-1],"loss_changes":[2.2400748E2,1.0121101E2,6.5573975E1,0E0,0E0,0E0,0E0],"parents":[2147483647,0,0,1,1,2,2],"right_children":[2,4,6,-1,-1,-1,-1],"split_conditions":[9.5E-1,-2.45E0,3.55E0,-1.8883097E-3,1.2893712E-3,-3.755247E-3,-9.350607E-4],"split_indices":[25,77,77,0,0,0,0],"split_type":[0,0,0,0,0,0,0],"sum_hessian":[8.658897E3,4.7408022E3,3.918095E3,1.4378348E3,3.3029675E3,2.7372622E3,1.180833E3],"tree_param":{"num_deleted":"0","num_feature":"104","num_nodes":"7","size_leaf_vector":"0"}},{"base_weights":[1.1368335E-1,-3.2541938E-2,2.9057565E-1,1.8883097E-1,-1.2893711E-1,3.755247E-1,9.350605E-2],"categories":[],"categories_nodes":[],"categories_segments":[],"categories_sizes":[],"default_left":[true,true,true,false,false,false,false],"id":89,"left_children":[1,3,5,-1,-1,-1,-1],"loss_changes":[2.2400745E2,1.01211006E2,6.5573975E1,0E0,0E0,0E0,0E0],"parents":[2147483647,0,0,1,1,2,2],"right_children":[2,4,6,-1,-1,-1,-1],"split_conditions":[9.5E-1,-2.45E0,3.55E0,1.8883097E-3,-1.289371E-3,3.755247E-3,9.350605E-4],"split_indices":[25,77,77,0,0,0,0],"split_type":[0,0,0,0,0,0,0],"sum_hessian":[8.658897E3,4.7408022E3,3.9180952E3,1.4378348E3,3.3029675E3,2.7372622E3,1.180833E3],"tree_param":{"num_deleted":"0","num_feature":"104","num_nodes":"7","size_leaf_vector":"0"}},{"base_weights":[-1.1260201E-1,1.5464692E-1,-2.0777854E-1,-7.6950334E-2,2.2606818E-1,-4.0809456E-1,-1.1114712E-1],"categories":[],"categories_nodes":[],"categories_segments":[],"categories_sizes":[],"default_left":[true,true,true,false,false,false,false],"id":90,"left_children":[1,3,5,-1,-1,-1,-1],"loss_changes":[2.2019788E2,3.762586E1,1.2351071E2,0E0,0E0,0E0,0E0],"parents":[2147483647,0,0,1,1,2,2],"right_children":[2,4,6,-1,-1,-1,-1],"split_conditions":[-3.05E0,3.595E-1,-1.75E0,-7.695033E-4,2.2606817E-3,-4.0809456E-3,-1.1114712E-3],"split_indices":[25,55,77,0,0,0,0],"split_type":[0,0,0,0,0,0,0],"sum_hessian":[8.654733E3,2.2726553E3,6.3820786E3,5.356451E2,1.7370101E3,2.0757812E3,4.3062974E3],"tree_param":{"num_deleted":"0","num_feature":"104","num_nodes":"7","size_leaf_vector":"0"}},{"base_weights":[1.12602E-1,-1.546469E-1,2.0777854E-1,7.695036E-2,-2.2606818E-1,4.0809453E-1,1.11147106E-1],"categories":[],"categories_nodes":[],"categories_segments":[],"categories_sizes":[],"default_left":[true,true,true,false,false,false,false],"id":91,"left_children":[1,3,5,-1,-1,-1,-1],"loss_changes":[2.2019788E2,3.7625862E1,1.2351074E2,0E0,0E0,0E0,0E0],"parents":[2147483647,0,0,1,1,2,2],"right_children":[2,4,6,-1,-1,-1,-1],"split_conditions":[-3.05E0,3.595E-1,-1.75E0,7.6950353E-4,-2.2606817E-3,4.080945E-3,1.111471E-3],"split_indices":[25,55,77,0,0,0,0],"split_type":[0,0,0,0,0,0,0],"sum_hessian":[8.654733E3,2.2726553E3,6.3820786E3,5.3564514E2,1.7370101E3,2.0757812E3,4.3062974E3],"tree_param":{"num_deleted":"0","num_feature":"104","num_nodes":"7","size_leaf_vector":"0"}},{"base_weights":[-1.11528344E-1,-2.8482842E-1,3.3814106E-2,-2.2282961E-1,-5.369705E-1,-9.2717506E-2,2.0158471E-1],"categories":[],"categories_nodes":[],"categories_segments":[],"categories_sizes":[],"default_left":[true,true,true,false,false,false,false],"id":92,"left_children":[1,3,5,-1,-1,-1,-1],"loss_changes":[2.1792877E2,6.1572968E1,9.992584E1,0E0,0E0,0E0,0E0],"parents":[2147483647,0,0,1,1,2,2],"right_children":[2,4,6,-1,-1,-1,-1],"split_conditions":[1.35E1,2.25E1,5.445E-1,-2.2282961E-3,-5.3697047E-3,-9.2717505E-4,2.015847E-3],"split_indices":[51,80,55,0,0,0,0],"split_type":[0,0,0,0,0,0,0],"sum_hessian":[8.650753E3,3.9454312E3,4.7053223E3,3.1682732E3,7.77158E2,2.6825818E3,2.0227402E3],"tree_param":{"num_deleted":"0","num_feature":"104","num_nodes":"7","size_leaf_vector":"0"}},{"base_weights":[1.11528374E-1,2.8482845E-1,-3.3814084E-2,2.2282963E-1,5.3697056E-1,9.271752E-2,-2.0158468E-1],"categories":[],"categories_nodes":[],"categories_segments":[],"categories_sizes":[],"default_left":[true,true,true,false,false,false,false],"id":93,"left_children":[1,3,5,-1,-1,-1,-1],"loss_changes":[2.1792877E2,6.157303E1,9.9925835E1,0E0,0E0,0E0,0E0],"parents":[2147483647,0,0,1,1,2,2],"right_children":[2,4,6,-1,-1,-1,-1],"split_conditions":[1.35E1,2.25E1,5.445E-1,2.2282961E-3,5.3697056E-3,9.2717516E-4,-2.0158468E-3],"split_indices":[51,80,55,0,0,0,0],"split_type":[0,0,0,0,0,0,0],"sum_hessian":[8.650754E3,3.9454312E3,4.7053223E3,3.1682732E3,7.771581E2,2.6825818E3,2.0227402E3],"tree_param":{"num_deleted":"0","num_feature":"104","num_nodes":"7","size_leaf_vector":"0"}},{"base_weights":[-1.1046696E-1,-2.0622708E-1,1.4885448E-1,-4.99526E-2,-3.2393146E-1,2.081771E-1,-1.7395225E-1],"categories":[],"categories_nodes":[],"categories_segments":[],"categories_sizes":[],"default_left":[true,true,true,false,false,false,false],"id":94,"left_children":[1,3,5,-1,-1,-1,-1],"loss_changes":[2.1477473E2,1.1616019E2,4.470722E1,0E0,0E0,0E0,0E0],"parents":[2147483647,0,0,1,1,2,2],"right_children":[2,4,6,-1,-1,-1,-1],"split_conditions":[2.15E1,1.05E1,2.55E1,-4.99526E-4,-3.2393145E-3,2.081771E-3,-1.7395224E-3],"split_indices":[29,80,103,0,0,0,0],"split_type":[0,0,0,0,0,0,0],"sum_hessian":[8.646648E3,6.3149277E3,2.3317205E3,2.7135754E3,3.6013523E3,1.9700388E3,3.616816E2],"tree_param":{"num_deleted":"0","num_feature":"104","num_nodes":"7","size_leaf_vector":"0"}},{"base_weights":[1.1046696E-1,2.0622706E-1,-1.488545E-1,4.995259E-2,3.2393146E-1,-2.0817712E-1,1.7395222E-1],"categories":[],"categories_nodes":[],"categories_segments":[],"categories_sizes":[],"default_left":[true,true,true,false,false,false,false],"id":95,"left_children":[1,3,5,-1,-1,-1,-1],"loss_changes":[2.1477475E2,1.1616019E2,4.4707207E1,0E0,0E0,0E0,0E0],"parents":[2147483647,0,0,1,1,2,2],"right_children":[2,4,6,-1,-1,-1,-1],"split_conditions":[2.15E1,1.05E1,2.55E1,4.9952586E-4,3.2393145E-3,-2.0817711E-3,1.7395222E-3],"split_indices":[29,80,103,0,0,0,0],"split_type":[0,0,0,0,0,0,0],"sum_hessian":[8.646648E3,6.3149277E3,2.3317205E3,2.7135754E3,3.6013523E3,1.9700388E3,3.6168158E2],"tree_param":{"num_deleted":"0","num_feature":"104","num_nodes":"7","size_leaf_vector":"0"}},{"base_weights":[-1.0941423E-1,3.272351E-2,-2.8174055E-1,-9.090729E-2,1.9679388E-1,-3.6518162E-1,-8.883592E-2],"categories":[],"categories_nodes":[],"categories_segments":[],"categories_sizes":[],"default_left":[true,true,true,false,false,false,false],"id":96,"left_children":[1,3,5,-1,-1,-1,-1],"loss_changes":[2.1172667E2,9.611609E1,6.285562E1,0E0,0E0,0E0,0E0],"parents":[2147483647,0,0,1,1,2,2],"right_children":[2,4,6,-1,-1,-1,-1],"split_conditions":[9.5E-1,5.445E-1,3.55E0,-9.0907287E-4,1.9679388E-3,-3.6518162E-3,-8.8835915E-4],"split_indices":[25,55,77,0,0,0,0],"split_type":[0,0,0,0,0,0,0],"sum_hessian":[8.642621E3,4.7366006E3,3.9060203E3,2.7014453E3,2.0351552E3,2.7259954E3,1.1800249E3],"tree_param":{"num_deleted":"0","num_feature":"104","num_nodes":"7","size_leaf_vector":"0"}},{"base_weights":[1.09414235E-1,-3.272351E-2,2.8174055E-1,9.090729E-2,-1.9679388E-1,3.6518162E-1,8.883597E-2],"categories":[],"categories_nodes":[],"categories_segments":[],"categories_sizes":[],"default_left":[true,true,true,false,false,false,false],"id":97,"left_children":[1,3,5,-1,-1,-1,-1],"loss_changes":[2.1172668E2,9.61161E1,6.285559E1,0E0,0E0,0E0,0E0],"parents":[2147483647,0,0,1,1,2,2],"right_children":[2,4,6,-1,-1,-1,-1],"split_conditions":[9.5E-1,5.445E-1,3.55E0,9.0907287E-4,-1.9679388E-3,3.6518162E-3,8.883597E-4],"split_indices":[25,55,77,0,0,0,0],"split_type":[0,0,0,0,0,0,0],"sum_hessian":[8.642621E3,4.7366006E3,3.9060203E3,2.7014453E3,2.0351552E3,2.7259954E3,1.1800249E3],"tree_param":{"num_deleted":"0","num_feature":"104","num_nodes":"7","size_leaf_vector":"0"}},{"base_weights":[-1.08373985E-1,-1.9121103E-1,1.8394192E-1,-5.4975454E-2,-3.2428268E-1,-5.315394E-2,2.5239277E-1],"categories":[],"categories_nodes":[],"categories_segments":[],"categories_sizes":[],"default_left":[true,true,true,false,false,false,false],"id":98,"left_children":[1,3,5,-1,-1,-1,-1],"loss_changes":[2.0923486E2,1.2203162E2,3.0981842E1,0E0,0E0,0E0,0E0],"parents":[2147483647,0,0,1,1,2,2],"right_children":[2,4,6,-1,-1,-1,-1],"split_conditions":[2.35E1,1.25E1,3.595E-1,-5.4975454E-4,-3.2428268E-3,-5.315394E-4,2.5239277E-3],"split_indices":[51,80,55,0,0,0,0],"split_type":[0,0,0,0,0,0,0],"sum_hessian":[8.638409E3,6.7312427E3,1.9071667E3,3.326779E3,3.4044636E3,4.2730777E2,1.4798589E3],"tree_param":{"num_deleted":"0","num_feature":"104","num_nodes":"7","size_leaf_vector":"0"}},{"base_weights":[1.0837398E-1,1.9121103E-1,-1.8394193E-1,5.4975465E-2,3.2428268E-1,5.3153902E-2,-2.5239277E-1],"categories":[],"categories_nodes":[],"categories_segments":[],"categories_sizes":[],"default_left":[true,true,true,false,false,false,false],"id":99,"left_children":[1,3,5,-1,-1,-1,-1],"loss_changes":[2.0923488E2,1.2203162E2,3.0981834E1,0E0,0E0,0E0,0E0],"parents":[2147483647,0,0,1,1,2,2],"right_children":[2,4,6,-1,-1,-1,-1],"split_conditions":[2.35E1,1.25E1,3.595E-1,5.4975465E-4,3.2428268E-3,5.3153903E-4,-2.5239277E-3],"split_indices":[51,80,55,0,0,0,0],"split_type":[0,0,0,0,0,0,0],"sum_hessian":[8.638409E3,6.7312427E3,1.9071667E3,3.326779E3,3.4044636E3,4.2730777E2,1.4798589E3],"tree_param":{"num_deleted":"0","num_feature":"104","num_nodes":"7","size_leaf_vector":"0"}},{"base_weights":[-1.0734189E-1,-2.7629614E-1,3.4031842E-2,-2.1537517E-1,-5.2512103E-1,-9.861718E-2,1.8483052E-1],"categories":[],"categories_nodes":[],"categories_segments":[],"categories_sizes":[],"default_left":[true,true,true,false,false,false,false],"id":100,"left_children":[1,3,5,-1,-1,-1,-1],"loss_changes":[2.0626985E2,5.9521545E1,9.4079346E1,0E0,0E0,0E0,0E0],"parents":[2147483647,0,0,1,1,2,2],"right_children":[2,4,6,-1,-1,-1,-1],"split_conditions":[1.35E1,2.25E1,6.5E-1,-2.1537517E-3,-5.25121E-3,-9.861718E-4,1.8483051E-3],"split_indices":[51,80,77,0,0,0,0],"split_type":[0,0,0,0,0,0,0],"sum_hessian":[8.634314E3,3.9330334E3,4.701281E3,3.1609812E3,7.720521E2,2.50134E3,2.1999407E3],"tree_param":{"num_deleted":"0","num_feature":"104","num_nodes":"7","size_leaf_vector":"0"}},{"base_weights":[1.07341886E-1,2.7629614E-1,-3.4031857E-2,2.1537517E-1,5.2512103E-1,9.861717E-2,-1.8483055E-1],"categories":[],"categories_nodes":[],"categories_segments":[],"categories_sizes":[],"default_left":[true,true,true,false,false,false,false],"id":101,"left_children":[1,3,5,-1,-1,-1,-1],"loss_changes":[2.062699E2,5.9521545E1,9.4079346E1,0E0,0E0,0E0,0E0],"parents":[2147483647,0,0,1,1,2,2],"right_children":[2,4,6,-1,-1,-1,-1],"split_conditions":[1.35E1,2.25E1,6.5E-1,2.1537517E-3,5.25121E-3,9.861717E-4,-1.8483055E-3],"split_indices":[51,80,77,0,0,0,0],"split_type":[0,0,0,0,0,0,0],"sum_hessian":[8.634314E3,3.9330334E3,4.701281E3,3.1609812E3,7.7205225E2,2.50134E3,2.1999407E3],"tree_param":{"num_deleted":"0","num_feature":"104","num_nodes":"7","size_leaf_vector":"0"}},{"base_weights":[-1.0632287E-1,-2.0016104E-1,1.4541927E-1,-1.10466875E-1,-3.966421E-1,9.859546E-3,2.6943383E-1],"categories":[],"categories_nodes":[],"categories_segments":[],"categories_sizes":[],"default_left":[true,true,true,false,false,false,false],"id":102,"left_children":[1,3,5,-1,-1,-1,-1],"loss_changes":[2.0391977E2,1.1076715E2,3.9407043E1,0E0,0E0,0E0,0E0],"parents":[2147483647,0,0,1,1,2,2],"right_children":[2,4,6,-1,-1,-1,-1],"split_conditions":[2.05E1,1.85E1,-2.5E-1,-1.1046687E-3,-3.966421E-3,9.859546E-5,2.694338E-3],"split_indices":[28,80,77,0,0,0,0],"split_type":[0,0,0,0,0,0,0],"sum_hessian":[8.630017E3,6.286789E3,2.3432275E3,4.3174316E3,1.9693575E3,1.1200193E3,1.2232083E3],"tree_param":{"num_deleted":"0","num_feature":"104","num_nodes":"7","size_leaf_vector":"0"}},{"base_weights":[1.0632287E-1,2.0016102E-1,-1.4541927E-1,1.1046686E-1,3.9664212E-1,-9.85955E-3,-2.6943383E-1],"categories":[],"categories_nodes":[],"categories_segments":[],"categories_sizes":[],"default_left":[true,true,true,false,false,false,false],"id":103,"left_children":[1,3,5,-1,-1,-1,-1],"loss_changes":[2.0391977E2,1.107672E2,3.9407043E1,0E0,0E0,0E0,0E0],"parents":[2147483647,0,0,1,1,2,2],"right_children":[2,4,6,-1,-1,-1,-1],"split_conditions":[2.05E1,1.85E1,-2.5E-1,1.1046686E-3,3.966421E-3,-9.85955E-5,-2.694338E-3],"split_indices":[28,80,77,0,0,0,0],"split_type":[0,0,0,0,0,0,0],"sum_hessian":[8.630017E3,6.286789E3,2.3432275E3,4.3174316E3,1.9693575E3,1.1200193E3,1.2232083E3],"tree_param":{"num_deleted":"0","num_feature":"104","num_nodes":"7","size_leaf_vector":"0"}},{"base_weights":[-1.0531241E-1,-1.8648905E-1,1.8088551E-1,-2.7826375E-1,5.2079316E-3,-5.127436E-2,2.479538E-1],"categories":[],"categories_nodes":[],"categories_segments":[],"categories_sizes":[],"default_left":[true,true,true,false,false,false,false],"id":104,"left_children":[1,3,5,-1,-1,-1,-1],"loss_changes":[2.0045575E2,1.1824443E2,2.9701328E1,0E0,0E0,0E0,0E0],"parents":[2147483647,0,0,1,1,2,2],"right_children":[2,4,6,-1,-1,-1,-1],"split_conditions":[2.35E1,3.05E0,3.595E-1,-2.7826375E-3,5.2079315E-5,-5.127436E-4,2.4795379E-3],"split_indices":[51,77,55,0,0,0,0],"split_type":[0,0,0,0,0,0,0],"sum_hessian":[8.625763E3,6.720049E3,1.9057137E3,4.54411E3,2.175939E3,4.27195E2,1.4785187E3],"tree_param":{"num_deleted":"0","num_feature":"104","num_nodes":"7","size_leaf_vector":"0"}},{"base_weights":[1.0531243E-1,1.8648908E-1,-1.8088546E-1,2.7826378E-1,-5.207901E-3,5.1274445E-2,-2.4795377E-1],"categories":[],"categories_nodes":[],"categories_segments":[],"categories_sizes":[],"default_left":[true,true,true,false,false,false,false],"id":105,"left_children":[1,3,5,-1,-1,-1,-1],"loss_changes":[2.0045569E2,1.18244415E2,2.9701344E1,0E0,0E0,0E0,0E0],"parents":[2147483647,0,0,1,1,2,2],"right_children":[2,4,6,-1,-1,-1,-1],"split_conditions":[2.35E1,3.05E0,3.595E-1,2.7826377E-3,-5.207901E-5,5.127444E-4,-2.4795376E-3],"split_indices":[51,77,55,0,0,0,0],"split_type":[0,0,0,0,0,0,0],"sum_hessian":[8.625763E3,6.720049E3,1.9057137E3,4.54411E3,2.175939E3,4.2719504E2,1.4785187E3],"tree_param":{"num_deleted":"0","num_feature":"104","num_nodes":"7","size_leaf_vector":"0"}},{"base_weights":[-1.043078E-1,3.3374008E-2,-2.716713E-1,-1.7623585E-1,1.2448535E-1,-3.2838857E-1,1.100459E-3],"categories":[],"categories_nodes":[],"categories_segments":[],"categories_sizes":[],"default_left":[true,true,true,false,false,false,false],"id":106,"left_children":[1,3,5,-1,-1,-1,-1],"loss_changes":[1.987034E2,9.038906E1,6.0212982E1,0E0,0E0,0E0,0E0],"parents":[2147483647,0,0,1,1,2,2],"right_children":[2,4,6,-1,-1,-1,-1],"split_conditions":[9.5E-1,-2.45E0,5.6499996E0,-1.7623585E-3,1.2448535E-3,-3.2838855E-3,1.100459E-5],"split_indices":[25,77,77,0,0,0,0],"split_type":[0,0,0,0,0,0,0],"sum_hessian":[8.621798E3,4.7307993E3,3.890998E3,1.433036E3,3.2977632E3,3.2210442E3,6.699539E2],"tree_param":{"num_deleted":"0","num_feature":"104","num_nodes":"7","size_leaf_vector":"0"}},{"base_weights":[1.0430778E-1,-3.3374026E-2,2.7167127E-1,1.7623584E-1,-1.2448536E-1,3.2838857E-1,-1.1005679E-3],"categories":[],"categories_nodes":[],"categories_segments":[],"categories_sizes":[],"default_left":[true,true,true,false,false,false,false],"id":107,"left_children":[1,3,5,-1,-1,-1,-1],"loss_changes":[1.9870337E2,9.038906E1,6.0213013E1,0E0,0E0,0E0,0E0],"parents":[2147483647,0,0,1,1,2,2],"right_children":[2,4,6,-1,-1,-1,-1],"split_conditions":[9.5E-1,-2.45E0,5.6499996E0,1.7623584E-3,-1.2448536E-3,3.2838855E-3,-1.1005678E-5],"split_indices":[25,77,77,0,0,0,0],"split_type":[0,0,0,0,0,0,0],"sum_hessian":[8.621798E3,4.7307993E3,3.890998E3,1.4330361E3,3.2977634E3,3.2210442E3,6.699539E2],"tree_param":{"num_deleted":"0","num_feature":"104","num_nodes":"7","size_leaf_vector":"0"}},{"base_weights":[-1.0331806E-1,7.8584194E-2,-2.2788385E-1,1.3411847E-1,-2.1741894E-1,-4.147231E-1,-1.3265303E-1],"categories":[],"categories_nodes":[],"categories_segments":[],"categories_sizes":[],"default_left":[true,true,true,false,false,false,false],"id":108,"left_children":[1,3,5,-1,-1,-1,-1],"loss_changes":[1.9530142E2,5.7625114E1,9.096753E1,0E0,0E0,0E0,0E0],"parents":[2147483647,0,0,1,1,2,2],"right_children":[2,4,6,-1,-1,-1,-1],"split_conditions":[4.7149998E-1,2.55E1,-1.45E0,1.3411846E-3,-2.1741893E-3,-4.147231E-3,-1.3265302E-3],"split_indices":[3,103,77,0,0,0,0],"split_type":[0,0,0,0,0,0,0],"sum_hessian":[8.617441E3,3.5027612E3,5.1146797E3,2.9498716E3,5.528898E2,1.7256552E3,3.3890247E3],"tree_param":{"num_deleted":"0","num_feature":"104","num_nodes":"7","size_leaf_vector":"0"}},{"base_weights":[1.03318065E-1,-7.858417E-2,2.2788385E-1,-1.3411845E-1,2.1741897E-1,4.147231E-1,1.3265301E-1],"categories":[],"categories_nodes":[],"categories_segments":[],"categories_sizes":[],"default_left":[true,true,true,false,false,false,false],"id":109,"left_children":[1,3,5,-1,-1,-1,-1],"loss_changes":[1.953014E2,5.762511E1,9.096753E1,0E0,0E0,0E0,0E0],"parents":[2147483647,0,0,1,1,2,2],"right_children":[2,4,6,-1,-1,-1,-1],"split_conditions":[4.7149998E-1,2.55E1,-1.45E0,-1.3411845E-3,2.1741895E-3,4.147231E-3,1.3265301E-3],"split_indices":[3,103,77,0,0,0,0],"split_type":[0,0,0,0,0,0,0],"sum_hessian":[8.617441E3,3.5027612E3,5.1146797E3,2.9498713E3,5.528898E2,1.7256553E3,3.3890247E3],"tree_param":{"num_deleted":"0","num_feature":"104","num_nodes":"7","size_leaf_vector":"0"}},{"base_weights":[-1.02337524E-1,-2.6605582E-1,3.427009E-2,-3.1822205E-1,1.2491037E-2,-8.507238E-2,1.9243507E-1],"categories":[],"categories_nodes":[],"categories_segments":[],"categories_sizes":[],"default_left":[true,true,true,false,false,false,false],"id":110,"left_children":[1,3,5,-1,-1,-1,-1],"loss_changes":[1.9266571E2,5.6940918E1,8.867142E1,0E0,0E0,0E0,0E0],"parents":[2147483647,0,0,1,1,2,2],"right_children":[2,4,6,-1,-1,-1,-1],"split_conditions":[1.35E1,5.95E0,5.445E-1,-3.1822203E-3,1.2491037E-4,-8.507238E-4,1.9243506E-3],"split_indices":[51,77,55,0,0,0,0],"split_type":[0,0,0,0,0,0,0],"sum_hessian":[8.613136E3,3.9173792E3,4.695757E3,3.2993372E3,6.18042E2,2.6766033E3,2.0191534E3],"tree_param":{"num_deleted":"0","num_feature":"104","num_nodes":"7","size_leaf_vector":"0"}},{"base_weights":[1.0233751E-1,2.660558E-1,-3.427009E-2,3.1822205E-1,-1.2491146E-2,8.5072376E-2,-1.9243506E-1],"categories":[],"categories_nodes":[],"categories_segments":[],"categories_sizes":[],"default_left":[true,true,true,false,false,false,false],"id":111,"left_children":[1,3,5,-1,-1,-1,-1],"loss_changes":[1.9266568E2,5.694095E1,8.86714E1,0E0,0E0,0E0,0E0],"parents":[2147483647,0,0,1,1,2,2],"right_children":[2,4,6,-1,-1,-1,-1],"split_conditions":[1.35E1,5.95E0,5.445E-1,3.1822203E-3,-1.2491146E-4,8.5072377E-4,-1.9243505E-3],"split_indices":[51,77,55,0,0,0,0],"split_type":[0,0,0,0,0,0,0],"sum_hessian":[8.613136E3,3.9173792E3,4.695757E3,3.2993372E3,6.1804193E2,2.6766033E3,2.0191533E3],"tree_param":{"num_deleted":"0","num_feature":"104","num_nodes":"7","size_leaf_vector":"0"}},{"base_weights":[-1.01366006E-1,-1.8068075E-1,1.778822E-1,-3.6698222E-1,-8.980839E-2,-4.7470484E-2,2.4301243E-1],"categories":[],"categories_nodes":[],"categories_segments":[],"categories_sizes":[],"default_left":[true,true,true,false,false,false,false],"id":112,"left_children":[1,3,5,-1,-1,-1,-1],"loss_changes":[1.9072626E2,1.13493805E2,2.7971828E1,0E0,0E0,0E0,0E0],"parents":[2147483647,0,0,1,1,2,2],"right_children":[2,4,6,-1,-1,-1,-1],"split_conditions":[2.35E1,-1.75E0,3.595E-1,-3.6698221E-3,-8.9808385E-4,-4.7470484E-4,2.4301242E-3],"split_indices":[51,77,55,0,0,0,0],"split_type":[0,0,0,0,0,0,0],"sum_hessian":[8.6088E3,6.704793E3,1.9040063E3,2.1971924E3,4.5076006E3,4.26965E2,1.4770414E3],"tree_param":{"num_deleted":"0","num_feature":"104","num_nodes":"7","size_leaf_vector":"0"}},{"base_weights":[1.0136602E-1,1.8068078E-1,-1.7788221E-1,3.6698225E-1,8.980841E-2,4.7470525E-2,-2.4301246E-1],"categories":[],"categories_nodes":[],"categories_segments":[],"categories_sizes":[],"default_left":[true,true,true,false,false,false,false],"id":113,"left_children":[1,3,5,-1,-1,-1,-1],"loss_changes":[1.9072632E2,1.13493805E2,2.7971848E1,0E0,0E0,0E0,0E0],"parents":[2147483647,0,0,1,1,2,2],"right_children":[2,4,6,-1,-1,-1,-1],"split_conditions":[2.35E1,-1.75E0,3.595E-1,3.6698224E-3,8.980841E-4,4.7470524E-4,-2.4301244E-3],"split_indices":[51,77,55,0,0,0,0],"split_type":[0,0,0,0,0,0,0],"sum_hessian":[8.6088E3,6.704793E3,1.9040063E3,2.1971926E3,4.5076006E3,4.26965E2,1.4770414E3],"tree_param":{"num_deleted":"0","num_feature":"104","num_nodes":"7","size_leaf_vector":"0"}},{"base_weights":[-1.00402735E-1,-1.9067846E-1,1.4126544E-1,-1.0386079E-1,-3.8188124E-1,1.1052436E-2,2.6056227E-1],"categories":[],"categories_nodes":[],"categories_segments":[],"categories_sizes":[],"default_left":[true,true,true,false,false,false,false],"id":114,"left_children":[1,3,5,-1,-1,-1,-1],"loss_changes":[1.8777237E2,1.0396806E2,3.6361416E1,0E0,0E0,0E0,0E0],"parents":[2147483647,0,0,1,1,2,2],"right_children":[2,4,6,-1,-1,-1,-1],"split_conditions":[2.05E1,1.85E1,-2.5E-1,-1.0386079E-3,-3.8188123E-3,1.1052436E-4,2.6056226E-3],"split_indices":[28,80,77,0,0,0,0],"split_type":[0,0,0,0,0,0,0],"sum_hessian":[8.604558E3,6.264609E3,2.3399485E3,4.3094155E3,1.9551931E3,1.1193098E3,1.2206387E3],"tree_param":{"num_deleted":"0","num_feature":"104","num_nodes":"7","size_leaf_vector":"0"}},{"base_weights":[1.00402735E-1,1.9067846E-1,-1.4126544E-1,1.03860795E-1,3.8188124E-1,-1.1052447E-2,-2.6056227E-1],"categories":[],"categories_nodes":[],"categories_segments":[],"categories_sizes":[],"default_left":[true,true,true,false,false,false,false],"id":115,"left_children":[1,3,5,-1,-1,-1,-1],"loss_changes":[1.8777237E2,1.0396806E2,3.6361416E1,0E0,0E0,0E0,0E0],"parents":[2147483647,0,0,1,1,2,2],"right_children":[2,4,6,-1,-1,-1,-1],"split_conditions":[2.05E1,1.85E1,-2.5E-1,1.0386079E-3,3.8188123E-3,-1.10524474E-4,-2.6056226E-3],"split_indices":[28,80,77,0,0,0,0],"split_type":[0,0,0,0,0,0,0],"sum_hessian":[8.604557E3,6.2646084E3,2.3399485E3,4.3094155E3,1.9551931E3,1.1193098E3,1.2206387E3],"tree_param":{"num_deleted":"0","num_feature":"104","num_nodes":"7","size_leaf_vector":"0"}},{"base_weights":[-9.9450685E-2,2.8205505E-2,-2.6871467E-1,-1.7311214E-1,1.15369886E-1,-3.2542694E-1,4.1902247E-3],"categories":[],"categories_nodes":[],"categories_segments":[],"categories_sizes":[],"default_left":[true,true,true,false,false,false,false],"id":116,"left_children":[1,3,5,-1,-1,-1,-1],"loss_changes":[1.8585739E2,8.607607E1,5.723581E1,0E0,0E0,0E0,0E0],"parents":[2147483647,0,0,1,1,2,2],"right_children":[2,4,6,-1,-1,-1,-1],"split_conditions":[1.25E0,-2.45E0,5.6499996E0,-1.7311213E-3,1.1536989E-3,-3.2542692E-3,4.1902247E-5],"split_indices":[25,77,77,0,0,0,0],"split_type":[0,0,0,0,0,0,0],"sum_hessian":[8.600135E3,4.903116E3,3.697018E3,1.4811708E3,3.4219456E3,3.0607686E3,6.362495E2],"tree_param":{"num_deleted":"0","num_feature":"104","num_nodes":"7","size_leaf_vector":"0"}},{"base_weights":[9.945068E-2,-2.820552E-2,2.687147E-1,1.7311212E-1,-1.153699E-1,3.2542694E-1,-4.190147E-3],"categories":[],"categories_nodes":[],"categories_segments":[],"categories_sizes":[],"default_left":[true,true,true,false,false,false,false],"id":117,"left_children":[1,3,5,-1,-1,-1,-1],"loss_changes":[1.8585748E2,8.607608E1,5.723575E1,0E0,0E0,0E0,0E0],"parents":[2147483647,0,0,1,1,2,2],"right_children":[2,4,6,-1,-1,-1,-1],"split_conditions":[1.25E0,-2.45E0,5.6499996E0,1.7311212E-3,-1.153699E-3,3.2542692E-3,-4.190147E-5],"split_indices":[25,77,77,0,0,0,0],"split_type":[0,0,0,0,0,0,0],"sum_hessian":[8.600135E3,4.903116E3,3.697018E3,1.4811708E3,3.4219456E3,3.0607686E3,6.3624945E2],"tree_param":{"num_deleted":"0","num_feature":"104","num_nodes":"7","size_leaf_vector":"0"}},{"base_weights":[-9.850822E-2,-1.7624949E-1,1.7495719E-1,-2.65159E-1,8.638281E-3,-4.5122273E-2,2.3860027E-1],"categories":[],"categories_nodes":[],"categories_segments":[],"categories_sizes":[],"default_left":[true,true,true,false,false,false,false],"id":118,"left_children":[1,3,5,-1,-1,-1,-1],"loss_changes":[1.827926E2,1.1004462E2,2.667109E1,0E0,0E0,0E0,0E0],"parents":[2147483647,0,0,1,1,2,2],"right_children":[2,4,6,-1,-1,-1,-1],"split_conditions":[2.35E1,3.05E0,3.595E-1,-2.6515902E-3,8.638281E-5,-4.5122273E-4,2.3860026E-3],"split_indices":[51,77,55,0,0,0,0],"split_type":[0,0,0,0,0,0,0],"sum_hessian":[8.595691E3,6.693271E3,1.9024205E3,4.5194883E3,2.1737827E3,4.2680588E2,1.4756146E3],"tree_param":{"num_deleted":"0","num_feature":"104","num_nodes":"7","size_leaf_vector":"0"}},{"base_weights":[9.850822E-2,1.762495E-1,-1.7495723E-1,2.65159E-1,-8.638272E-3,4.5122255E-2,-2.3860034E-1],"categories":[],"categories_nodes":[],"categories_segments":[],"categories_sizes":[],"default_left":[true,true,true,false,false,false,false],"id":119,"left_children":[1,3,5,-1,-1,-1,-1],"loss_changes":[1.827927E2,1.1004463E2,2.6671104E1,0E0,0E0,0E0,0E0],"parents":[2147483647,0,0,1,1,2,2],"right_children":[2,4,6,-1,-1,-1,-1],"split_conditions":[2.35E1,3.05E0,3.595E-1,2.6515902E-3,-8.6382715E-5,4.5122253E-4,-2.3860033E-3],"split_indices":[51,77,55,0,0,0,0],"split_type":[0,0,0,0,0,0,0],"sum_hessian":[8.595691E3,6.693271E3,1.9024205E3,4.519489E3,2.1737827E3,4.2680588E2,1.4756147E3],"tree_param":{"num_deleted":"0","num_feature":"104","num_nodes":"7","size_leaf_vector":"0"}},{"base_weights":[-9.75708E-2,2.8363677E-2,-2.647502E-1,-9.287545E-2,1.695797E-1,-3.2072645E-1,4.0620444E-3],"categories":[],"categories_nodes":[],"categories_segments":[],"categories_sizes":[],"default_left":[true,true,true,false,false,false,false],"id":120,"left_children":[1,3,5,-1,-1,-1,-1],"loss_changes":[1.8091182E2,8.393754E1,5.5552612E1,0E0,0E0,0E0,0E0],"parents":[2147483647,0,0,1,1,2,2],"right_children":[2,4,6,-1,-1,-1,-1],"split_conditions":[1.25E0,7.5E-1,5.6499996E0,-9.287545E-4,1.695797E-3,-3.2072645E-3,4.062044E-5],"split_indices":[25,77,77,0,0,0,0],"split_type":[0,0,0,0,0,0,0],"sum_hessian":[8.59154E3,4.900714E3,3.6908257E3,2.6370513E3,2.2636628E3,3.0545637E3,6.362619E2],"tree_param":{"num_deleted":"0","num_feature":"104","num_nodes":"7","size_leaf_vector":"0"}},{"base_weights":[9.75708E-2,-2.836367E-2,2.6475018E-1,9.287546E-2,-1.6957968E-1,3.2072645E-1,-4.062072E-3],"categories":[],"categories_nodes":[],"categories_segments":[],"categories_sizes":[],"default_left":[true,true,true,false,false,false,false],"id":121,"left_children":[1,3,5,-1,-1,-1,-1],"loss_changes":[1.8091182E2,8.393753E1,5.5552612E1,0E0,0E0,0E0,0E0],"parents":[2147483647,0,0,1,1,2,2],"right_children":[2,4,6,-1,-1,-1,-1],"split_conditions":[1.25E0,7.5E-1,5.6499996E0,9.2875457E-4,-1.6957968E-3,3.2072645E-3,-4.062072E-5],"split_indices":[25,77,77,0,0,0,0],"split_type":[0,0,0,0,0,0,0],"sum_hessian":[8.59154E3,4.900714E3,3.6908257E3,2.6370513E3,2.2636628E3,3.0545637E3,6.3626184E2],"tree_param":{"num_deleted":"0","num_feature":"104","num_nodes":"7","size_leaf_vector":"0"}},{"base_weights":[-9.664585E-2,-1.8439803E-1,1.3979164E-1,-4.020529E-2,-2.941323E-1,1.9468747E-1,-1.5872522E-1],"categories":[],"categories_nodes":[],"categories_segments":[],"categories_sizes":[],"default_left":[true,true,true,false,false,false,false],"id":122,"left_children":[1,3,5,-1,-1,-1,-1],"loss_changes":[1.7821107E2,9.910109E1,3.8134926E1,0E0,0E0,0E0,0E0],"parents":[2147483647,0,0,1,1,2,2],"right_children":[2,4,6,-1,-1,-1,-1],"split_conditions":[2.15E1,1.05E1,2.55E1,-4.020529E-4,-2.9413227E-3,1.9468747E-3,-1.5872521E-3],"split_indices":[29,80,103,0,0,0,0],"split_type":[0,0,0,0,0,0,0],"sum_hessian":[8.587109E3,6.2628975E3,2.3242122E3,2.7070945E3,3.5558027E3,1.9634846E3,3.6072763E2],"tree_param":{"num_deleted":"0","num_feature":"104","num_nodes":"7","size_leaf_vector":"0"}},{"base_weights":[9.664585E-2,1.8439803E-1,-1.3979162E-1,4.0205278E-2,2.941323E-1,-1.9468744E-1,1.587252E-1],"categories":[],"categories_nodes":[],"categories_segments":[],"categories_sizes":[],"default_left":[true,true,true,false,false,false,false],"id":123,"left_children":[1,3,5,-1,-1,-1,-1],"loss_changes":[1.7821103E2,9.910109E1,3.813491E1,0E0,0E0,0E0,0E0],"parents":[2147483647,0,0,1,1,2,2],"right_children":[2,4,6,-1,-1,-1,-1],"split_conditions":[2.15E1,1.05E1,2.55E1,4.0205277E-4,2.9413227E-3,-1.9468743E-3,1.587252E-3],"split_indices":[29,80,103,0,0,0,0],"split_type":[0,0,0,0,0,0,0],"sum_hessian":[8.587109E3,6.262897E3,2.3242122E3,2.7070945E3,3.5558027E3,1.9634846E3,3.6072763E2],"tree_param":{"num_deleted":"0","num_feature":"104","num_nodes":"7","size_leaf_vector":"0"}},{"base_weights":[-9.5729634E-2,-2.5280112E-1,3.4825243E-2,-1.9454077E-1,-4.9386466E-1,-7.945804E-2,1.8620545E-1],"categories":[],"categories_nodes":[],"categories_segments":[],"categories_sizes":[],"default_left":[true,true,true,false,false,false,false],"id":124,