{"learner":{"attributes":{},"feature_names":[],"feature_types":[],"gradient_booster":{"model":{"gbtree_model_param":{"num_trees":"1000","size_leaf_vector":"0"},"tree_info":[0,1,0,1,0,1,0,1,0,1,0,1,0,1,0,1,0,1,0,1,0,1,0,1,0,1,0,1,0,1,0,1,0,1,0,1,0,1,0,1,0,1,0,1,0,1,0,1,0,1,0,1,0,1,0,1,0,1,0,1,0,1,0,1,0,1,0,1,0,1,0,1,0,1,0,1,0,1,0,1,0,1,0,1,0,1,0,1,0,1,0,1,0,1,0,1,0,1,0,1,0,1,0,1,0,1,0,1,0,1,0,1,0,1,0,1,0,1,0,1,0,1,0,1,0,1,0,1,0,1,0,1,0,1,0,1,0,1,0,1,0,1,0,1,0,1,0,1,0,1,0,1,0,1,0,1,0,1,0,1,0,1,0,1,0,1,0,1,0,1,0,1,0,1,0,1,0,1,0,1,0,1,0,1,0,1,0,1,0,1,0,1,0,1,0,1,0,1,0,1,0,1,0,1,0,1,0,1,0,1,0,1,0,1,0,1,0,1,0,1,0,1,0,1,0,1,0,1,0,1,0,1,0,1,0,1,0,1,0,1,0,1,0,1,0,1,0,1,0,1,0,1,0,1,0,1,0,1,0,1,0,1,0,1,0,1,0,1,0,1,0,1,0,1,0,1,0,1,0,1,0,1,0,1,0,1,0,1,0,1,0,1,0,1,0,1,0,1,0,1,0,1,0,1,0,1,0,1,0,1,0,1,0,1,0,1,0,1,0,1,0,1,0,1,0,1,0,1,0,1,0,1,0,1,0,1,0,1,0,1,0,1,0,1,0,1,0,1,0,1,0,1,0,1,0,1,0,1,0,1,0,1,0,1,0,1,0,1,0,1,0,1,0,1,0,1,0,1,0,1,0,1,0,1,0,1,0,1,0,1,0,1,0,1,0,1,0,1,0,1,0,1,0,1,0,1,0,1,0,1,0,1,0,1,0,1,0,1,0,1,0,1,0,1,0,1,0,1,0,1,0,1,0,1,0,1,0,1,0,1,0,1,0,1,0,1,0,1,0,1,0,1,0,1,0,1,0,1,0,1,0,1,0,1,0,1,0,1,0,1,0,1,0,1,0,1,0,1,0,1,0,1,0,1,0,1,0,1,0,1,0,1,0,1,0,1,0,1,0,1,0,1,0,1,0,1,0,1,0,1,0,1,0,1,0,1,0,1,0,1,0,1,0,1,0,1,0,1,0,1,0,1,0,1,0,1,0,1,0,1,0,1,0,1,0,1,0,1,0,1,0,1,0,1,0,1,0,1,0,1,0,1,0,1,0,1,0,1,0,1,0,1,0,1,0,1,0,1,0,1,0,1,0,1,0,1,0,1,0,1,0,1,0,1,0,1,0,1,0,1,0,1,0,1,0,1,0,1,0,1,0,1,0,1,0,1,0,1,0,1,0,1,0,1,0,1,0,1,0,1,0,1,0,1,0,1,0,1,0,1,0,1,0,1,0,1,0,1,0,1,0,1,0,1,0,1,0,1,0,1,0,1,0,1,0,1,0,1,0,1,0,1,0,1,0,1,0,1,0,1,0,1,0,1,0,1,0,1,0,1,0,1,0,1,0,1,0,1,0,1,0,1,0,1,0,1,0,1,0,1,0,1,0,1,0,1,0,1,0,1,0,1,0,1,0,1,0,1,0,1,0,1,0,1,0,1,0,1,0,1,0,1,0,1,0,1,0,1,0,1,0,1,0,1,0,1,0,1,0,1,0,1,0,1,0,1,0,1,0,1,0,1,0,1,0,1,0,1,0,1,0,1,0,1,0,1,0,1,0,1,0,1,0,1,0,1,0,1,0,1,0,1,0,1,0,1,0,1,0,1,0,1,0,1,0,1,0,1,0,1,0,1,0,1,0,1,0,1,0,1,0,1,0,1,0,1,0,1,0,1,0,1,0,1,0,1,0,1,0,1,0,1,0,1,0,1,0,1,0,1,0,1,0,1,0,1,0,1,0,1,0,1,0,1,0,1,0,1,0,1,0,1,0,1,0,1,0,1,0,1,0,1,0,1,0,1,0,1,0,1,0,1,0,1,0,1,0,1,0,1,0,1,0,1,0,1,0,1,0,1,0,1,0,1,0,1,0,1,0,1,0,1,0,1,0,1,0,1,0,1,0,1,0,1,0,1,0,1,0,1,0,1,0,1,0,1,0,1,0,1,0,1,0,1,0,1,0,1,0,1,0,1,0,1,0,1,0,1,0,1,0,1,0,1,0,1,0,1,0,1,0,1,0,1,0,1,0,1,0,1],"trees":[{"base_weights":[-1.671892E-1,-3.936035E-1,5.357947E-2,-2.0700715E-1,-5.5748373E-1,-2.3578317E-1,2.015649E-1],"categories":[],"categories_nodes":[],"categories_segments":[],"categories_sizes":[],"default_left":[true,true,true,false,false,false,false],"id":0,"left_children":[1,3,5,-1,-1,-1,-1],"loss_changes":[4.384661E2,1.323089E2,1.9026042E2,0E0,0E0,0E0,0E0],"parents":[2147483647,0,0,1,1,2,2],"right_children":[2,4,6,-1,-1,-1,-1],"split_conditions":[1.45E1,1.15E1,-1.95E0,-2.0700714E-3,-5.5748373E-3,-2.3578317E-3,2.0156489E-3],"split_indices":[51,80,77,0,0,0,0],"split_type":[0,0,0,0,0,0,0],"sum_hessian":[8.7705E3,4.3295E3,4.441E3,2.0255E3,2.304E3,1.5025E3,2.9385E3],"tree_param":{"num_deleted":"0","num_feature":"104","num_nodes":"7","size_leaf_vector":"0"}},{"base_weights":[1.671892E-1,3.936035E-1,-5.357947E-2,2.0700715E-1,5.5748373E-1,2.3578317E-1,-2.015649E-1],"categories":[],"categories_nodes":[],"categories_segments":[],"categories_sizes":[],"default_left":[true,true,true,false,false,false,false],"id":1,"left_children":[1,3,5,-1,-1,-1,-1],"loss_changes":[4.384661E2,1.323089E2,1.9026042E2,0E0,0E0,0E0,0E0],"parents":[2147483647,0,0,1,1,2,2],"right_children":[2,4,6,-1,-1,-1,-1],"split_conditions":[1.45E1,1.15E1,-1.95E0,2.0700714E-3,5.5748373E-3,2.3578317E-3,-2.0156489E-3],"split_indices":[51,80,77,0,0,0,0],"split_type":[0,0,0,0,0,0,0],"sum_hessian":[8.7705E3,4.3295E3,4.441E3,2.0255E3,2.304E3,1.5025E3,2.9385E3],"tree_param":{"num_deleted":"0","num_feature":"104","num_nodes":"7","size_leaf_vector":"0"}},{"base_weights":[-1.6552013E-1,-3.8967648E-1,5.30438E-2,-2.04939E-1,-5.5192846E-1,-2.334282E-1,1.9955067E-1],"categories":[],"categories_nodes":[],"categories_segments":[],"categories_sizes":[],"default_left":[true,true,true,false,false,false,false],"id":2,"left_children":[1,3,5,-1,-1,-1,-1],"loss_changes":[4.2975342E2,1.2968695E2,1.8647699E2,0E0,0E0,0E0,0E0],"parents":[2147483647,0,0,1,1,2,2],"right_children":[2,4,6,-1,-1,-1,-1],"split_conditions":[1.45E1,1.15E1,-1.95E0,-2.04939E-3,-5.5192844E-3,-2.3342818E-3,1.9955067E-3],"split_indices":[51,80,77,0,0,0,0],"split_type":[0,0,0,0,0,0,0],"sum_hessian":[8.770399E3,4.32942E3,4.44098E3,2.0254913E3,2.3039285E3,1.5024917E3,2.938488E3],"tree_param":{"num_deleted":"0","num_feature":"104","num_nodes":"7","size_leaf_vector":"0"}},{"base_weights":[1.6552013E-1,3.8967654E-1,-5.3043857E-2,2.04939E-1,5.519286E-1,2.334282E-1,-1.9955078E-1],"categories":[],"categories_nodes":[],"categories_segments":[],"categories_sizes":[],"default_left":[true,true,true,false,false,false,false],"id":3,"left_children":[1,3,5,-1,-1,-1,-1],"loss_changes":[4.2975357E2,1.2968707E2,1.8647707E2,0E0,0E0,0E0,0E0],"parents":[2147483647,0,0,1,1,2,2],"right_children":[2,4,6,-1,-1,-1,-1],"split_conditions":[1.45E1,1.15E1,-1.95E0,2.04939E-3,5.519286E-3,2.3342818E-3,-1.9955076E-3],"split_indices":[51,80,77,0,0,0,0],"split_type":[0,0,0,0,0,0,0],"sum_hessian":[8.770399E3,4.32942E3,4.4409795E3,2.0254913E3,2.3039285E3,1.5024917E3,2.9384878E3],"tree_param":{"num_deleted":"0","num_feature":"104","num_nodes":"7","size_leaf_vector":"0"}},{"base_weights":[-1.6387145E-1,-3.858028E-1,5.2514035E-2,-2.0289321E-1,-5.464621E-1,-2.3109928E-1,1.9755828E-1],"categories":[],"categories_nodes":[],"categories_segments":[],"categories_sizes":[],"default_left":[true,true,true,false,false,false,false],"id":4,"left_children":[1,3,5,-1,-1,-1,-1],"loss_changes":[4.2123242E2,1.2713641E2,1.8277058E2,0E0,0E0,0E0,0E0],"parents":[2147483647,0,0,1,1,2,2],"right_children":[2,4,6,-1,-1,-1,-1],"split_conditions":[1.45E1,1.15E1,-1.95E0,-2.028932E-3,-5.464621E-3,-2.3109927E-3,1.9755827E-3],"split_indices":[51,80,77,0,0,0,0],"split_type":[0,0,0,0,0,0,0],"sum_hessian":[8.770102E3,4.3291816E3,4.4409194E3,2.0254655E3,2.3037163E3,1.5024669E3,2.9384526E3],"tree_param":{"num_deleted":"0","num_feature":"104","num_nodes":"7","size_leaf_vector":"0"}},{"base_weights":[1.6387148E-1,3.8580284E-1,-5.2514024E-2,2.0289324E-1,5.464622E-1,2.310993E-1,-1.9755828E-1],"categories":[],"categories_nodes":[],"categories_segments":[],"categories_sizes":[],"default_left":[true,true,true,false,false,false,false],"id":5,"left_children":[1,3,5,-1,-1,-1,-1],"loss_changes":[4.2123248E2,1.2713635E2,1.8277061E2,0E0,0E0,0E0,0E0],"parents":[2147483647,0,0,1,1,2,2],"right_children":[2,4,6,-1,-1,-1,-1],"split_conditions":[1.45E1,1.15E1,-1.95E0,2.0289323E-3,5.464622E-3,2.310993E-3,-1.9755827E-3],"split_indices":[51,80,77,0,0,0,0],"split_type":[0,0,0,0,0,0,0],"sum_hessian":[8.770102E3,4.329182E3,4.4409194E3,2.0254656E3,2.3037163E3,1.5024669E3,2.9384526E3],"tree_param":{"num_deleted":"0","num_feature":"104","num_nodes":"7","size_leaf_vector":"0"}},{"base_weights":[-1.6224279E-1,-3.8198113E-1,5.1989973E-2,-2.0086946E-1,-5.4108196E-1,-2.0544769E-1,2.0880021E-1],"categories":[],"categories_nodes":[],"categories_segments":[],"categories_sizes":[],"default_left":[true,true,true,false,false,false,false],"id":6,"left_children":[1,3,5,-1,-1,-1,-1],"loss_changes":[4.1289783E2,1.2465436E2,1.7935414E2,0E0,0E0,0E0,0E0],"parents":[2147483647,0,0,1,1,2,2],"right_children":[2,4,6,-1,-1,-1,-1],"split_conditions":[1.45E1,1.15E1,-1.3499999E0,-2.0086945E-3,-5.4108193E-3,-2.0544769E-3,2.0880022E-3],"split_indices":[51,80,77,0,0,0,0],"split_type":[0,0,0,0,0,0,0],"sum_hessian":[8.769613E3,4.328792E3,4.4408213E3,2.0254236E3,2.3033687E3,1.68092E3,2.7599011E3],"tree_param":{"num_deleted":"0","num_feature":"104","num_nodes":"7","size_leaf_vector":"0"}},{"base_weights":[1.6224277E-1,3.819811E-1,-5.1989987E-2,2.0086944E-1,5.4108196E-1,2.0544766E-1,-2.0880021E-1],"categories":[],"categories_nodes":[],"categories_segments":[],"categories_sizes":[],"default_left":[true,true,true,false,false,false,false],"id":7,"left_children":[1,3,5,-1,-1,-1,-1],"loss_changes":[4.1289777E2,1.2465436E2,1.7935413E2,0E0,0E0,0E0,0E0],"parents":[2147483647,0,0,1,1,2,2],"right_children":[2,4,6,-1,-1,-1,-1],"split_conditions":[1.45E1,1.15E1,-1.3499999E0,2.0086945E-3,5.4108193E-3,2.0544766E-3,-2.0880022E-3],"split_indices":[51,80,77,0,0,0,0],"split_type":[0,0,0,0,0,0,0],"sum_hessian":[8.769613E3,4.328792E3,4.440821E3,2.0254235E3,2.3033684E3,1.6809199E3,2.7599011E3],"tree_param":{"num_deleted":"0","num_feature":"104","num_nodes":"7","size_leaf_vector":"0"}},{"base_weights":[-1.6063356E-1,-3.7821037E-1,5.1471513E-2,-1.988675E-1,-5.357857E-1,-2.2675048E-1,1.937566E-1],"categories":[],"categories_nodes":[],"categories_segments":[],"categories_sizes":[],"default_left":[true,true,true,false,false,false,false],"id":8,"left_children":[1,3,5,-1,-1,-1,-1],"loss_changes":[4.0474506E2,1.2223822E2,1.7587654E2,0E0,0E0,0E0,0E0],"parents":[2147483647,0,0,1,1,2,2],"right_children":[2,4,6,-1,-1,-1,-1],"split_conditions":[1.45E1,1.15E1,-1.95E0,-1.988675E-3,-5.357857E-3,-2.2675048E-3,1.9375659E-3],"split_indices":[51,80,77,0,0,0,0],"split_type":[0,0,0,0,0,0,0],"sum_hessian":[8.768947E3,4.3282534E3,4.440694E3,2.0253652E3,2.3028884E3,1.5023767E3,2.9383174E3],"tree_param":{"num_deleted":"0","num_feature":"104","num_nodes":"7","size_leaf_vector":"0"}},{"base_weights":[1.6063353E-1,3.7821037E-1,-5.1471554E-2,1.988675E-1,5.357857E-1,2.267505E-1,-1.9375667E-1],"categories":[],"categories_nodes":[],"categories_segments":[],"categories_sizes":[],"default_left":[true,true,true,false,false,false,false],"id":9,"left_children":[1,3,5,-1,-1,-1,-1],"loss_changes":[4.0474512E2,1.2223822E2,1.7587665E2,0E0,0E0,0E0,0E0],"parents":[2147483647,0,0,1,1,2,2],"right_children":[2,4,6,-1,-1,-1,-1],"split_conditions":[1.45E1,1.15E1,-1.95E0,1.988675E-3,5.357857E-3,2.2675048E-3,-1.9375667E-3],"split_indices":[51,80,77,0,0,0,0],"split_type":[0,0,0,0,0,0,0],"sum_hessian":[8.768947E3,4.3282534E3,4.440694E3,2.0253652E3,2.3028884E3,1.5023768E3,2.9383171E3],"tree_param":{"num_deleted":"0","num_feature":"104","num_nodes":"7","size_leaf_vector":"0"}},{"base_weights":[-1.590437E-1,1.3297394E-1,-3.141493E-1,-7.0635155E-2,3.1628254E-1,-1.7906132E-1,-5.371358E-1],"categories":[],"categories_nodes":[],"categories_segments":[],"categories_sizes":[],"default_left":[true,true,true,false,false,false,false],"id":10,"left_children":[1,3,5,-1,-1,-1,-1],"loss_changes":[3.972254E2,1.1358496E2,1.7242981E2,0E0,0E0,0E0,0E0],"parents":[2147483647,0,0,1,1,2,2],"right_children":[2,4,6,-1,-1,-1,-1],"split_conditions":[-1.6500001E0,-2.5E-1,1.65E1,-7.0635154E-4,3.1628252E-3,-1.7906132E-3,-5.371358E-3],"split_indices":[25,77,80,0,0,0,0],"split_type":[0,0,0,0,0,0,0],"sum_hessian":[8.768097E3,3.0416736E3,5.726423E3,1.441334E3,1.6003396E3,3.5671829E3,2.15924E3],"tree_param":{"num_deleted":"0","num_feature":"104","num_nodes":"7","size_leaf_vector":"0"}},{"base_weights":[1.5904368E-1,-1.3297392E-1,3.1414926E-1,7.063516E-2,-3.1628254E-1,1.7906132E-1,5.371358E-1],"categories":[],"categories_nodes":[],"categories_segments":[],"categories_sizes":[],"default_left":[true,true,true,false,false,false,false],"id":11,"left_children":[1,3,5,-1,-1,-1,-1],"loss_changes":[3.972254E2,1.1358496E2,1.7242981E2,0E0,0E0,0E0,0E0],"parents":[2147483647,0,0,1,1,2,2],"right_children":[2,4,6,-1,-1,-1,-1],"split_conditions":[-1.6500001E0,-2.5E-1,1.65E1,7.063516E-4,-3.1628252E-3,1.7906132E-3,5.371358E-3],"split_indices":[25,77,80,0,0,0,0],"split_type":[0,0,0,0,0,0,0],"sum_hessian":[8.768096E3,3.0416736E3,5.726423E3,1.441334E3,1.6003396E3,3.5671829E3,2.15924E3],"tree_param":{"num_deleted":"0","num_feature":"104","num_nodes":"7","size_leaf_vector":"0"}},{"base_weights":[-1.5746877E-1,-3.7143376E-1,5.1065642E-2,-1.95105E-1,-5.264296E-1,-1.9960614E-1,2.0375076E-1],"categories":[],"categories_nodes":[],"categories_segments":[],"categories_sizes":[],"default_left":[true,true,true,false,false,false,false],"id":12,"left_children":[1,3,5,-1,-1,-1,-1],"loss_changes":[3.9125098E2,1.1817993E2,1.7002884E2,0E0,0E0,0E0,0E0],"parents":[2147483647,0,0,1,1,2,2],"right_children":[2,4,6,-1,-1,-1,-1],"split_conditions":[1.45E1,1.15E1,-1.3499999E0,-1.95105E-3,-5.2642957E-3,-1.9960613E-3,2.0375075E-3],"split_indices":[51,80,77,0,0,0,0],"split_type":[0,0,0,0,0,0,0],"sum_hessian":[8.767271E3,4.3269053E3,4.440366E3,2.0252114E3,2.3016938E3,1.6807223E3,2.7596438E3],"tree_param":{"num_deleted":"0","num_feature":"104","num_nodes":"7","size_leaf_vector":"0"}},{"base_weights":[1.5746877E-1,3.7143376E-1,-5.106567E-2,1.95105E-1,5.264296E-1,1.9960612E-1,-2.037508E-1],"categories":[],"categories_nodes":[],"categories_segments":[],"categories_sizes":[],"default_left":[true,true,true,false,false,false,false],"id":13,"left_children":[1,3,5,-1,-1,-1,-1],"loss_changes":[3.9125113E2,1.1817993E2,1.7002888E2,0E0,0E0,0E0,0E0],"parents":[2147483647,0,0,1,1,2,2],"right_children":[2,4,6,-1,-1,-1,-1],"split_conditions":[1.45E1,1.15E1,-1.3499999E0,1.95105E-3,5.2642957E-3,1.996061E-3,-2.037508E-3],"split_indices":[51,80,77,0,0,0,0],"split_type":[0,0,0,0,0,0,0],"sum_hessian":[8.767271E3,4.3269053E3,4.440366E3,2.0252114E3,2.3016938E3,1.6807223E3,2.7596438E3],"tree_param":{"num_deleted":"0","num_feature":"104","num_nodes":"7","size_leaf_vector":"0"}},{"base_weights":[-1.5591559E-1,1.3118798E-1,-3.0844176E-1,-6.866283E-2,3.1112662E-1,-1.3534579E-1,-4.7713402E-1],"categories":[],"categories_nodes":[],"categories_segments":[],"categories_sizes":[],"default_left":[true,true,true,false,false,false,false],"id":14,"left_children":[1,3,5,-1,-1,-1,-1],"loss_changes":[3.8395975E2,1.0942827E2,1.6712659E2,0E0,0E0,0E0,0E0],"parents":[2147483647,0,0,1,1,2,2],"right_children":[2,4,6,-1,-1,-1,-1],"split_conditions":[-1.6500001E0,-2.5E-1,1.25E1,-6.866283E-4,3.111266E-3,-1.3534578E-3,-4.77134E-3],"split_indices":[25,77,80,0,0,0,0],"split_type":[0,0,0,0,0,0,0],"sum_hessian":[8.766121E3,3.041387E3,5.724734E3,1.4412573E3,1.6001296E3,2.8263767E3,2.898357E3],"tree_param":{"num_deleted":"0","num_feature":"104","num_nodes":"7","size_leaf_vector":"0"}},{"base_weights":[1.5591563E-1,-1.3118795E-1,3.0844182E-1,6.866281E-2,-3.1112653E-1,1.3534589E-1,4.7713402E-1],"categories":[],"categories_nodes":[],"categories_segments":[],"categories_sizes":[],"default_left":[true,true,true,false,false,false,false],"id":15,"left_children":[1,3,5,-1,-1,-1,-1],"loss_changes":[3.8395978E2,1.0942821E2,1.6712646E2,0E0,0E0,0E0,0E0],"parents":[2147483647,0,0,1,1,2,2],"right_children":[2,4,6,-1,-1,-1,-1],"split_conditions":[-1.6500001E0,-2.5E-1,1.25E1,6.8662805E-4,-3.1112651E-3,1.3534589E-3,4.77134E-3],"split_indices":[25,77,80,0,0,0,0],"split_type":[0,0,0,0,0,0,0],"sum_hessian":[8.766121E3,3.041387E3,5.724734E3,1.4412572E3,1.6001298E3,2.8263767E3,2.898357E3],"tree_param":{"num_deleted":"0","num_feature":"104","num_nodes":"7","size_leaf_vector":"0"}},{"base_weights":[-1.5437728E-1,-3.6481553E-1,5.0653998E-2,-1.918195E-1,-5.1697737E-1,-2.1864353E-1,1.8836387E-1],"categories":[],"categories_nodes":[],"categories_segments":[],"categories_sizes":[],"default_left":[true,true,true,false,false,false,false],"id":16,"left_children":[1,3,5,-1,-1,-1,-1],"loss_changes":[3.7823892E2,1.1377765E2,1.6473187E2,0E0,0E0,0E0,0E0],"parents":[2147483647,0,0,1,1,2,2],"right_children":[2,4,6,-1,-1,-1,-1],"split_conditions":[1.45E1,1.15E1,-1.95E0,-1.918195E-3,-5.1697735E-3,-2.1864353E-3,1.8836386E-3],"split_indices":[51,80,77,0,0,0,0],"split_type":[0,0,0,0,0,0,0],"sum_hessian":[8.764975E3,4.3250684E3,4.4399062E3,2.0250298E3,2.3000386E3,1.5020315E3,2.9378748E3],"tree_param":{"num_deleted":"0","num_feature":"104","num_nodes":"7","size_leaf_vector":"0"}},{"base_weights":[1.5437725E-1,3.6481553E-1,-5.0654028E-2,1.9181949E-1,5.1697737E-1,2.1864344E-1,-1.8836387E-1],"categories":[],"categories_nodes":[],"categories_segments":[],"categories_sizes":[],"default_left":[true,true,true,false,false,false,false],"id":17,"left_children":[1,3,5,-1,-1,-1,-1],"loss_changes":[3.7823895E2,1.1377765E2,1.647318E2,0E0,0E0,0E0,0E0],"parents":[2147483647,0,0,1,1,2,2],"right_children":[2,4,6,-1,-1,-1,-1],"split_conditions":[1.45E1,1.15E1,-1.95E0,1.9181948E-3,5.1697735E-3,2.1864343E-3,-1.8836386E-3],"split_indices":[51,80,77,0,0,0,0],"split_type":[0,0,0,0,0,0,0],"sum_hessian":[8.764975E3,4.3250684E3,4.4399062E3,2.0250297E3,2.3000386E3,1.5020315E3,2.9378748E3],"tree_param":{"num_deleted":"0","num_feature":"104","num_nodes":"7","size_leaf_vector":"0"}},{"base_weights":[-1.5285993E-1,-2.8202024E-1,1.7562747E-1,-9.744423E-2,-4.3909356E-1,-1.2263885E-2,3.4221724E-1],"categories":[],"categories_nodes":[],"categories_segments":[],"categories_sizes":[],"default_left":[true,true,true,false,false,false,false],"id":18,"left_children":[1,3,5,-1,-1,-1,-1],"loss_changes":[3.7190668E2,1.8235513E2,7.74485E1,0E0,0E0,0E0,0E0],"parents":[2147483647,0,0,1,1,2,2],"right_children":[2,4,6,-1,-1,-1,-1],"split_conditions":[2.15E1,1.15E1,-2.5E-1,-9.744423E-4,-4.3909354E-3,-1.2263884E-4,3.4221723E-3],"split_indices":[51,80,77,0,0,0,0],"split_type":[0,0,0,0,0,0,0],"sum_hessian":[8.763525E3,6.2903276E3,2.4731973E3,2.892724E3,3.3976038E3,1.162724E3,1.3104734E3],"tree_param":{"num_deleted":"0","num_feature":"104","num_nodes":"7","size_leaf_vector":"0"}},{"base_weights":[1.5285991E-1,2.820202E-1,-1.7562747E-1,9.7444154E-2,4.3909356E-1,1.2263871E-2,-3.4221724E-1],"categories":[],"categories_nodes":[],"categories_segments":[],"categories_sizes":[],"default_left":[true,true,true,false,false,false,false],"id":19,"left_children":[1,3,5,-1,-1,-1,-1],"loss_changes":[3.7190668E2,1.8235529E2,7.7448494E1,0E0,0E0,0E0,0E0],"parents":[2147483647,0,0,1,1,2,2],"right_children":[2,4,6,-1,-1,-1,-1],"split_conditions":[2.15E1,1.15E1,-2.5E-1,9.7444153E-4,4.3909354E-3,1.2263871E-4,-3.4221723E-3],"split_indices":[51,80,77,0,0,0,0],"split_type":[0,0,0,0,0,0,0],"sum_hessian":[8.763525E3,6.2903276E3,2.4731973E3,2.8927239E3,3.3976038E3,1.162724E3,1.3104734E3],"tree_param":{"num_deleted":"0","num_feature":"104","num_nodes":"7","size_leaf_vector":"0"}},{"base_weights":[-1.5135513E-1,-3.585651E-1,5.0452877E-2,-1.889467E-1,-5.07873E-1,-2.1449739E-1,1.859296E-1],"categories":[],"categories_nodes":[],"categories_segments":[],"categories_sizes":[],"default_left":[true,true,true,false,false,false,false],"id":20,"left_children":[1,3,5,-1,-1,-1,-1],"loss_changes":[3.6646448E2,1.0940698E2,1.594238E2,0E0,0E0,0E0,0E0],"parents":[2147483647,0,0,1,1,2,2],"right_children":[2,4,6,-1,-1,-1,-1],"split_conditions":[1.45E1,1.15E1,-1.95E0,-1.8894669E-3,-5.0787297E-3,-2.1449737E-3,1.8592959E-3],"split_indices":[51,80,77,0,0,0,0],"split_type":[0,0,0,0,0,0,0],"sum_hessian":[8.762174E3,4.3228423E3,4.4393315E3,2.0248341E3,2.2980083E3,1.5017646E3,2.9375671E3],"tree_param":{"num_deleted":"0","num_feature":"104","num_nodes":"7","size_leaf_vector":"0"}},{"base_weights":[1.5135515E-1,3.585651E-1,-5.045287E-2,1.889467E-1,5.0787306E-1,2.1449745E-1,-1.8592961E-1],"categories":[],"categories_nodes":[],"categories_segments":[],"categories_sizes":[],"default_left":[true,true,true,false,false,false,false],"id":21,"left_children":[1,3,5,-1,-1,-1,-1],"loss_changes":[3.6646454E2,1.0940692E2,1.5942383E2,0E0,0E0,0E0,0E0],"parents":[2147483647,0,0,1,1,2,2],"right_children":[2,4,6,-1,-1,-1,-1],"split_conditions":[1.45E1,1.15E1,-1.95E0,1.8894669E-3,5.0787306E-3,2.1449744E-3,-1.8592961E-3],"split_indices":[51,80,77,0,0,0,0],"split_type":[0,0,0,0,0,0,0],"sum_hessian":[8.762174E3,4.3228423E3,4.439332E3,2.0248341E3,2.2980083E3,1.5017646E3,2.9375671E3],"tree_param":{"num_deleted":"0","num_feature":"104","num_nodes":"7","size_leaf_vector":"0"}},{"base_weights":[-1.498722E-1,-2.7402902E-1,1.825986E-1,-1.4440742E-1,-4.902348E-1,-1.0636502E-2,3.569205E-1],"categories":[],"categories_nodes":[],"categories_segments":[],"categories_sizes":[],"default_left":[true,true,true,false,false,false,false],"id":22,"left_children":[1,3,5,-1,-1,-1,-1],"loss_changes":[3.6170984E2,1.7871759E2,8.0269844E1,0E0,0E0,0E0,0E0],"parents":[2147483647,0,0,1,1,2,2],"right_children":[2,4,6,-1,-1,-1,-1],"split_conditions":[2.05E1,1.65E1,-2.5E-1,-1.4440742E-3,-4.902348E-3,-1.0636502E-4,3.569205E-3],"split_indices":[28,80,77,0,0,0,0],"split_type":[0,0,0,0,0,0,0],"sum_hessian":[8.760453E3,6.3786187E3,2.3818347E3,3.988854E3,2.3897646E3,1.1300823E3,1.2517524E3],"tree_param":{"num_deleted":"0","num_feature":"104","num_nodes":"7","size_leaf_vector":"0"}},{"base_weights":[1.4987223E-1,2.7402902E-1,-1.8259853E-1,1.4440748E-1,4.902347E-1,1.0636572E-2,-3.5692042E-1],"categories":[],"categories_nodes":[],"categories_segments":[],"categories_sizes":[],"default_left":[true,true,true,false,false,false,false],"id":23,"left_children":[1,3,5,-1,-1,-1,-1],"loss_changes":[3.6170978E2,1.7871747E2,8.026983E1,0E0,0E0,0E0,0E0],"parents":[2147483647,0,0,1,1,2,2],"right_children":[2,4,6,-1,-1,-1,-1],"split_conditions":[2.05E1,1.65E1,-2.5E-1,1.4440748E-3,4.902347E-3,1.0636572E-4,-3.5692041E-3],"split_indices":[28,80,77,0,0,0,0],"split_type":[0,0,0,0,0,0,0],"sum_hessian":[8.760454E3,6.378619E3,2.3818347E3,3.9888542E3,2.389765E3,1.1300823E3,1.2517526E3],"tree_param":{"num_deleted":"0","num_feature":"104","num_nodes":"7","size_leaf_vector":"0"}},{"base_weights":[-1.4839986E-1,-3.5249886E-1,5.0291985E-2,-1.8567058E-1,-4.9947768E-1,-2.102524E-1,1.83502E-1],"categories":[],"categories_nodes":[],"categories_segments":[],"categories_sizes":[],"default_left":[true,true,true,false,false,false,false],"id":24,"left_children":[1,3,5,-1,-1,-1,-1],"loss_changes":[3.5525754E2,1.0586633E2,1.5412566E2,0E0,0E0,0E0,0E0],"parents":[2147483647,0,0,1,1,2,2],"right_children":[2,4,6,-1,-1,-1,-1],"split_conditions":[1.45E1,1.15E1,-1.95E0,-1.8567058E-3,-4.9947766E-3,-2.102524E-3,1.83502E-3],"split_indices":[51,80,77,0,0,0,0],"split_type":[0,0,0,0,0,0,0],"sum_hessian":[8.758932E3,4.320293E3,4.4386387E3,2.0245693E3,2.2957234E3,1.5014285E3,2.93721E3],"tree_param":{"num_deleted":"0","num_feature":"104","num_nodes":"7","size_leaf_vector":"0"}},{"base_weights":[1.4839987E-1,3.5249886E-1,-5.0291944E-2,1.8567058E-1,4.9947768E-1,2.1025245E-1,-1.8350196E-1],"categories":[],"categories_nodes":[],"categories_segments":[],"categories_sizes":[],"default_left":[true,true,true,false,false,false,false],"id":25,"left_children":[1,3,5,-1,-1,-1,-1],"loss_changes":[3.5525742E2,1.0586633E2,1.5412566E2,0E0,0E0,0E0,0E0],"parents":[2147483647,0,0,1,1,2,2],"right_children":[2,4,6,-1,-1,-1,-1],"split_conditions":[1.45E1,1.15E1,-1.95E0,1.8567058E-3,4.9947766E-3,2.1025245E-3,-1.8350196E-3],"split_indices":[51,80,77,0,0,0,0],"split_type":[0,0,0,0,0,0,0],"sum_hessian":[8.758932E3,4.320293E3,4.438638E3,2.0245693E3,2.2957234E3,1.5014285E3,2.93721E3],"tree_param":{"num_deleted":"0","num_feature":"104","num_nodes":"7","size_leaf_vector":"0"}},{"base_weights":[-1.4695017E-1,-2.6921028E-1,1.803473E-1,-1.4168294E-1,-4.8207673E-1,-9.526333E-3,3.5167047E-1],"categories":[],"categories_nodes":[],"categories_segments":[],"categories_sizes":[],"default_left":[true,true,true,false,false,false,false],"id":26,"left_children":[1,3,5,-1,-1,-1,-1],"loss_changes":[3.50502E2,1.7303214E2,7.7501686E1,0E0,0E0,0E0,0E0],"parents":[2147483647,0,0,1,1,2,2],"right_children":[2,4,6,-1,-1,-1,-1],"split_conditions":[2.05E1,1.65E1,-2.5E-1,-1.4168293E-3,-4.8207673E-3,-9.526333E-5,3.5167048E-3],"split_indices":[28,80,77,0,0,0,0],"split_type":[0,0,0,0,0,0,0],"sum_hessian":[8.75696E3,6.375577E3,2.381383E3,3.988031E3,2.3875461E3,1.1299875E3,1.2513955E3],"tree_param":{"num_deleted":"0","num_feature":"104","num_nodes":"7","size_leaf_vector":"0"}},{"base_weights":[1.4695014E-1,2.6921025E-1,-1.8034737E-1,1.4168291E-1,4.820767E-1,9.5262835E-3,-3.5167056E-1],"categories":[],"categories_nodes":[],"categories_segments":[],"categories_sizes":[],"default_left":[true,true,true,false,false,false,false],"id":27,"left_children":[1,3,5,-1,-1,-1,-1],"loss_changes":[3.5050214E2,1.7303217E2,7.750169E1,0E0,0E0,0E0,0E0],"parents":[2147483647,0,0,1,1,2,2],"right_children":[2,4,6,-1,-1,-1,-1],"split_conditions":[2.05E1,1.65E1,-2.5E-1,1.4168291E-3,4.820767E-3,9.526283E-5,-3.5167055E-3],"split_indices":[28,80,77,0,0,0,0],"split_type":[0,0,0,0,0,0,0],"sum_hessian":[8.75696E3,6.375577E3,2.381383E3,3.988031E3,2.3875461E3,1.1299875E3,1.2513954E3],"tree_param":{"num_deleted":"0","num_feature":"104","num_nodes":"7","size_leaf_vector":"0"}},{"base_weights":[-1.4551072E-1,-2.7005225E-1,1.7100441E-1,-1.4220735E-1,-4.800254E-1,-8.5694315E-3,3.302891E-1],"categories":[],"categories_nodes":[],"categories_segments":[],"categories_sizes":[],"default_left":[true,true,true,false,false,false,false],"id":28,"left_children":[1,3,5,-1,-1,-1,-1],"loss_changes":[3.4520886E2,1.6862167E2,7.074193E1,0E0,0E0,0E0,0E0],"parents":[2147483647,0,0,1,1,2,2],"right_children":[2,4,6,-1,-1,-1,-1],"split_conditions":[2.15E1,1.65E1,-2.5E-1,-1.4220735E-3,-4.800254E-3,-8.5694315E-5,3.3028908E-3],"split_indices":[51,80,77,0,0,0,0],"split_type":[0,0,0,0,0,0,0],"sum_hessian":[8.75519E3,6.2830854E3,2.4721047E3,3.9063381E3,2.3767473E3,1.1624884E3,1.3096162E3],"tree_param":{"num_deleted":"0","num_feature":"104","num_nodes":"7","size_leaf_vector":"0"}},{"base_weights":[1.455107E-1,2.7005222E-1,-1.7100443E-1,1.4220731E-1,4.8002547E-1,8.569415E-3,-3.302891E-1],"categories":[],"categories_nodes":[],"categories_segments":[],"categories_sizes":[],"default_left":[true,true,true,false,false,false,false],"id":29,"left_children":[1,3,5,-1,-1,-1,-1],"loss_changes":[3.4520886E2,1.686218E2,7.074192E1,0E0,0E0,0E0,0E0],"parents":[2147483647,0,0,1,1,2,2],"right_children":[2,4,6,-1,-1,-1,-1],"split_conditions":[2.15E1,1.65E1,-2.5E-1,1.4220731E-3,4.8002545E-3,8.569415E-5,-3.3028908E-3],"split_indices":[51,80,77,0,0,0,0],"split_type":[0,0,0,0,0,0,0],"sum_hessian":[8.75519E3,6.283086E3,2.4721045E3,3.9063384E3,2.3767473E3,1.1624883E3,1.3096162E3],"tree_param":{"num_deleted":"0","num_feature":"104","num_nodes":"7","size_leaf_vector":"0"}},{"base_weights":[-1.4408785E-1,-3.4401175E-1,5.0403617E-2,-1.8104887E-1,-4.8779544E-1,-2.0408604E-1,1.8049188E-1],"categories":[],"categories_nodes":[],"categories_segments":[],"categories_sizes":[],"default_left":[true,true,true,false,false,false,false],"id":30,"left_children":[1,3,5,-1,-1,-1,-1],"loss_changes":[3.4041406E2,1.01064545E2,1.469716E2,0E0,0E0,0E0,0E0],"parents":[2147483647,0,0,1,1,2,2],"right_children":[2,4,6,-1,-1,-1,-1],"split_conditions":[1.45E1,1.15E1,-1.95E0,-1.8104886E-3,-4.8779543E-3,-2.0408602E-3,1.8049187E-3],"split_indices":[51,80,77,0,0,0,0],"split_type":[0,0,0,0,0,0,0],"sum_hessian":[8.753272E3,4.315976E3,4.437297E3,2.0241196E3,2.2918562E3,1.5007783E3,2.9365183E3],"tree_param":{"num_deleted":"0","num_feature":"104","num_nodes":"7","size_leaf_vector":"0"}},{"base_weights":[1.4408785E-1,3.4401178E-1,-5.0403614E-2,1.8104887E-1,4.8779547E-1,2.04086E-1,-1.8049186E-1],"categories":[],"categories_nodes":[],"categories_segments":[],"categories_sizes":[],"default_left":[true,true,true,false,false,false,false],"id":31,"left_children":[1,3,5,-1,-1,-1,-1],"loss_changes":[3.40414E2,1.01064514E2,1.4697156E2,0E0,0E0,0E0,0E0],"parents":[2147483647,0,0,1,1,2,2],"right_children":[2,4,6,-1,-1,-1,-1],"split_conditions":[1.45E1,1.15E1,-1.95E0,1.8104886E-3,4.8779547E-3,2.04086E-3,-1.8049186E-3],"split_indices":[51,80,77,0,0,0,0],"split_type":[0,0,0,0,0,0,0],"sum_hessian":[8.753272E3,4.315976E3,4.4372964E3,2.0241196E3,2.2918564E3,1.5007783E3,2.9365183E3],"tree_param":{"num_deleted":"0","num_feature":"104","num_nodes":"7","size_leaf_vector":"0"}},{"base_weights":[-1.426858E-1,-2.622271E-1,1.7718332E-1,-1.379224E-1,-4.6999612E-1,-7.702695E-3,3.4407234E-1],"categories":[],"categories_nodes":[],"categories_segments":[],"categories_sizes":[],"default_left":[true,true,true,false,false,false,false],"id":32,"left_children":[1,3,5,-1,-1,-1,-1],"loss_changes":[3.3470038E2,1.644873E2,7.348685E1,0E0,0E0,0E0,0E0],"parents":[2147483647,0,0,1,1,2,2],"right_children":[2,4,6,-1,-1,-1,-1],"split_conditions":[2.05E1,1.65E1,-2.5E-1,-1.379224E-3,-4.6999613E-3,-7.702695E-5,3.4407233E-3],"split_indices":[28,80,77,0,0,0,0],"split_type":[0,0,0,0,0,0,0],"sum_hessian":[8.750969E3,6.3704053E3,2.3805635E3,3.9868215E3,2.3835835E3,1.1298389E3,1.2507247E3],"tree_param":{"num_deleted":"0","num_feature":"104","num_nodes":"7","size_leaf_vector":"0"}},{"base_weights":[1.4268582E-1,2.622271E-1,-1.7718329E-1,1.3792244E-1,4.6999612E-1,7.702761E-3,-3.440723E-1],"categories":[],"categories_nodes":[],"categories_segments":[],"categories_sizes":[],"default_left":[true,true,true,false,false,false,false],"id":33,"left_children":[1,3,5,-1,-1,-1,-1],"loss_changes":[3.3470038E2,1.6448724E2,7.348688E1,0E0,0E0,0E0,0E0],"parents":[2147483647,0,0,1,1,2,2],"right_children":[2,4,6,-1,-1,-1,-1],"split_conditions":[2.05E1,1.65E1,-2.5E-1,1.3792244E-3,4.6999613E-3,7.702761E-5,-3.440723E-3],"split_indices":[28,80,77,0,0,0,0],"split_type":[0,0,0,0,0,0,0],"sum_hessian":[8.750969E3,6.3704053E3,2.3805635E3,3.9868218E3,2.3835835E3,1.1298389E3,1.2507247E3],"tree_param":{"num_deleted":"0","num_feature":"104","num_nodes":"7","size_leaf_vector":"0"}},{"base_weights":[-1.4129378E-1,-3.3826694E-1,5.0220005E-2,-1.7792244E-1,-4.799038E-1,-2.0006663E-1,1.7814115E-1],"categories":[],"categories_nodes":[],"categories_segments":[],"categories_sizes":[],"default_left":[true,true,true,false,false,false,false],"id":34,"left_children":[1,3,5,-1,-1,-1,-1],"loss_changes":[3.3008835E2,9.7878876E1,1.4210373E2,0E0,0E0,0E0,0E0],"parents":[2147483647,0,0,1,1,2,2],"right_children":[2,4,6,-1,-1,-1,-1],"split_conditions":[1.45E1,1.15E1,-1.95E0,-1.7792244E-3,-4.7990377E-3,-2.0006662E-3,1.7814115E-3],"split_indices":[51,80,77,0,0,0,0],"split_type":[0,0,0,0,0,0,0],"sum_hessian":[8.748852E3,4.3125747E3,4.4362773E3,2.0237642E3,2.2888105E3,1.5002904E3,2.9359868E3],"tree_param":{"num_deleted":"0","num_feature":"104","num_nodes":"7","size_leaf_vector":"0"}},{"base_weights":[1.412938E-1,3.3826694E-1,-5.022E-2,1.7792235E-1,4.799039E-1,2.0006672E-1,-1.7814118E-1],"categories":[],"categories_nodes":[],"categories_segments":[],"categories_sizes":[],"default_left":[true,true,true,false,false,false,false],"id":35,"left_children":[1,3,5,-1,-1,-1,-1],"loss_changes":[3.3008832E2,9.787903E1,1.421038E2,0E0,0E0,0E0,0E0],"parents":[2147483647,0,0,1,1,2,2],"right_children":[2,4,6,-1,-1,-1,-1],"split_conditions":[1.45E1,1.15E1,-1.95E0,1.7792234E-3,4.799039E-3,2.0006672E-3,-1.7814117E-3],"split_indices":[51,80,77,0,0,0,0],"split_type":[0,0,0,0,0,0,0],"sum_hessian":[8.748852E3,4.3125747E3,4.436277E3,2.0237643E3,2.2888103E3,1.5002903E3,2.9359866E3],"tree_param":{"num_deleted":"0","num_feature":"104","num_nodes":"7","size_leaf_vector":"0"}},{"base_weights":[-1.3992247E-1,-2.609388E-1,1.6740434E-1,-7.621596E-2,-3.984273E-1,-5.885553E-3,3.2118878E-1],"categories":[],"categories_nodes":[],"categories_segments":[],"categories_sizes":[],"default_left":[true,true,true,false,false,false,false],"id":36,"left_children":[1,3,5,-1,-1,-1,-1],"loss_changes":[3.2537057E2,1.593732E2,6.587686E1,0E0,0E0,0E0,0E0],"parents":[2147483647,0,0,1,1,2,2],"right_children":[2,4,6,-1,-1,-1,-1],"split_conditions":[2.15E1,1.05E1,-2.5E-1,-7.621596E-4,-3.984273E-3,-5.885553E-5,3.2118878E-3],"split_indices":[51,80,77,0,0,0,0],"split_type":[0,0,0,0,0,0,0],"sum_hessian":[8.74633E3,6.2754087E3,2.4709219E3,2.6783977E3,3.5970107E3,1.162235E3,1.3086869E3],"tree_param":{"num_deleted":"0","num_feature":"104","num_nodes":"7","size_leaf_vector":"0"}},{"base_weights":[1.3992244E-1,2.6093876E-1,-1.6740435E-1,7.6215886E-2,3.9842728E-1,5.885551E-3,-3.211888E-1],"categories":[],"categories_nodes":[],"categories_segments":[],"categories_sizes":[],"default_left":[true,true,true,false,false,false,false],"id":37,"left_children":[1,3,5,-1,-1,-1,-1],"loss_changes":[3.2537054E2,1.5937332E2,6.587687E1,0E0,0E0,0E0,0E0],"parents":[2147483647,0,0,1,1,2,2],"right_children":[2,4,6,-1,-1,-1,-1],"split_conditions":[2.15E1,1.05E1,-2.5E-1,7.6215883E-4,3.9842725E-3,5.8855512E-5,-3.211888E-3],"split_indices":[51,80,77,0,0,0,0],"split_type":[0,0,0,0,0,0,0],"sum_hessian":[8.74633E3,6.2754087E3,2.470922E3,2.6783977E3,3.5970107E3,1.162235E3,1.308687E3],"tree_param":{"num_deleted":"0","num_feature":"104","num_nodes":"7","size_leaf_vector":"0"}},{"base_weights":[-1.3856083E-1,1.2358324E-1,-2.781212E-1,-5.6669258E-2,2.8600922E-1,-1.5679024E-1,-4.7945288E-1],"categories":[],"categories_nodes":[],"categories_segments":[],"categories_sizes":[],"default_left":[true,true,true,false,false,false,false],"id":38,"left_children":[1,3,5,-1,-1,-1,-1],"loss_changes":[3.1996927E2,8.898767E1,1.3933679E2,0E0,0E0,0E0,0E0],"parents":[2147483647,0,0,1,1,2,2],"right_children":[2,4,6,-1,-1,-1,-1],"split_conditions":[-1.6500001E0,-2.5E-1,1.65E1,-5.6669256E-4,2.860092E-3,-1.5679024E-3,-4.7945287E-3],"split_indices":[25,77,80,0,0,0,0],"split_type":[0,0,0,0,0,0,0],"sum_hessian":[8.743992E3,3.0378823E3,5.70611E3,1.4402328E3,1.5976497E3,3.5615488E3,2.1445613E3],"tree_param":{"num_deleted":"0","num_feature":"104","num_nodes":"7","size_leaf_vector":"0"}},{"base_weights":[1.385608E-1,-1.2358323E-1,2.7812117E-1,5.6669276E-2,-2.8600922E-1,1.5679018E-1,4.7945288E-1],"categories":[],"categories_nodes":[],"categories_segments":[],"categories_sizes":[],"default_left":[true,true,true,false,false,false,false],"id":39,"left_children":[1,3,5,-1,-1,-1,-1],"loss_changes":[3.1996918E2,8.898767E1,1.3933682E2,0E0,0E0,0E0,0E0],"parents":[2147483647,0,0,1,1,2,2],"right_children":[2,4,6,-1,-1,-1,-1],"split_conditions":[-1.6500001E0,-2.5E-1,1.65E1,5.6669273E-4,-2.860092E-3,1.5679018E-3,4.7945287E-3],"split_indices":[25,77,80,0,0,0,0],"split_type":[0,0,0,0,0,0,0],"sum_hessian":[8.743992E3,3.0378823E3,5.70611E3,1.4402328E3,1.5976497E3,3.5615488E3,2.144561E3],"tree_param":{"num_deleted":"0","num_feature":"104","num_nodes":"7","size_leaf_vector":"0"}},{"base_weights":[-1.3721578E-1,-3.2998326E-1,5.0038718E-2,-1.7362238E-1,-4.6836972E-1,-1.1399364E-1,2.3693883E-1],"categories":[],"categories_nodes":[],"categories_segments":[],"categories_sizes":[],"default_left":[true,true,true,false,false,false,false],"id":40,"left_children":[1,3,5,-1,-1,-1,-1],"loss_changes":[3.1558957E2,9.31351E1,1.3600952E2,0E0,0E0,0E0,0E0],"parents":[2147483647,0,0,1,1,2,2],"right_children":[2,4,6,-1,-1,-1,-1],"split_conditions":[1.45E1,1.15E1,6.5E-1,-1.7362238E-3,-4.683697E-3,-1.1399364E-3,2.3693882E-3],"split_indices":[51,80,77,0,0,0,0],"split_type":[0,0,0,0,0,0,0],"sum_hessian":[8.741465E3,4.3069507E3,4.434514E3,2.0232097E3,2.2837407E3,2.3619478E3,2.0725667E3],"tree_param":{"num_deleted":"0","num_feature":"104","num_nodes":"7","size_leaf_vector":"0"}},{"base_weights":[1.3721578E-1,3.2998326E-1,-5.0038718E-2,1.736224E-1,4.683697E-1,1.13993645E-1,-2.3693883E-1],"categories":[],"categories_nodes":[],"categories_segments":[],"categories_sizes":[],"default_left":[true,true,true,false,false,false,false],"id":41,"left_children":[1,3,5,-1,-1,-1,-1],"loss_changes":[3.1558954E2,9.313507E1,1.3600954E2,0E0,0E0,0E0,0E0],"parents":[2147483647,0,0,1,1,2,2],"right_children":[2,4,6,-1,-1,-1,-1],"split_conditions":[1.45E1,1.15E1,6.5E-1,1.7362239E-3,4.6836967E-3,1.1399364E-3,-2.3693882E-3],"split_indices":[51,80,77,0,0,0,0],"split_type":[0,0,0,0,0,0,0],"sum_hessian":[8.741465E3,4.3069507E3,4.434514E3,2.0232097E3,2.2837407E3,2.3619478E3,2.0725667E3],"tree_param":{"num_deleted":"0","num_feature":"104","num_nodes":"7","size_leaf_vector":"0"}},{"base_weights":[-1.3588724E-1,-2.513611E-1,1.7279269E-1,-1.3167514E-1,-4.5191598E-1,-3.9644367E-3,3.324778E-1],"categories":[],"categories_nodes":[],"categories_segments":[],"categories_sizes":[],"default_left":[true,true,true,false,false,false,false],"id":42,"left_children":[1,3,5,-1,-1,-1,-1],"loss_changes":[3.115665E2,1.5262231E2,6.717637E1,0E0,0E0,0E0,0E0],"parents":[2147483647,0,0,1,1,2,2],"right_children":[2,4,6,-1,-1,-1,-1],"split_conditions":[2.05E1,1.65E1,-2.5E-1,-1.3167514E-3,-4.51916E-3,-3.9644365E-5,3.324778E-3],"split_indices":[28,80,77,0,0,0,0],"split_type":[0,0,0,0,0,0,0],"sum_hessian":[8.73873E3,6.3597876E3,2.3789429E3,3.9839346E3,2.3758528E3,1.1295773E3,1.2493657E3],"tree_param":{"num_deleted":"0","num_feature":"104","num_nodes":"7","size_leaf_vector":"0"}},{"base_weights":[1.3588728E-1,2.5136113E-1,-1.7279263E-1,1.3167517E-1,4.5191598E-1,3.9644977E-3,-3.3247775E-1],"categories":[],"categories_nodes":[],"categories_segments":[],"categories_sizes":[],"default_left":[true,true,true,false,false,false,false],"id":43,"left_children":[1,3,5,-1,-1,-1,-1],"loss_changes":[3.115664E2,1.5262231E2,6.717636E1,0E0,0E0,0E0,0E0],"parents":[2147483647,0,0,1,1,2,2],"right_children":[2,4,6,-1,-1,-1,-1],"split_conditions":[2.05E1,1.65E1,-2.5E-1,1.3167517E-3,4.51916E-3,3.9644976E-5,-3.3247774E-3],"split_indices":[28,80,77,0,0,0,0],"split_type":[0,0,0,0,0,0,0],"sum_hessian":[8.73873E3,6.359787E3,2.378943E3,3.9839343E3,2.375853E3,1.1295773E3,1.2493657E3],"tree_param":{"num_deleted":"0","num_feature":"104","num_nodes":"7","size_leaf_vector":"0"}},{"base_weights":[-1.3456926E-1,3.676958E-2,-3.3932456E-1,-2.0684254E-1,1.5973347E-1,-4.3179607E-1,-1.17568985E-1],"categories":[],"categories_nodes":[],"categories_segments":[],"categories_sizes":[],"default_left":[true,true,true,false,false,false,false],"id":44,"left_children":[1,3,5,-1,-1,-1,-1],"loss_changes":[3.065329E2,1.4254977E2,8.157379E1,0E0,0E0,0E0,0E0],"parents":[2147483647,0,0,1,1,2,2],"right_children":[2,4,6,-1,-1,-1,-1],"split_conditions":[9.5E-1,-1.95E0,3.65E0,-2.0684253E-3,1.5973347E-3,-4.3179607E-3,-1.1756899E-3],"split_indices":[25,77,77,0,0,0,0],"split_type":[0,0,0,0,0,0,0],"sum_hessian":[8.736122E3,4.7566157E3,3.9795063E3,1.5953257E3,3.1612903E3,2.8077393E3,1.1717672E3],"tree_param":{"num_deleted":"0","num_feature":"104","num_nodes":"7","size_leaf_vector":"0"}},{"base_weights":[1.3456927E-1,-3.6769573E-2,3.393246E-1,2.0684254E-1,-1.5973346E-1,4.3179613E-1,1.1756891E-1],"categories":[],"categories_nodes":[],"categories_segments":[],"categories_sizes":[],"default_left":[true,true,true,false,false,false,false],"id":45,"left_children":[1,3,5,-1,-1,-1,-1],"loss_changes":[3.065329E2,1.4254976E2,8.157382E1,0E0,0E0,0E0,0E0],"parents":[2147483647,0,0,1,1,2,2],"right_children":[2,4,6,-1,-1,-1,-1],"split_conditions":[9.5E-1,-1.95E0,3.65E0,2.0684253E-3,-1.5973345E-3,4.317961E-3,1.175689E-3],"split_indices":[25,77,77,0,0,0,0],"split_type":[0,0,0,0,0,0,0],"sum_hessian":[8.736122E3,4.7566157E3,3.979506E3,1.5953257E3,3.16129E3,2.807739E3,1.1717672E3],"tree_param":{"num_deleted":"0","num_feature":"104","num_nodes":"7","size_leaf_vector":"0"}},{"base_weights":[-1.3326679E-1,-2.5542003E-1,1.5009724E-1,-1.11033954E-1,-4.169819E-1,-8.947485E-2,2.703392E-1],"categories":[],"categories_nodes":[],"categories_segments":[],"categories_sizes":[],"default_left":[true,true,true,false,false,false,false],"id":46,"left_children":[1,3,5,-1,-1,-1,-1],"loss_changes":[3.0236835E2,1.4233646E2,7.583364E1,0E0,0E0,0E0,0E0],"parents":[2147483647,0,0,1,1,2,2],"right_children":[2,4,6,-1,-1,-1,-1],"split_conditions":[1.95E1,1.35E1,-2.05E0,-1.1103395E-3,-4.169819E-3,-8.947485E-4,2.703392E-3],"split_indices":[28,80,77,0,0,0,0],"split_type":[0,0,0,0,0,0,0],"sum_hessian":[8.733369E3,6.1027007E3,2.6306682E3,3.2235427E3,2.879158E3,8.791971E2,1.7514712E3],"tree_param":{"num_deleted":"0","num_feature":"104","num_nodes":"7","size_leaf_vector":"0"}},{"base_weights":[1.3326678E-1,2.5542003E-1,-1.5009722E-1,1.1103393E-1,4.169819E-1,8.947479E-2,-2.7033916E-1],"categories":[],"categories_nodes":[],"categories_segments":[],"categories_sizes":[],"default_left":[true,true,true,false,false,false,false],"id":47,"left_children":[1,3,5,-1,-1,-1,-1],"loss_changes":[3.0236832E2,1.4233649E2,7.583362E1,0E0,0E0,0E0,0E0],"parents":[2147483647,0,0,1,1,2,2],"right_children":[2,4,6,-1,-1,-1,-1],"split_conditions":[1.95E1,1.35E1,-2.05E0,1.1103393E-3,4.169819E-3,8.9474785E-4,-2.7033915E-3],"split_indices":[28,80,77,0,0,0,0],"split_type":[0,0,0,0,0,0,0],"sum_hessian":[8.733369E3,6.1027007E3,2.6306682E3,3.2235427E3,2.879158E3,8.7919714E2,1.7514712E3],"tree_param":{"num_deleted":"0","num_feature":"104","num_nodes":"7","size_leaf_vector":"0"}},{"base_weights":[-1.3197784E-1,-2.478859E-1,1.6199975E-1,-7.094489E-2,-3.799748E-1,-2.0393003E-3,3.0773225E-1],"categories":[],"categories_nodes":[],"categories_segments":[],"categories_sizes":[],"default_left":[true,true,true,false,false,false,false],"id":48,"left_children":[1,3,5,-1,-1,-1,-1],"loss_changes":[2.9756165E2,1.4634717E2,5.904132E1,0E0,0E0,0E0,0E0],"parents":[2147483647,0,0,1,1,2,2],"right_children":[2,4,6,-1,-1,-1,-1],"split_conditions":[2.15E1,1.05E1,-2.5E-1,-7.094489E-4,-3.7997481E-3,-2.0393003E-5,3.0773224E-3],"split_indices":[51,80,77,0,0,0,0],"split_type":[0,0,0,0,0,0,0],"sum_hessian":[8.730533E3,6.261813E3,2.4687202E3,2.677149E3,3.5846638E3,1.1618771E3,1.3068431E3],"tree_param":{"num_deleted":"0","num_feature":"104","num_nodes":"7","size_leaf_vector":"0"}},{"base_weights":[1.3197786E-1,2.478859E-1,-1.6199972E-1,7.094488E-2,3.7997484E-1,2.0392872E-3,-3.077322E-1],"categories":[],"categories_nodes":[],"categories_segments":[],"categories_sizes":[],"default_left":[true,true,true,false,false,false,false],"id":49,"left_children":[1,3,5,-1,-1,-1,-1],"loss_changes":[2.9756165E2,1.463472E2,5.904129E1,0E0,0E0,0E0,0E0],"parents":[2147483647,0,0,1,1,2,2],"right_children":[2,4,6,-1,-1,-1,-1],"split_conditions":[2.15E1,1.05E1,-2.5E-1,7.094488E-4,3.7997484E-3,2.0392872E-5,-3.077322E-3],"split_indices":[51,80,77,0,0,0,0],"split_type":[0,0,0,0,0,0,0],"sum_hessian":[8.730533E3,6.261813E3,2.4687202E3,2.677149E3,3.5846638E3,1.1618771E3,1.3068431E3],"tree_param":{"num_deleted":"0","num_feature":"104","num_nodes":"7","size_leaf_vector":"0"}},{"base_weights":[-1.3070181E-1,3.7118785E-2,-3.3145276E-1,-2.0090887E-1,1.5721811E-1,-4.221053E-1,-1.1444587E-1],"categories":[],"categories_nodes":[],"categories_segments":[],"categories_sizes":[],"default_left":[true,true,true,false,false,false,false],"id":50,"left_children":[1,3,5,-1,-1,-1,-1],"loss_changes":[2.9408173E2,1.3596712E2,7.8138794E1,0E0,0E0,0E0,0E0],"parents":[2147483647,0,0,1,1,2,2],"right_children":[2,4,6,-1,-1,-1,-1],"split_conditions":[9.5E-1,-1.95E0,3.65E0,-2.0090886E-3,1.5721811E-3,-4.221053E-3,-1.1444587E-3],"split_indices":[25,77,77,0,0,0,0],"split_type":[0,0,0,0,0,0,0],"sum_hessian":[8.727649E3,4.7541587E3,3.9734912E3,1.5941006E3,3.1600579E3,2.8020264E3,1.171465E3],"tree_param":{"num_deleted":"0","num_feature":"104","num_nodes":"7","size_leaf_vector":"0"}},{"base_weights":[1.3070184E-1,-3.7118766E-2,3.314528E-1,2.0090888E-1,-1.572181E-1,4.2210537E-1,1.144459E-1],"categories":[],"categories_nodes":[],"categories_segments":[],"categories_sizes":[],"default_left":[true,true,true,false,false,false,false],"id":51,"left_children":[1,3,5,-1,-1,-1,-1],"loss_changes":[2.940818E2,1.3596713E2,7.8138855E1,0E0,0E0,0E0,0E0],"parents":[2147483647,0,0,1,1,2,2],"right_children":[2,4,6,-1,-1,-1,-1],"split_conditions":[9.5E-1,-1.95E0,3.65E0,2.0090889E-3,-1.572181E-3,4.221054E-3,1.144459E-3],"split_indices":[25,77,77,0,0,0,0],"split_type":[0,0,0,0,0,0,0],"sum_hessian":[8.72765E3,4.7541587E3,3.9734915E3,1.5941007E3,3.1600579E3,2.8020264E3,1.171465E3],"tree_param":{"num_deleted":"0","num_feature":"104","num_nodes":"7","size_leaf_vector":"0"}},{"base_weights":[-1.2944058E-1,-2.4086013E-1,1.6808505E-1,-1.2509361E-1,-4.3539897E-1,7.7581145E-3,3.3186617E-1],"categories":[],"categories_nodes":[],"categories_segments":[],"categories_sizes":[],"default_left":[true,true,true,false,false,false,false],"id":52,"left_children":[1,3,5,-1,-1,-1,-1],"loss_changes":[2.8929718E2,1.429252E2,6.2438713E1,0E0,0E0,0E0,0E0],"parents":[2147483647,0,0,1,1,2,2],"right_children":[2,4,6,-1,-1,-1,-1],"split_conditions":[2.05E1,1.65E1,5.065E-1,-1.2509361E-3,-4.3539894E-3,7.758114E-5,3.3186616E-3],"split_indices":[28,80,55,0,0,0,0],"split_type":[0,0,0,0,0,0,0],"sum_hessian":[8.724646E3,6.347703E3,2.3769434E3,3.9805771E3,2.3671262E3,1.2016671E3,1.1752762E3],"tree_param":{"num_deleted":"0","num_feature":"104","num_nodes":"7","size_leaf_vector":"0"}},{"base_weights":[1.2944056E-1,2.4086012E-1,-1.6808507E-1,1.250936E-1,4.3539894E-1,-7.7580744E-3,-3.3186623E-1],"categories":[],"categories_nodes":[],"categories_segments":[],"categories_sizes":[],"default_left":[true,true,true,false,false,false,false],"id":53,"left_children":[1,3,5,-1,-1,-1,-1],"loss_changes":[2.8929715E2,1.429252E2,6.243875E1,0E0,0E0,0E0,0E0],"parents":[2147483647,0,0,1,1,2,2],"right_children":[2,4,6,-1,-1,-1,-1],"split_conditions":[2.05E1,1.65E1,5.065E-1,1.250936E-3,4.3539894E-3,-7.758074E-5,-3.3186623E-3],"split_indices":[28,80,55,0,0,0,0],"split_type":[0,0,0,0,0,0,0],"sum_hessian":[8.724646E3,6.347703E3,2.3769434E3,3.9805771E3,2.367126E3,1.201667E3,1.1752762E3],"tree_param":{"num_deleted":"0","num_feature":"104","num_nodes":"7","size_leaf_vector":"0"}},{"base_weights":[-1.2819077E-1,-3.119695E-1,4.9905464E-2,-1.6344264E-1,-4.440842E-1,-1.06193885E-1,2.2775882E-1],"categories":[],"categories_nodes":[],"categories_segments":[],"categories_sizes":[],"default_left":[true,true,true,false,false,false,false],"id":54,"left_children":[1,3,5,-1,-1,-1,-1],"loss_changes":[2.8551086E2,8.416681E1,1.2303218E2,0E0,0E0,0E0,0E0],"parents":[2147483647,0,0,1,1,2,2],"right_children":[2,4,6,-1,-1,-1,-1],"split_conditions":[1.45E1,1.15E1,6.5E-1,-1.6344264E-3,-4.4408417E-3,-1.0619388E-3,2.2775882E-3],"split_indices":[51,80,77,0,0,0,0],"split_type":[0,0,0,0,0,0,0],"sum_hessian":[8.721661E3,4.291983E3,4.4296777E3,2.0215454E3,2.2704375E3,2.3593303E3,2.0703477E3],"tree_param":{"num_deleted":"0","num_feature":"104","num_nodes":"7","size_leaf_vector":"0"}},{"base_weights":[1.2819077E-1,3.119695E-1,-4.9905483E-2,1.6344264E-1,4.4408423E-1,1.06193855E-1,-2.2775884E-1],"categories":[],"categories_nodes":[],"categories_segments":[],"categories_sizes":[],"default_left":[true,true,true,false,false,false,false],"id":55,"left_children":[1,3,5,-1,-1,-1,-1],"loss_changes":[2.8551093E2,8.416684E1,1.2303217E2,0E0,0E0,0E0,0E0],"parents":[2147483647,0,0,1,1,2,2],"right_children":[2,4,6,-1,-1,-1,-1],"split_conditions":[1.45E1,1.15E1,6.5E-1,1.6344264E-3,4.440842E-3,1.0619386E-3,-2.2775882E-3],"split_indices":[51,80,77,0,0,0,0],"split_type":[0,0,0,0,0,0,0],"sum_hessian":[8.721661E3,4.2919834E3,4.4296777E3,2.0215454E3,2.2704377E3,2.3593303E3,2.0703474E3],"tree_param":{"num_deleted":"0","num_feature":"104","num_nodes":"7","size_leaf_vector":"0"}},{"base_weights":[-1.269582E-1,-2.3971203E-1,1.5872891E-1,-1.2413117E-1,-4.3099815E-1,2.2813582E-1,-1.6232891E-1],"categories":[],"categories_nodes":[],"categories_segments":[],"categories_sizes":[],"default_left":[true,true,true,false,false,false,false],"id":56,"left_children":[1,3,5,-1,-1,-1,-1],"loss_changes":[2.809085E2,1.3817828E2,5.5034576E1,0E0,0E0,0E0,0E0],"parents":[2147483647,0,0,1,1,2,2],"right_children":[2,4,6,-1,-1,-1,-1],"split_conditions":[2.15E1,1.65E1,2.45E1,-1.2413117E-3,-4.3099816E-3,2.2813582E-3,-1.6232891E-3],"split_indices":[51,80,81,0,0,0,0],"split_type":[0,0,0,0,0,0,0],"sum_hessian":[8.718351E3,6.2512817E3,2.467069E3,3.8977764E3,2.3535054E3,2.0287742E3,4.3829492E2],"tree_param":{"num_deleted":"0","num_feature":"104","num_nodes":"7","size_leaf_vector":"0"}},{"base_weights":[1.269582E-1,2.3971203E-1,-1.5872891E-1,1.24131165E-1,4.3099815E-1,-2.2813582E-1,1.6232897E-1],"categories":[],"categories_nodes":[],"categories_segments":[],"categories_sizes":[],"default_left":[true,true,true,false,false,false,false],"id":57,"left_children":[1,3,5,-1,-1,-1,-1],"loss_changes":[2.809085E2,1.3817828E2,5.503458E1,0E0,0E0,0E0,0E0],"parents":[2147483647,0,0,1,1,2,2],"right_children":[2,4,6,-1,-1,-1,-1],"split_conditions":[2.15E1,1.65E1,2.45E1,1.2413117E-3,4.3099816E-3,-2.2813582E-3,1.6232897E-3],"split_indices":[51,80,81,0,0,0,0],"split_type":[0,0,0,0,0,0,0],"sum_hessian":[8.718351E3,6.2512817E3,2.467069E3,3.8977764E3,2.3535054E3,2.0287743E3,4.382949E2],"tree_param":{"num_deleted":"0","num_feature":"104","num_nodes":"7","size_leaf_vector":"0"}},{"base_weights":[-1.2573422E-1,3.7303455E-2,-3.210651E-1,-1.941111E-1,1.5400603E-1,-4.064626E-1,-1.0061856E-1],"categories":[],"categories_nodes":[],"categories_segments":[],"categories_sizes":[],"default_left":[true,true,true,false,false,false,false],"id":58,"left_children":[1,3,5,-1,-1,-1,-1],"loss_changes":[2.7759268E2,1.2835876E2,7.4612274E1,0E0,0E0,0E0,0E0],"parents":[2147483647,0,0,1,1,2,2],"right_children":[2,4,6,-1,-1,-1,-1],"split_conditions":[9.5E-1,-1.95E0,3.85E0,-1.9411109E-3,1.5400603E-3,-4.064626E-3,-1.0061857E-3],"split_indices":[25,77,77,0,0,0,0],"split_type":[0,0,0,0,0,0,0],"sum_hessian":[8.715265E3,4.7507466E3,3.9645176E3,1.5924152E3,3.1583313E3,2.8569404E3,1.1075773E3],"tree_param":{"num_deleted":"0","num_feature":"104","num_nodes":"7","size_leaf_vector":"0"}},{"base_weights":[1.2573427E-1,-3.7303418E-2,3.2106516E-1,1.9411111E-1,-1.5400599E-1,4.064626E-1,1.00618646E-1],"categories":[],"categories_nodes":[],"categories_segments":[],"categories_sizes":[],"default_left":[true,true,true,false,false,false,false],"id":59,"left_children":[1,3,5,-1,-1,-1,-1],"loss_changes":[2.775927E2,1.2835875E2,7.461224E1,0E0,0E0,0E0,0E0],"parents":[2147483647,0,0,1,1,2,2],"right_children":[2,4,6,-1,-1,-1,-1],"split_conditions":[9.5E-1,-1.95E0,3.85E0,1.941111E-3,-1.5400598E-3,4.064626E-3,1.0061865E-3],"split_indices":[25,77,77,0,0,0,0],"split_type":[0,0,0,0,0,0,0],"sum_hessian":[8.715264E3,4.7507466E3,3.9645176E3,1.5924152E3,3.1583313E3,2.8569404E3,1.1075771E3],"tree_param":{"num_deleted":"0","num_feature":"104","num_nodes":"7","size_leaf_vector":"0"}},{"base_weights":[-1.2452513E-1,-2.329997E-1,1.6482978E-1,-1.20611355E-1,-4.22383E-1,9.18548E-3,3.2394987E-1],"categories":[],"categories_nodes":[],"categories_segments":[],"categories_sizes":[],"default_left":[true,true,true,false,false,false,false],"id":60,"left_children":[1,3,5,-1,-1,-1,-1],"loss_changes":[2.7351825E2,1.3484277E2,5.8849228E1,0E0,0E0,0E0,0E0],"parents":[2147483647,0,0,1,1,2,2],"right_children":[2,4,6,-1,-1,-1,-1],"split_conditions":[2.05E1,1.65E1,5.065E-1,-1.2061135E-3,-4.22383E-3,9.1854796E-5,3.2394987E-3],"split_indices":[28,80,55,0,0,0,0],"split_type":[0,0,0,0,0,0,0],"sum_hessian":[8.711976E3,6.336658E3,2.3753179E3,3.9777336E3,2.3589243E3,1.2013083E3,1.1740094E3],"tree_param":{"num_deleted":"0","num_feature":"104","num_nodes":"7","size_leaf_vector":"0"}},{"base_weights":[1.2452513E-1,2.329997E-1,-1.6482979E-1,1.2061133E-1,4.2238304E-1,-9.185529E-3,-3.2394987E-1],"categories":[],"categories_nodes":[],"categories_segments":[],"categories_sizes":[],"default_left":[true,true,true,false,false,false,false],"id":61,"left_children":[1,3,5,-1,-1,-1,-1],"loss_changes":[2.7351825E2,1.3484283E2,5.8849205E1,0E0,0E0,0E0,0E0],"parents":[2147483647,0,0,1,1,2,2],"right_children":[2,4,6,-1,-1,-1,-1],"split_conditions":[2.05E1,1.65E1,5.065E-1,1.2061133E-3,4.2238305E-3,-9.185529E-5,-3.2394987E-3],"split_indices":[28,80,55,0,0,0,0],"split_type":[0,0,0,0,0,0,0],"sum_hessian":[8.711976E3,6.336658E3,2.3753179E3,3.9777336E3,2.3589246E3,1.2013083E3,1.1740094E3],"tree_param":{"num_deleted":"0","num_feature":"104","num_nodes":"7","size_leaf_vector":"0"}},{"base_weights":[-1.2332701E-1,3.730942E-2,-3.1594002E-1,-1.9044258E-1,1.5212756E-1,-4.0031666E-1,-9.843029E-2],"categories":[],"categories_nodes":[],"categories_segments":[],"categories_sizes":[],"default_left":[true,true,true,false,false,false,false],"id":62,"left_children":[1,3,5,-1,-1,-1,-1],"loss_changes":[2.6949573E2,1.2424047E2,7.2651184E1,0E0,0E0,0E0,0E0],"parents":[2147483647,0,0,1,1,2,2],"right_children":[2,4,6,-1,-1,-1,-1],"split_conditions":[9.5E-1,-1.95E0,3.85E0,-1.9044257E-3,1.5212756E-3,-4.0031667E-3,-9.843028E-4],"split_indices":[25,77,77,0,0,0,0],"split_type":[0,0,0,0,0,0,0],"sum_hessian":[8.7087E3,4.748951E3,3.959749E3,1.5914701E3,3.157481E3,2.8524019E3,1.1073473E3],"tree_param":{"num_deleted":"0","num_feature":"104","num_nodes":"7","size_leaf_vector":"0"}},{"base_weights":[1.2332702E-1,-3.7309427E-2,3.1594005E-1,1.9044259E-1,-1.5212758E-1,4.0031666E-1,9.843032E-2],"categories":[],"categories_nodes":[],"categories_segments":[],"categories_sizes":[],"default_left":[true,true,true,false,false,false,false],"id":63,"left_children":[1,3,5,-1,-1,-1,-1],"loss_changes":[2.694958E2,1.2424052E2,7.265115E1,0E0,0E0,0E0,0E0],"parents":[2147483647,0,0,1,1,2,2],"right_children":[2,4,6,-1,-1,-1,-1],"split_conditions":[9.5E-1,-1.95E0,3.85E0,1.9044259E-3,-1.5212757E-3,4.0031667E-3,9.843032E-4],"split_indices":[25,77,77,0,0,0,0],"split_type":[0,0,0,0,0,0,0],"sum_hessian":[8.7087E3,4.748951E3,3.9597493E3,1.5914701E3,3.157481E3,2.8524019E3,1.1073474E3],"tree_param":{"num_deleted":"0","num_feature":"104","num_nodes":"7","size_leaf_vector":"0"}},{"base_weights":[-1.22143075E-1,-2.318876E-1,1.5561199E-1,-6.393946E-2,-3.578475E-1,1.787596E-3,2.9247755E-1],"categories":[],"categories_nodes":[],"categories_segments":[],"categories_sizes":[],"default_left":[true,true,true,false,false,false,false],"id":64,"left_children":[1,3,5,-1,-1,-1,-1],"loss_changes":[2.6542145E2,1.320028E2,5.192352E1,0E0,0E0,0E0,0E0],"parents":[2147483647,0,0,1,1,2,2],"right_children":[2,4,6,-1,-1,-1,-1],"split_conditions":[2.15E1,1.05E1,-2.5E-1,-6.3939457E-4,-3.578475E-3,1.787596E-5,2.9247755E-3],"split_indices":[51,80,77,0,0,0,0],"split_type":[0,0,0,0,0,0,0],"sum_hessian":[8.7052705E3,6.2399526E3,2.4653184E3,2.6748972E3,3.5650552E3,1.1612228E3,1.3040956E3],"tree_param":{"num_deleted":"0","num_feature":"104","num_nodes":"7","size_leaf_vector":"0"}},{"base_weights":[1.2214307E-1,2.318876E-1,-1.5561202E-1,6.393946E-2,3.578475E-1,-1.7876102E-3,-2.9247758E-1],"categories":[],"categories_nodes":[],"categories_segments":[],"categories_sizes":[],"default_left":[true,true,true,false,false,false,false],"id":65,"left_children":[1,3,5,-1,-1,-1,-1],"loss_changes":[2.654215E2,1.3200284E2,5.192353E1,0E0,0E0,0E0,0E0],"parents":[2147483647,0,0,1,1,2,2],"right_children":[2,4,6,-1,-1,-1,-1],"split_conditions":[2.15E1,1.05E1,-2.5E-1,6.3939457E-4,3.578475E-3,-1.7876102E-5,-2.9247757E-3],"split_indices":[51,80,77,0,0,0,0],"split_type":[0,0,0,0,0,0,0],"sum_hessian":[8.7052705E3,6.2399526E3,2.4653184E3,2.6748972E3,3.5650552E3,1.1612228E3,1.3040955E3],"tree_param":{"num_deleted":"0","num_feature":"104","num_nodes":"7","size_leaf_vector":"0"}},{"base_weights":[-1.2097015E-1,-2.3494689E-1,1.427438E-1,-1.3934955E-1,-4.4830394E-1,-2.2160297E-2,2.9279155E-1],"categories":[],"categories_nodes":[],"categories_segments":[],"categories_sizes":[],"default_left":[true,true,true,false,false,false,false],"id":66,"left_children":[1,3,5,-1,-1,-1,-1],"loss_changes":[2.616166E2,1.23884766E2,6.50051E1,0E0,0E0,0E0,0E0],"parents":[2147483647,0,0,1,1,2,2],"right_children":[2,4,6,-1,-1,-1,-1],"split_conditions":[1.95E1,1.85E1,-2.5E-1,-1.3934955E-3,-4.4830395E-3,-2.2160297E-4,2.9279154E-3],"split_indices":[28,80,77,0,0,0,0],"split_type":[0,0,0,0,0,0,0],"sum_hessian":[8.701825E3,6.0759277E3,2.6258972E3,4.1970425E3,1.8788854E3,1.2514227E3,1.3744745E3],"tree_param":{"num_deleted":"0","num_feature":"104","num_nodes":"7","size_leaf_vector":"0"}},{"base_weights":[1.2097014E-1,2.3494686E-1,-1.4274377E-1,1.3934954E-1,4.4830385E-1,2.2160295E-2,-2.9279152E-1],"categories":[],"categories_nodes":[],"categories_segments":[],"categories_sizes":[],"default_left":[true,true,true,false,false,false,false],"id":67,"left_children":[1,3,5,-1,-1,-1,-1],"loss_changes":[2.6161652E2,1.23884705E2,6.500507E1,0E0,0E0,0E0,0E0],"parents":[2147483647,0,0,1,1,2,2],"right_children":[2,4,6,-1,-1,-1,-1],"split_conditions":[1.95E1,1.85E1,-2.5E-1,1.3934954E-3,4.4830386E-3,2.2160295E-4,-2.9279152E-3],"split_indices":[28,80,77,0,0,0,0],"split_type":[0,0,0,0,0,0,0],"sum_hessian":[8.701825E3,6.0759277E3,2.6258972E3,4.1970425E3,1.8788854E3,1.2514227E3,1.3744745E3],"tree_param":{"num_deleted":"0","num_feature":"104","num_nodes":"7","size_leaf_vector":"0"}},{"base_weights":[-1.19809E-1,3.7572566E-2,-3.087447E-1,-1.8519919E-1,1.4982899E-1,-3.916996E-1,-9.535266E-2],"categories":[],"categories_nodes":[],"categories_segments":[],"categories_sizes":[],"default_left":[true,true,true,false,false,false,false],"id":68,"left_children":[1,3,5,-1,-1,-1,-1],"loss_changes":[2.586871E2,1.18735794E2,6.994675E1,0E0,0E0,0E0,0E0],"parents":[2147483647,0,0,1,1,2,2],"right_children":[2,4,6,-1,-1,-1,-1],"split_conditions":[9.5E-1,-1.95E0,3.85E0,-1.8519919E-3,1.4982899E-3,-3.916996E-3,-9.535265E-4],"split_indices":[25,77,77,0,0,0,0],"split_type":[0,0,0,0,0,0,0],"sum_hessian":[8.698362E3,4.7458867E3,3.9524758E3,1.5899657E3,3.155921E3,2.845477E3,1.1069987E3],"tree_param":{"num_deleted":"0","num_feature":"104","num_nodes":"7","size_leaf_vector":"0"}},{"base_weights":[1.19809E-1,-3.7572578E-2,3.087447E-1,1.8519917E-1,-1.4982902E-1,3.916996E-1,9.535275E-2],"categories":[],"categories_nodes":[],"categories_segments":[],"categories_sizes":[],"default_left":[true,true,true,false,false,false,false],"id":69,"left_children":[1,3,5,-1,-1,-1,-1],"loss_changes":[2.5868713E2,1.1873581E2,6.994675E1,0E0,0E0,0E0,0E0],"parents":[2147483647,0,0,1,1,2,2],"right_children":[2,4,6,-1,-1,-1,-1],"split_conditions":[9.5E-1,-1.95E0,3.85E0,1.8519916E-3,-1.4982901E-3,3.916996E-3,9.5352746E-4],"split_indices":[25,77,77,0,0,0,0],"split_type":[0,0,0,0,0,0,0],"sum_hessian":[8.698362E3,4.7458867E3,3.9524758E3,1.5899657E3,3.1559207E3,2.845477E3,1.1069985E3],"tree_param":{"num_deleted":"0","num_feature":"104","num_nodes":"7","size_leaf_vector":"0"}},{"base_weights":[-1.1866148E-1,-2.2338592E-1,1.6032936E-1,-1.2811308E-1,-4.3388155E-1,1.0623284E-2,3.135597E-1],"categories":[],"categories_nodes":[],"categories_segments":[],"categories_sizes":[],"default_left":[true,true,true,false,false,false,false],"id":70,"left_children":[1,3,5,-1,-1,-1,-1],"loss_changes":[2.5410085E2,1.2674716E2,5.4451538E1,0E0,0E0,0E0,0E0],"parents":[2147483647,0,0,1,1,2,2],"right_children":[2,4,6,-1,-1,-1,-1],"split_conditions":[2.05E1,1.85E1,5.065E-1,-1.2811307E-3,-4.3388153E-3,1.0623284E-4,3.135597E-3],"split_indices":[28,80,55,0,0,0,0],"split_type":[0,0,0,0,0,0,0],"sum_hessian":[8.694747E3,6.3219023E3,2.3728452E3,4.3532E3,1.9687019E3,1.2007661E3,1.1720791E3],"tree_param":{"num_deleted":"0","num_feature":"104","num_nodes":"7","size_leaf_vector":"0"}},{"base_weights":[1.1866146E-1,2.233859E-1,-1.6032934E-1,1.2811305E-1,4.3388158E-1,-1.0623251E-2,-3.1355974E-1],"categories":[],"categories_nodes":[],"categories_segments":[],"categories_sizes":[],"default_left":[true,true,true,false,false,false,false],"id":71,"left_children":[1,3,5,-1,-1,-1,-1],"loss_changes":[2.541008E2,1.2674719E2,5.4451546E1,0E0,0E0,0E0,0E0],"parents":[2147483647,0,0,1,1,2,2],"right_children":[2,4,6,-1,-1,-1,-1],"split_conditions":[2.05E1,1.85E1,5.065E-1,1.2811305E-3,4.338816E-3,-1.0623251E-4,-3.1355973E-3],"split_indices":[28,80,55,0,0,0,0],"split_type":[0,0,0,0,0,0,0],"sum_hessian":[8.694747E3,6.3219023E3,2.3728452E3,4.3532E3,1.9687019E3,1.2007661E3,1.1720791E3],"tree_param":{"num_deleted":"0","num_feature":"104","num_nodes":"7","size_leaf_vector":"0"}},{"base_weights":[-1.1752323E-1,-2.9052514E-1,4.952377E-2,-2.2492684E-1,-5.6161135E-1,-9.742389E-2,2.1693443E-1],"categories":[],"categories_nodes":[],"categories_segments":[],"categories_sizes":[],"default_left":[true,true,true,false,false,false,false],"id":72,"left_children":[1,3,5,-1,-1,-1,-1],"loss_changes":[2.5121497E2,7.58089E1,1.088315E2,0E0,0E0,0E0,0E0],"parents":[2147483647,0,0,1,1,2,2],"right_children":[2,4,6,-1,-1,-1,-1],"split_conditions":[1.45E1,2.25E1,6.5E-1,-2.2492683E-3,-5.6161135E-3,-9.7423885E-4,2.1693443E-3],"split_indices":[51,80,77,0,0,0,0],"split_type":[0,0,0,0,0,0,0],"sum_hessian":[8.691228E3,4.269151E3,4.422077E3,3.4388396E3,8.303113E2,2.3551875E3,2.0668894E3],"tree_param":{"num_deleted":"0","num_feature":"104","num_nodes":"7","size_leaf_vector":"0"}},{"base_weights":[1.17523216E-1,2.905251E-1,-4.9523782E-2,2.2492683E-1,5.6161135E-1,9.742389E-2,-2.1693444E-1],"categories":[],"categories_nodes":[],"categories_segments":[],"categories_sizes":[],"default_left":[true,true,true,false,false,false,false],"id":73,"left_children":[1,3,5,-1,-1,-1,-1],"loss_changes":[2.5121497E2,7.58089E1,1.0883152E2,0E0,0E0,0E0,0E0],"parents":[2147483647,0,0,1,1,2,2],"right_children":[2,4,6,-1,-1,-1,-1],"split_conditions":[1.45E1,2.25E1,6.5E-1,2.2492683E-3,5.6161135E-3,9.7423885E-4,-2.1693443E-3],"split_indices":[51,80,77,0,0,0,0],"split_type":[0,0,0,0,0,0,0],"sum_hessian":[8.691229E3,4.269151E3,4.422077E3,3.4388398E3,8.303113E2,2.3551875E3,2.0668894E3],"tree_param":{"num_deleted":"0","num_feature":"104","num_nodes":"7","size_leaf_vector":"0"}},{"base_weights":[-1.16398565E-1,-2.2244702E-1,1.516308E-1,-5.9417974E-2,-3.4510222E-1,2.1730836E-1,-1.5192346E-1],"categories":[],"categories_nodes":[],"categories_segments":[],"categories_sizes":[],"default_left":[true,true,true,false,false,false,false],"id":74,"left_children":[1,3,5,-1,-1,-1,-1],"loss_changes":[2.4699814E2,1.24473206E2,4.915186E1,0E0,0E0,0E0,0E0],"parents":[2147483647,0,0,1,1,2,2],"right_children":[2,4,6,-1,-1,-1,-1],"split_conditions":[2.15E1,1.05E1,2.45E1,-5.941797E-4,-3.451022E-3,2.1730836E-3,-1.5192346E-3],"split_indices":[51,80,81,0,0,0,0],"split_type":[0,0,0,0,0,0,0],"sum_hessian":[8.687558E3,6.2248174E3,2.46274E3,2.6731902E3,3.5516272E3,2.0249109E3,4.3782922E2],"tree_param":{"num_deleted":"0","num_feature":"104","num_nodes":"7","size_leaf_vector":"0"}},{"base_weights":[1.1639854E-1,2.22447E-1,-1.516308E-1,5.9417933E-2,3.4510222E-1,-2.1730836E-1,1.5192346E-1],"categories":[],"categories_nodes":[],"categories_segments":[],"categories_sizes":[],"default_left":[true,true,true,false,false,false,false],"id":75,"left_children":[1,3,5,-1,-1,-1,-1],"loss_changes":[2.4699811E2,1.24473206E2,4.915186E1,0E0,0E0,0E0,0E0],"parents":[2147483647,0,0,1,1,2,2],"right_children":[2,4,6,-1,-1,-1,-1],"split_conditions":[2.15E1,1.05E1,2.45E1,5.941793E-4,3.451022E-3,-2.1730836E-3,1.5192346E-3],"split_indices":[51,80,81,0,0,0,0],"split_type":[0,0,0,0,0,0,0],"sum_hessian":[8.687558E3,6.2248174E3,2.46274E3,2.6731902E3,3.551627E3,2.0249109E3,4.3782922E2],"tree_param":{"num_deleted":"0","num_feature":"104","num_nodes":"7","size_leaf_vector":"0"}},{"base_weights":[-1.1528354E-1,3.7641164E-2,-2.9919672E-1,-1.7908499E-1,1.4678837E-1,-3.8064206E-1,-9.029301E-2],"categories":[],"categories_nodes":[],"categories_segments":[],"categories_sizes":[],"default_left":[true,true,true,false,false,false,false],"id":76,"left_children":[1,3,5,-1,-1,-1,-1],"loss_changes":[2.4427399E2,1.1221881E2,6.705411E1,0E0,0E0,0E0,0E0],"parents":[2147483647,0,0,1,1,2,2],"right_children":[2,4,6,-1,-1,-1,-1],"split_conditions":[9.5E-1,-1.95E0,3.85E0,-1.7908498E-3,1.4678837E-3,-3.8064204E-3,-9.029301E-4],"split_indices":[25,77,77,0,0,0,0],"split_type":[0,0,0,0,0,0,0],"sum_hessian":[8.683937E3,4.741856E3,3.9420806E3,1.5880109E3,3.1538452E3,2.835703E3,1.1063778E3],"tree_param":{"num_deleted":"0","num_feature":"104","num_nodes":"7","size_leaf_vector":"0"}},{"base_weights":[1.1528355E-1,-3.7641156E-2,2.9919675E-1,1.7908497E-1,-1.4678836E-1,3.8064206E-1,9.0293005E-2],"categories":[],"categories_nodes":[],"categories_segments":[],"categories_sizes":[],"default_left":[true,true,true,false,false,false,false],"id":77,"left_children":[1,3,5,-1,-1,-1,-1],"loss_changes":[2.4427399E2,1.1221879E2,6.705411E1,0E0,0E0,0E0,0E0],"parents":[2147483647,0,0,1,1,2,2],"right_children":[2,4,6,-1,-1,-1,-1],"split_conditions":[9.5E-1,-1.95E0,3.85E0,1.7908497E-3,-1.4678836E-3,3.8064204E-3,9.0293004E-4],"split_indices":[25,77,77,0,0,0,0],"split_type":[0,0,0,0,0,0,0],"sum_hessian":[8.683937E3,4.741856E3,3.9420806E3,1.5880107E3,3.1538452E3,2.835703E3,1.1063778E3],"tree_param":{"num_deleted":"0","num_feature":"104","num_nodes":"7","size_leaf_vector":"0"}},{"base_weights":[-1.1418237E-1,-2.1616763E-1,1.5719126E-1,-1.232434E-1,-4.221103E-1,1.1839997E-2,3.0611295E-1],"categories":[],"categories_nodes":[],"categories_segments":[],"categories_sizes":[],"default_left":[true,true,true,false,false,false,false],"id":78,"left_children":[1,3,5,-1,-1,-1,-1],"loss_changes":[2.4029312E2,1.20707245E2,5.1337875E1,0E0,0E0,0E0,0E0],"parents":[2147483647,0,0,1,1,2,2],"right_children":[2,4,6,-1,-1,-1,-1],"split_conditions":[2.05E1,1.85E1,5.065E-1,-1.232434E-3,-4.2211027E-3,1.1839997E-4,3.0611295E-3],"split_indices":[28,80,55,0,0,0,0],"split_type":[0,0,0,0,0,0,0],"sum_hessian":[8.680103E3,6.3092275E3,2.3708752E3,4.348653E3,1.9605751E3,1.2003668E3,1.1705084E3],"tree_param":{"num_deleted":"0","num_feature":"104","num_nodes":"7","size_leaf_vector":"0"}},{"base_weights":[1.1418236E-1,2.1616764E-1,-1.5719132E-1,1.2324341E-1,4.221103E-1,-1.184001E-2,-3.0611303E-1],"categories":[],"categories_nodes":[],"categories_segments":[],"categories_sizes":[],"default_left":[true,true,true,false,false,false,false],"id":79,"left_children":[1,3,5,-1,-1,-1,-1],"loss_changes":[2.4029324E2,1.20707184E2,5.1337906E1,0E0,0E0,0E0,0E0],"parents":[2147483647,0,0,1,1,2,2],"right_children":[2,4,6,-1,-1,-1,-1],"split_conditions":[2.05E1,1.85E1,5.065E-1,1.2324341E-3,4.2211027E-3,-1.184001E-4,-3.0611302E-3],"split_indices":[28,80,55,0,0,0,0],"split_type":[0,0,0,0,0,0,0],"sum_hessian":[8.680104E3,6.309228E3,2.3708752E3,4.348653E3,1.9605752E3,1.2003668E3,1.1705084E3],"tree_param":{"num_deleted":"0","num_feature":"104","num_nodes":"7","size_leaf_vector":"0"}},{"base_weights":[-1.1308996E-1,3.7602417E-2,-2.9448918E-1,-1.7568873E-1,1.4497869E-1,-3.7504762E-1,-8.818901E-2],"categories":[],"categories_nodes":[],"categories_segments":[],"categories_sizes":[],"default_left":[true,true,true,false,false,false,false],"id":80,"left_children":[1,3,5,-1,-1,-1,-1],"loss_changes":[2.3721118E2,1.0860004E2,6.5407135E1,0E0,0E0,0E0,0E0],"parents":[2147483647,0,0,1,1,2,2],"right_children":[2,4,6,-1,-1,-1,-1],"split_conditions":[9.5E-1,-1.95E0,3.85E0,-1.7568873E-3,1.4497868E-3,-3.750476E-3,-8.818901E-4],"split_indices":[25,77,77,0,0,0,0],"split_type":[0,0,0,0,0,0,0],"sum_hessian":[8.676371E3,4.739749E3,3.9366226E3,1.5869034E3,3.1528455E3,2.8305134E3,1.1061091E3],"tree_param":{"num_deleted":"0","num_feature":"104","num_nodes":"7","size_leaf_vector":"0"}},{"base_weights":[1.13089934E-1,-3.7602447E-2,2.9448915E-1,1.756887E-1,-1.4497872E-1,3.7504762E-1,8.81889E-2],"categories":[],"categories_nodes":[],"categories_segments":[],"categories_sizes":[],"default_left":[true,true,true,false,false,false,false],"id":81,"left_children":[1,3,5,-1,-1,-1,-1],"loss_changes":[2.372112E2,1.0860003E2,6.5407166E1,0E0,0E0,0E0,0E0],"parents":[2147483647,0,0,1,1,2,2],"right_children":[2,4,6,-1,-1,-1,-1],"split_conditions":[9.5E-1,-1.95E0,3.85E0,1.756887E-3,-1.4497872E-3,3.750476E-3,8.81889E-4],"split_indices":[25,77,77,0,0,0,0],"split_type":[0,0,0,0,0,0,0],"sum_hessian":[8.676371E3,4.739749E3,3.9366226E3,1.5869034E3,3.1528455E3,2.8305134E3,1.1061091E3],"tree_param":{"num_deleted":"0","num_feature":"104","num_nodes":"7","size_leaf_vector":"0"}},{"base_weights":[-1.12011105E-1,1.12095185E-1,-2.3210664E-1,-3.9211676E-2,2.4882537E-1,-4.3454838E-1,-1.3768323E-1],"categories":[],"categories_nodes":[],"categories_segments":[],"categories_sizes":[],"default_left":[true,true,true,false,false,false,false],"id":82,"left_children":[1,3,5,-1,-1,-1,-1],"loss_changes":[2.3346423E2,6.2631413E1,1.0789365E2,0E0,0E0,0E0,0E0],"parents":[2147483647,0,0,1,1,2,2],"right_children":[2,4,6,-1,-1,-1,-1],"split_conditions":[-1.6500001E0,-2.5E-1,-1.75E0,-3.9211675E-4,2.4882536E-3,-4.3454836E-3,-1.3768323E-3],"split_indices":[25,77,77,0,0,0,0],"split_type":[0,0,0,0,0,0,0],"sum_hessian":[8.672434E3,3.0259238E3,5.64651E3,1.436734E3,1.5891897E3,1.7948303E3,3.8516792E3],"tree_param":{"num_deleted":"0","num_feature":"104","num_nodes":"7","size_leaf_vector":"0"}},{"base_weights":[1.1201113E-1,-1.1209517E-1,2.3210666E-1,3.9211698E-2,-2.4882536E-1,4.3454838E-1,1.3768326E-1],"categories":[],"categories_nodes":[],"categories_segments":[],"categories_sizes":[],"default_left":[true,true,true,false,false,false,false],"id":83,"left_children":[1,3,5,-1,-1,-1,-1],"loss_changes":[2.3346423E2,6.263141E1,1.0789365E2,0E0,0E0,0E0,0E0],"parents":[2147483647,0,0,1,1,2,2],"right_children":[2,4,6,-1,-1,-1,-1],"split_conditions":[-1.6500001E0,-2.5E-1,-1.75E0,3.9211696E-4,-2.4882534E-3,4.3454836E-3,1.3768325E-3],"split_indices":[25,77,77,0,0,0,0],"split_type":[0,0,0,0,0,0,0],"sum_hessian":[8.672434E3,3.0259236E3,5.64651E3,1.436734E3,1.5891897E3,1.7948303E3,3.8516792E3],"tree_param":{"num_deleted":"0","num_feature":"104","num_nodes":"7","size_leaf_vector":"0"}},{"base_weights":[-1.1094268E-1,-2.108031E-1,1.5454851E-1,-5.50755E-2,-3.298144E-1,1.2688973E-2,3.0002585E-1],"categories":[],"categories_nodes":[],"categories_segments":[],"categories_sizes":[],"default_left":[true,true,true,false,false,false,false],"id":84,"left_children":[1,3,5,-1,-1,-1,-1],"loss_changes":[2.2987823E2,1.16747406E2,4.8910366E1,0E0,0E0,0E0,0E0],"parents":[2147483647,0,0,1,1,2,2],"right_children":[2,4,6,-1,-1,-1,-1],"split_conditions":[2.05E1,1.05E1,5.065E-1,-5.50755E-4,-3.2981439E-3,1.2688973E-4,3.0002585E-3],"split_indices":[28,80,55,0,0,0,0],"split_type":[0,0,0,0,0,0,0],"sum_hessian":[8.668474E3,6.2992964E3,2.3691775E3,2.7293606E3,3.5699358E3,1.2000541E3,1.1691234E3],"tree_param":{"num_deleted":"0","num_feature":"104","num_nodes":"7","size_leaf_vector":"0"}},{"base_weights":[1.1094268E-1,2.1080312E-1,-1.5454854E-1,5.507555E-2,3.298144E-1,-1.2688978E-2,-3.000259E-1],"categories":[],"categories_nodes":[],"categories_segments":[],"categories_sizes":[],"default_left":[true,true,true,false,false,false,false],"id":85,"left_children":[1,3,5,-1,-1,-1,-1],"loss_changes":[2.2987827E2,1.16747345E2,4.8910385E1,0E0,0E0,0E0,0E0],"parents":[2147483647,0,0,1,1,2,2],"right_children":[2,4,6,-1,-1,-1,-1],"split_conditions":[2.05E1,1.05E1,5.065E-1,5.507555E-4,3.2981439E-3,-1.2688978E-4,-3.000259E-3],"split_indices":[28,80,55,0,0,0,0],"split_type":[0,0,0,0,0,0,0],"sum_hessian":[8.668474E3,6.2992964E3,2.3691775E3,2.7293606E3,3.5699355E3,1.2000541E3,1.1691234E3],"tree_param":{"num_deleted":"0","num_feature":"104","num_nodes":"7","size_leaf_vector":"0"}},{"base_weights":[-1.0988356E-1,3.7681703E-2,-2.8776535E-1,-1.01124115E-1,1.9589503E-1,-3.450331E-1,-7.204303E-3],"categories":[],"categories_nodes":[],"categories_segments":[],"categories_sizes":[],"default_left":[true,true,true,false,false,false,false],"id":86,"left_children":[1,3,5,-1,-1,-1,-1],"loss_changes":[2.2747437E2,1.0405472E2,6.312964E1,0E0,0E0,0E0,0E0],"parents":[2147483647,0,0,1,1,2,2],"right_children":[2,4,6,-1,-1,-1,-1],"split_conditions":[9.5E-1,6.5E-1,5.6499996E0,-1.0112411E-3,1.9589502E-3,-3.450331E-3,-7.2043025E-5],"split_indices":[25,77,77,0,0,0,0],"split_type":[0,0,0,0,0,0,0],"sum_hessian":[8.66455E3,4.7362725E3,3.9282776E3,2.5230647E3,2.2132078E3,3.2621765E3,6.6610095E2],"tree_param":{"num_deleted":"0","num_feature":"104","num_nodes":"7","size_leaf_vector":"0"}},{"base_weights":[1.0988358E-1,-3.76817E-2,2.8776538E-1,1.0112411E-1,-1.9589502E-1,3.4503314E-1,7.204303E-3],"categories":[],"categories_nodes":[],"categories_segments":[],"categories_sizes":[],"default_left":[true,true,true,false,false,false,false],"id":87,"left_children":[1,3,5,-1,-1,-1,-1],"loss_changes":[2.274744E2,1.040547E2,6.312964E1,0E0,0E0,0E0,0E0],"parents":[2147483647,0,0,1,1,2,2],"right_children":[2,4,6,-1,-1,-1,-1],"split_conditions":[9.5E-1,6.5E-1,5.6499996E0,1.0112411E-3,-1.9589502E-3,3.4503313E-3,7.2043025E-5],"split_indices":[25,77,77,0,0,0,0],"split_type":[0,0,0,0,0,0,0],"sum_hessian":[8.66455E3,4.7362725E3,3.9282776E3,2.5230645E3,2.2132078E3,3.2621765E3,6.6610095E2],"tree_param":{"num_deleted":"0","num_feature":"104","num_nodes":"7","size_leaf_vector":"0"}},{"base_weights":[-1.08834416E-1,-2.1006235E-1,1.4645292E-1,-2.153631E-2,-3.0842817E-1,2.0940533E-1,-1.4429776E-1],"categories":[],"categories_nodes":[],"categories_segments":[],"categories_sizes":[],"default_left":[true,true,true,false,false,false,false],"id":88,"left_children":[1,3,5,-1,-1,-1,-1],"loss_changes":[2.2386731E2,1.1501956E2,4.5055946E1,0E0,0E0,0E0,0E0],"parents":[2147483647,0,0,1,1,2,2],"right_children":[2,4,6,-1,-1,-1,-1],"split_conditions":[2.15E1,9.5E0,2.45E1,-2.1536309E-4,-3.0842817E-3,2.0940532E-3,-1.4429776E-3],"split_indices":[51,103,81,0,0,0,0],"split_type":[0,0,0,0,0,0,0],"sum_hessian":[8.660664E3,6.2017065E3,2.4589575E3,2.12678E3,4.0749268E3,2.0215398E3,4.374177E2],"tree_param":{"num_deleted":"0","num_feature":"104","num_nodes":"7","size_leaf_vector":"0"}},{"base_weights":[1.08834416E-1,2.1006235E-1,-1.4645295E-1,2.1536306E-2,3.0842817E-1,-2.0940538E-1,1.4429778E-1],"categories":[],"categories_nodes":[],"categories_segments":[],"categories_sizes":[],"default_left":[true,true,true,false,false,false,false],"id":89,"left_children":[1,3,5,-1,-1,-1,-1],"loss_changes":[2.2386731E2,1.1501956E2,4.5055973E1,0E0,0E0,0E0,0E0],"parents":[2147483647,0,0,1,1,2,2],"right_children":[2,4,6,-1,-1,-1,-1],"split_conditions":[2.15E1,9.5E0,2.45E1,2.1536305E-4,3.0842817E-3,-2.0940537E-3,1.4429778E-3],"split_indices":[51,103,81,0,0,0,0],"split_type":[0,0,0,0,0,0,0],"sum_hessian":[8.660664E3,6.2017065E3,2.4589575E3,2.1267798E3,4.0749268E3,2.0215398E3,4.3741772E2],"tree_param":{"num_deleted":"0","num_feature":"104","num_nodes":"7","size_leaf_vector":"0"}},{"base_weights":[-1.077942E-1,-2.8219405E-1,3.8634177E-2,-2.2020164E-1,-5.3952193E-1,-1.00799635E-1,1.966262E-1],"categories":[],"categories_nodes":[],"categories_segments":[],"categories_sizes":[],"default_left":[true,true,true,false,false,false,false],"id":90,"left_children":[1,3,5,-1,-1,-1,-1],"loss_changes":[2.2110748E2,6.291916E1,1.0371741E2,0E0,0E0,0E0,0E0],"parents":[2147483647,0,0,1,1,2,2],"right_children":[2,4,6,-1,-1,-1,-1],"split_conditions":[1.35E1,2.25E1,6.5E-1,-2.2020163E-3,-5.395219E-3,-1.0079964E-3,1.966262E-3],"split_indices":[51,80,77,0,0,0,0],"split_type":[0,0,0,0,0,0,0],"sum_hessian":[8.656862E3,3.9506328E3,4.7062295E3,3.1851577E3,7.65475E2,2.5001323E3,2.2060972E3],"tree_param":{"num_deleted":"0","num_feature":"104","num_nodes":"7","size_leaf_vector":"0"}},{"base_weights":[1.0779421E-1,2.8219405E-1,-3.8634162E-2,2.2020167E-1,5.395219E-1,1.0079966E-1,-1.966262E-1],"categories":[],"categories_nodes":[],"categories_segments":[],"categories_sizes":[],"default_left":[true,true,true,false,false,false,false],"id":91,"left_children":[1,3,5,-1,-1,-1,-1],"loss_changes":[2.2110745E2,6.2919098E1,1.0371742E2,0E0,0E0,0E0,0E0],"parents":[2147483647,0,0,1,1,2,2],"right_children":[2,4,6,-1,-1,-1,-1],"split_conditions":[1.35E1,2.25E1,6.5E-1,2.2020168E-3,5.3952187E-3,1.0079965E-3,-1.966262E-3],"split_indices":[51,80,77,0,0,0,0],"split_type":[0,0,0,0,0,0,0],"sum_hessian":[8.656862E3,3.9506328E3,4.7062295E3,3.1851577E3,7.6547504E2,2.5001323E3,2.2060972E3],"tree_param":{"num_deleted":"0","num_feature":"104","num_nodes":"7","size_leaf_vector":"0"}},{"base_weights":[-1.0676716E-1,-2.1122713E-1,1.3395762E-1,-1.2272667E-1,-4.1081604E-1,-1.3986526E-1,2.1180657E-1],"categories":[],"categories_nodes":[],"categories_segments":[],"categories_sizes":[],"default_left":[true,true,true,false,false,false,false],"id":92,"left_children":[1,3,5,-1,-1,-1,-1],"loss_changes":[2.1763898E2,1.0655725E2,5.5867855E1,0E0,0E0,0E0,0E0],"parents":[2147483647,0,0,1,1,2,2],"right_children":[2,4,6,-1,-1,-1,-1],"split_conditions":[1.95E1,1.85E1,3.585E-1,-1.2272667E-3,-4.1081603E-3,-1.3986526E-3,2.1180657E-3],"split_indices":[28,80,55,0,0,0,0],"split_type":[0,0,0,0,0,0,0],"sum_hessian":[8.652852E3,6.034407E3,2.6184446E3,4.1817686E3,1.8526387E3,5.794639E2,2.0389806E3],"tree_param":{"num_deleted":"0","num_feature":"104","num_nodes":"7","size_leaf_vector":"0"}},{"base_weights":[1.0676715E-1,2.1122712E-1,-1.3395764E-1,1.2272665E-1,4.1081604E-1,1.3986528E-1,-2.118066E-1],"categories":[],"categories_nodes":[],"categories_segments":[],"categories_sizes":[],"default_left":[true,true,true,false,false,false,false],"id":93,"left_children":[1,3,5,-1,-1,-1,-1],"loss_changes":[2.1763895E2,1.0655728E2,5.5867878E1,0E0,0E0,0E0,0E0],"parents":[2147483647,0,0,1,1,2,2],"right_children":[2,4,6,-1,-1,-1,-1],"split_conditions":[1.95E1,1.85E1,3.585E-1,1.2272665E-3,4.1081603E-3,1.3986528E-3,-2.118066E-3],"split_indices":[28,80,55,0,0,0,0],"split_type":[0,0,0,0,0,0,0],"sum_hessian":[8.652852E3,6.034407E3,2.6184446E3,4.1817686E3,1.8526387E3,5.794639E2,2.0389806E3],"tree_param":{"num_deleted":"0","num_feature":"104","num_nodes":"7","size_leaf_vector":"0"}},{"base_weights":[-1.05749436E-1,3.7567563E-2,-2.7886438E-1,-1.6602387E-1,1.3995977E-1,-3.352095E-1,-3.6548218E-3],"categories":[],"categories_nodes":[],"categories_segments":[],"categories_sizes":[],"default_left":[true,true,true,false,false,false,false],"id":94,"left_children":[1,3,5,-1,-1,-1,-1],"loss_changes":[2.1461621E2,9.8689926E1,6.075058E1,0E0,0E0,0E0,0E0],"parents":[2147483647,0,0,1,1,2,2],"right_children":[2,4,6,-1,-1,-1,-1],"split_conditions":[9.5E-1,-1.95E0,5.6499996E0,-1.6602386E-3,1.3995976E-3,-3.352095E-3,-3.6548216E-5],"split_indices":[25,77,77,0,0,0,0],"split_type":[0,0,0,0,0,0,0],"sum_hessian":[8.648859E3,4.7320835E3,3.916776E3,1.5833031E3,3.1487805E3,3.2509697E3,6.65806E2],"tree_param":{"num_deleted":"0","num_feature":"104","num_nodes":"7","size_leaf_vector":"0"}},{"base_weights":[1.0574945E-1,-3.7567545E-2,2.788644E-1,1.6602385E-1,-1.3995974E-1,3.3520952E-1,3.6547906E-3],"categories":[],"categories_nodes":[],"categories_segments":[],"categories_sizes":[],"default_left":[true,true,true,false,false,false,false],"id":95,"left_children":[1,3,5,-1,-1,-1,-1],"loss_changes":[2.1461621E2,9.868989E1,6.075061E1,0E0,0E0,0E0,0E0],"parents":[2147483647,0,0,1,1,2,2],"right_children":[2,4,6,-1,-1,-1,-1],"split_conditions":[9.5E-1,-1.95E0,5.6499996E0,1.6602385E-3,-1.3995974E-3,3.3520951E-3,3.6547906E-5],"split_indices":[25,77,77,0,0,0,0],"split_type":[0,0,0,0,0,0,0],"sum_hessian":[8.648859E3,4.7320835E3,3.916776E3,1.5833031E3,3.1487805E3,3.2509697E3,6.6580597E2],"tree_param":{"num_deleted":"0","num_feature":"104","num_nodes":"7","size_leaf_vector":"0"}},{"base_weights":[-1.0474302E-1,-2.0332891E-1,1.4354937E-1,-1.894151E-2,-2.997774E-1,2.0466982E-1,-1.3868694E-1],"categories":[],"categories_nodes":[],"categories_segments":[],"categories_sizes":[],"default_left":[true,true,true,false,false,false,false],"id":96,"left_children":[1,3,5,-1,-1,-1,-1],"loss_changes":[2.1166046E2,1.1005791E2,4.242609E1,0E0,0E0,0E0,0E0],"parents":[2147483647,0,0,1,1,2,2],"right_children":[2,4,6,-1,-1,-1,-1],"split_conditions":[2.15E1,9.5E0,2.45E1,-1.894151E-4,-2.997774E-3,2.0466982E-3,-1.3868693E-3],"split_indices":[51,103,81,0,0,0,0],"split_type":[0,0,0,0,0,0,0],"sum_hessian":[8.64473E3,6.1879507E3,2.4567795E3,2.125561E3,4.0623894E3,2.0196776E3,4.3710193E2],"tree_param":{"num_deleted":"0","num_feature":"104","num_nodes":"7","size_leaf_vector":"0"}},{"base_weights":[1.0474301E-1,2.0332891E-1,-1.435494E-1,1.894153E-2,2.997774E-1,-2.0466986E-1,1.3868703E-1],"categories":[],"categories_nodes":[],"categories_segments":[],"categories_sizes":[],"default_left":[true,true,true,false,false,false,false],"id":97,"left_children":[1,3,5,-1,-1,-1,-1],"loss_changes":[2.1166049E2,1.1005789E2,4.242612E1,0E0,0E0,0E0,0E0],"parents":[2147483647,0,0,1,1,2,2],"right_children":[2,4,6,-1,-1,-1,-1],"split_conditions":[2.15E1,9.5E0,2.45E1,1.8941528E-4,2.997774E-3,-2.0466985E-3,1.3868703E-3],"split_indices":[51,103,81,0,0,0,0],"split_type":[0,0,0,0,0,0,0],"sum_hessian":[8.64473E3,6.1879507E3,2.4567795E3,2.125561E3,4.0623894E3,2.0196776E3,4.371019E2],"tree_param":{"num_deleted":"0","num_feature":"104","num_nodes":"7","size_leaf_vector":"0"}},{"base_weights":[-1.0374385E-1,-2.7348167E-1,3.847772E-2,-2.1261504E-1,-5.272474E-1,-9.747398E-2,1.9249827E-1],"categories":[],"categories_nodes":[],"categories_segments":[],"categories_sizes":[],"default_left":[true,true,true,false,false,false,false],"id":98,"left_children":[1,3,5,-1,-1,-1,-1],"loss_changes":[2.0862625E2,6.074286E1,9.849417E1,0E0,0E0,0E0,0E0],"parents":[2147483647,0,0,1,1,2,2],"right_children":[2,4,6,-1,-1,-1,-1],"split_conditions":[1.35E1,2.25E1,6.5E-1,-2.1261503E-3,-5.272474E-3,-9.747398E-4,1.9249826E-3],"split_indices":[51,80,77,0,0,0,0],"split_type":[0,0,0,0,0,0,0],"sum_hessian":[8.640775E3,3.938889E3,4.701886E3,3.178381E3,7.60508E2,2.4976309E3,2.2042554E3],"tree_param":{"num_deleted":"0","num_feature":"104","num_nodes":"7","size_leaf_vector":"0"}},{"base_weights":[1.03743844E-1,2.7348164E-1,-3.847771E-2,2.1261501E-1,5.272474E-1,9.7473994E-2,-1.9249827E-1],"categories":[],"categories_nodes":[],"categories_segments":[],"categories_sizes":[],"default_left":[true,true,true,false,false,false,false],"id":99,"left_children":[1,3,5,-1,-1,-1,-1],"loss_changes":[2.0862622E2,6.074289E1,9.849419E1,0E0,0E0,0E0,0E0],"parents":[2147483647,0,0,1,1,2,2],"right_children":[2,4,6,-1,-1,-1,-1],"split_conditions":[1.35E1,2.25E1,6.5E-1,2.12615E-3,5.272474E-3,9.747399E-4,-1.9249826E-3],"split_indices":[51,80,77,0,0,0,0],"split_type":[0,0,0,0,0,0,0],"sum_hessian":[8.640775E3,3.9388892E3,4.701886E3,3.1783809E3,7.605081E2,2.4976309E3,2.2042554E3],"tree_param":{"num_deleted":"0","num_feature":"104","num_nodes":"7","size_leaf_vector":"0"}},{"base_weights":[-1.0275733E-1,-1.976532E-1,1.4888571E-1,-1.1028284E-1,-3.9300844E-1,1.4644099E-2,2.868552E-1],"categories":[],"categories_nodes":[],"categories_segments":[],"categories_sizes":[],"default_left":[true,true,true,false,false,false,false],"id":100,"left_children":[1,3,5,-1,-1,-1,-1],"loss_changes":[2.062947E2,1.0702121E2,4.381497E1,0E0,0E0,0E0,0E0],"parents":[2147483647,0,0,1,1,2,2],"right_children":[2,4,6,-1,-1,-1,-1],"split_conditions":[2.05E1,1.85E1,5.065E-1,-1.1028283E-3,-3.9300844E-3,1.4644099E-4,2.8685518E-3],"split_indices":[28,80,55,0,0,0,0],"split_type":[0,0,0,0,0,0,0],"sum_hessian":[8.636614E3,6.271728E3,2.3648862E3,4.334664E3,1.937064E3,1.1991971E3,1.1656892E3],"tree_param":{"num_deleted":"0","num_feature":"104","num_nodes":"7","size_leaf_vector":"0"}},{"base_weights":[1.0275733E-1,1.9765322E-1,-1.4888571E-1,1.10282846E-1,3.9300844E-1,-1.4644069E-2,-2.8685522E-1],"categories":[],"categories_nodes":[],"categories_segments":[],"categories_sizes":[],"default_left":[true,true,true,false,false,false,false],"id":101,"left_children":[1,3,5,-1,-1,-1,-1],"loss_changes":[2.0629471E2,1.07021225E2,4.3814976E1,0E0,0E0,0E0,0E0],"parents":[2147483647,0,0,1,1,2,2],"right_children":[2,4,6,-1,-1,-1,-1],"split_conditions":[2.05E1,1.85E1,5.065E-1,1.1028284E-3,3.9300844E-3,-1.4644068E-4,-2.8685522E-3],"split_indices":[28,80,55,0,0,0,0],"split_type":[0,0,0,0,0,0,0],"sum_hessian":[8.636614E3,6.271728E3,2.3648865E3,4.334664E3,1.9370638E3,1.1991971E3,1.1656893E3],"tree_param":{"num_deleted":"0","num_feature":"104","num_nodes":"7","size_leaf_vector":"0"}},{"base_weights":[-1.0177973E-1,3.747821E-2,-2.7033913E-1,-1.5800531E-1,1.3840806E-1,-3.2578892E-1,-3.5207058E-4],"categories":[],"categories_nodes":[],"categories_segments":[],"categories_sizes":[],"default_left":[true,true,true,false,false,false,false],"id":102,"left_children":[1,3,5,-1,-1,-1,-1],"loss_changes":[2.0266492E2,9.331599E1,5.8474487E1,0E0,0E0,0E0,0E0],"parents":[2147483647,0,0,1,1,2,2],"right_children":[2,4,6,-1,-1,-1,-1],"split_conditions":[9.5E-1,-1.8499999E0,5.6499996E0,-1.5800531E-3,1.3840806E-3,-3.257889E-3,-3.5207056E-6],"split_indices":[25,77,77,0,0,0,0],"split_type":[0,0,0,0,0,0,0],"sum_hessian":[8.63244E3,4.7275117E3,3.904929E3,1.6095426E3,3.117969E3,3.2394133E3,6.6551556E2],"tree_param":{"num_deleted":"0","num_feature":"104","num_nodes":"7","size_leaf_vector":"0"}},{"base_weights":[1.01779744E-1,-3.74782E-2,2.7033913E-1,1.5800531E-1,-1.3840805E-1,3.2578892E-1,3.5218016E-4],"categories":[],"categories_nodes":[],"categories_segments":[],"categories_sizes":[],"default_left":[true,true,true,false,false,false,false],"id":103,"left_children":[1,3,5,-1,-1,-1,-1],"loss_changes":[2.0266495E2,9.331599E1,5.8474457E1,0E0,0E0,0E0,0E0],"parents":[2147483647,0,0,1,1,2,2],"right_children":[2,4,6,-1,-1,-1,-1],"split_conditions":[9.5E-1,-1.8499999E0,5.6499996E0,1.5800531E-3,-1.3840805E-3,3.257889E-3,3.5218015E-6],"split_indices":[25,77,77,0,0,0,0],"split_type":[0,0,0,0,0,0,0],"sum_hessian":[8.63244E3,4.7275117E3,3.904929E3,1.6095427E3,3.117969E3,3.2394133E3,6.655156E2],"tree_param":{"num_deleted":"0","num_feature":"104","num_nodes":"7","size_leaf_vector":"0"}},{"base_weights":[-1.0081275E-1,-1.943749E-1,1.4713944E-1,-4.7168083E-2,-3.0765176E-1,1.5124158E-2,2.829211E-1],"categories":[],"categories_nodes":[],"categories_segments":[],"categories_sizes":[],"default_left":[true,true,true,false,false,false,false],"id":104,"left_children":[1,3,5,-1,-1,-1,-1],"loss_changes":[2.0021643E2,1.0446413E2,4.2382526E1,0E0,0E0,0E0,0E0],"parents":[2147483647,0,0,1,1,2,2],"right_children":[2,4,6,-1,-1,-1,-1],"split_conditions":[2.05E1,1.05E1,5.065E-1,-4.7168083E-4,-3.0765175E-3,1.5124158E-4,2.829211E-3],"split_indices":[28,80,55,0,0,0,0],"split_type":[0,0,0,0,0,0,0],"sum_hessian":[8.628179E3,6.2645376E3,2.3636414E3,2.724883E3,3.5396545E3,1.1990056E3,1.1646356E3],"tree_param":{"num_deleted":"0","num_feature":"104","num_nodes":"7","size_leaf_vector":"0"}},{"base_weights":[1.00812756E-1,1.9437492E-1,-1.4713947E-1,4.7168083E-2,3.076518E-1,-1.5124184E-2,-2.8292114E-1],"categories":[],"categories_nodes":[],"categories_segments":[],"categories_sizes":[],"default_left":[true,true,true,false,false,false,false],"id":105,"left_children":[1,3,5,-1,-1,-1,-1],"loss_changes":[2.0021649E2,1.0446414E2,4.2382526E1,0E0,0E0,0E0,0E0],"parents":[2147483647,0,0,1,1,2,2],"right_children":[2,4,6,-1,-1,-1,-1],"split_conditions":[2.05E1,1.05E1,5.065E-1,4.7168083E-4,3.0765177E-3,-1.5124184E-4,-2.8292113E-3],"split_indices":[28,80,55,0,0,0,0],"split_type":[0,0,0,0,0,0,0],"sum_hessian":[8.628179E3,6.2645376E3,2.3636414E3,2.724883E3,3.5396545E3,1.1990056E3,1.1646356E3],"tree_param":{"num_deleted":"0","num_feature":"104","num_nodes":"7","size_leaf_vector":"0"}},{"base_weights":[-9.985472E-2,-1.9521321E-1,1.3991728E-1,-1.6060863E-2,-2.892355E-1,1.9920373E-1,-1.3369979E-1],"categories":[],"categories_nodes":[],"categories_segments":[],"categories_sizes":[],"default_left":[true,true,true,false,false,false,false],"id":106,"left_children":[1,3,5,-1,-1,-1,-1],"loss_changes":[1.9722952E2,1.0394455E2,3.984661E1,0E0,0E0,0E0,0E0],"parents":[2147483647,0,0,1,1,2,2],"right_children":[2,4,6,-1,-1,-1,-1],"split_conditions":[2.15E1,9.5E0,2.45E1,-1.6060863E-4,-2.892355E-3,1.9920373E-3,-1.3369978E-3],"split_indices":[51,103,81,0,0,0,0],"split_type":[0,0,0,0,0,0,0],"sum_hessian":[8.623897E3,6.1701743E3,2.4537227E3,2.1240771E3,4.0460974E3,2.0169651E3,4.3675748E2],"tree_param":{"num_deleted":"0","num_feature":"104","num_nodes":"7","size_leaf_vector":"0"}},{"base_weights":[9.9854745E-2,1.9521321E-1,-1.3991721E-1,1.6060859E-2,2.892355E-1,-1.9920366E-1,1.3369979E-1],"categories":[],"categories_nodes":[],"categories_segments":[],"categories_sizes":[],"default_left":[true,true,true,false,false,false,false],"id":107,"left_children":[1,3,5,-1,-1,-1,-1],"loss_changes":[1.9722943E2,1.0394455E2,3.9846607E1,0E0,0E0,0E0,0E0],"parents":[2147483647,0,0,1,1,2,2],"right_children":[2,4,6,-1,-1,-1,-1],"split_conditions":[2.15E1,9.5E0,2.45E1,1.6060859E-4,2.892355E-3,-1.9920366E-3,1.3369978E-3],"split_indices":[51,103,81,0,0,0,0],"split_type":[0,0,0,0,0,0,0],"sum_hessian":[8.623897E3,6.1701743E3,2.4537227E3,2.1240771E3,4.0460974E3,2.0169651E3,4.3675748E2],"tree_param":{"num_deleted":"0","num_feature":"104","num_nodes":"7","size_leaf_vector":"0"}},{"base_weights":[-9.890417E-2,-2.6342267E-1,3.8603667E-2,-2.0384343E-1,-5.1317835E-1,-9.2898086E-2,1.875622E-1],"categories":[],"categories_nodes":[],"categories_segments":[],"categories_sizes":[],"default_left":[true,true,true,false,false,false,false],"id":108,"left_children":[1,3,5,-1,-1,-1,-1],"loss_changes":[1.9503455E2,5.8300903E1,9.201877E1,0E0,0E0,0E0,0E0],"parents":[2147483647,0,0,1,1,2,2],"right_children":[2,4,6,-1,-1,-1,-1],"split_conditions":[1.35E1,2.25E1,6.5E-1,-2.0384341E-3,-5.1317834E-3,-9.289808E-4,1.875622E-3],"split_indices":[51,80,77,0,0,0,0],"split_type":[0,0,0,0,0,0,0],"sum_hessian":[8.619782E3,3.9240342E3,4.695748E3,3.1697146E3,7.5431964E2,2.4942134E3,2.2015347E3],"tree_param":{"num_deleted":"0","num_feature":"104","num_nodes":"7","size_leaf_vector":"0"}},{"base_weights":[9.890419E-2,2.634227E-1,-3.860365E-2,2.0384344E-1,5.1317847E-1,9.2898086E-2,-1.8756215E-1],"categories":[],"categories_nodes":[],"categories_segments":[],"categories_sizes":[],"default_left":[true,true,true,false,false,false,false],"id":109,"left_children":[1,3,5,-1,-1,-1,-1],"loss_changes":[1.9503458E2,5.8300934E1,9.2018745E1,0E0,0E0,0E0,0E0],"parents":[2147483647,0,0,1,1,2,2],"right_children":[2,4,6,-1,-1,-1,-1],"split_conditions":[1.35E1,2.25E1,6.5E-1,2.0384344E-3,5.1317844E-3,9.289808E-4,-1.8756215E-3],"split_indices":[51,80,77,0,0,0,0],"split_type":[0,0,0,0,0,0,0],"sum_hessian":[8.619782E3,3.9240342E3,4.695748E3,3.1697144E3,7.543197E2,2.4942134E3,2.2015347E3],"tree_param":{"num_deleted":"0","num_feature":"104","num_nodes":"7","size_leaf_vector":"0"}},{"base_weights":[-9.796558E-2,-2.030247E-1,1.13666676E-1,-3.311024E-1,-7.7918164E-2,-1.59603E-1,1.9028223E-1],"categories":[],"categories_nodes":[],"categories_segments":[],"categories_sizes":[],"default_left":[true,true,true,false,false,false,false],"id":110,"left_children":[1,3,5,-1,-1,-1,-1],"loss_changes":[1.9160074E2,9.224313E1,5.98898E1,0E0,0E0,0E0,0E0],"parents":[2147483647,0,0,1,1,2,2],"right_children":[2,4,6,-1,-1,-1,-1],"split_conditions":[1.85E1,6.5E-1,3.585E-1,-3.311024E-3,-7.791816E-4,-1.59603E-3,1.9028222E-3],"split_indices":[28,77,55,0,0,0,0],"split_type":[0,0,0,0,0,0,0],"sum_hessian":[8.615468E3,5.7574023E3,2.858066E3,2.8441052E3,2.9132969E3,6.256033E2,2.2324626E3],"tree_param":{"num_deleted":"0","num_feature":"104","num_nodes":"7","size_leaf_vector":"0"}},{"base_weights":[9.7965576E-2,2.030247E-1,-1.1366668E-1,3.311024E-1,7.791816E-2,1.5960298E-1,-1.9028224E-1],"categories":[],"categories_nodes":[],"categories_segments":[],"categories_sizes":[],"default_left":[true,true,true,false,false,false,false],"id":111,"left_children":[1,3,5,-1,-1,-1,-1],"loss_changes":[1.9160077E2,9.224315E1,5.9889805E1,0E0,0E0,0E0,0E0],"parents":[2147483647,0,0,1,1,2,2],"right_children":[2,4,6,-1,-1,-1,-1],"split_conditions":[1.85E1,6.5E-1,3.585E-1,3.311024E-3,7.7918154E-4,1.5960298E-3,-1.9028224E-3],"split_indices":[28,77,55,0,0,0,0],"split_type":[0,0,0,0,0,0,0],"sum_hessian":[8.615468E3,5.757402E3,2.8580662E3,2.8441055E3,2.9132966E3,6.256033E2,2.232463E3],"tree_param":{"num_deleted":"0","num_feature":"104","num_nodes":"7","size_leaf_vector":"0"}},{"base_weights":[-9.7035654E-2,3.7515037E-2,-2.603215E-1,-1.7013894E-1,1.2656617E-1,-1.8192853E-1,-4.430032E-1],"categories":[],"categories_nodes":[],"categories_segments":[],"categories_sizes":[],"default_left":[true,true,true,false,false,false,false],"id":112,"left_children":[1,3,5,-1,-1,-1,-1],"loss_changes":[1.8922054E2,8.734723E1,5.563867E1,0E0,0E0,0E0,0E0],"parents":[2147483647,0,0,1,1,2,2],"right_children":[2,4,6,-1,-1,-1,-1],"split_conditions":[9.5E-1,-2.45E0,1.85E1,-1.7013893E-3,1.2656617E-3,-1.8192852E-3,-4.430032E-3],"split_indices":[25,77,80,0,0,0,0],"split_type":[0,0,0,0,0,0,0],"sum_hessian":[8.6111455E3,4.721395E3,3.889751E3,1.4167754E3,3.3046196E3,2.7231711E3,1.1665798E3],"tree_param":{"num_deleted":"0","num_feature":"104","num_nodes":"7","size_leaf_vector":"0"}},{"base_weights":[9.703565E-2,-3.751504E-2,2.6032147E-1,1.7013894E-1,-1.2656619E-1,1.8192853E-1,4.4300318E-1],"categories":[],"categories_nodes":[],"categories_segments":[],"categories_sizes":[],"default_left":[true,true,true,false,false,false,false],"id":113,"left_children":[1,3,5,-1,-1,-1,-1],"loss_changes":[1.8922052E2,8.734723E1,5.5638702E1,0E0,0E0,0E0,0E0],"parents":[2147483647,0,0,1,1,2,2],"right_children":[2,4,6,-1,-1,-1,-1],"split_conditions":[9.5E-1,-2.45E0,1.85E1,1.7013893E-3,-1.2656618E-3,1.8192852E-3,4.430032E-3],"split_indices":[25,77,80,0,0,0,0],"split_type":[0,0,0,0,0,0,0],"sum_hessian":[8.6111455E3,4.721395E3,3.8897507E3,1.4167754E3,3.3046196E3,2.7231711E3,1.1665797E3],"tree_param":{"num_deleted":"0","num_feature":"104","num_nodes":"7","size_leaf_vector":"0"}},{"base_weights":[-9.611684E-2,-1.890314E-1,1.3717103E-1,-1.3975127E-2,-2.8116268E-1,1.9469924E-1,-1.2828451E-1],"categories":[],"categories_nodes":[],"categories_segments":[],"categories_sizes":[],"default_left":[true,true,true,false,false,false,false],"id":114,"left_children":[1,3,5,-1,-1,-1,-1],"loss_changes":[1.8660437E2,9.928592E1,3.7475452E1,0E0,0E0,0E0,0E0],"parents":[2147483647,0,0,1,1,2,2],"right_children":[2,4,6,-1,-1,-1,-1],"split_conditions":[2.15E1,9.5E0,2.45E1,-1.3975127E-4,-2.8116268E-3,1.9469924E-3,-1.2828452E-3],"split_indices":[51,103,81,0,0,0,0],"split_type":[0,0,0,0,0,0,0],"sum_hessian":[8.606666E3,6.1553037E3,2.4513625E3,2.1228608E3,4.0324426E3,2.0149575E3,4.3640503E2],"tree_param":{"num_deleted":"0","num_feature":"104","num_nodes":"7","size_leaf_vector":"0"}},{"base_weights":[9.611685E-2,1.8903142E-1,-1.3717102E-1,1.39751155E-2,2.811627E-1,-1.9469921E-1,1.2828453E-1],"categories":[],"categories_nodes":[],"categories_segments":[],"categories_sizes":[],"default_left":[true,true,true,false,false,false,false],"id":115,"left_children":[1,3,5,-1,-1,-1,-1],"loss_changes":[1.8660434E2,9.928592E1,3.747545E1,0E0,0E0,0E0,0E0],"parents":[2147483647,0,0,1,1,2,2],"right_children":[2,4,6,-1,-1,-1,-1],"split_conditions":[2.15E1,9.5E0,2.45E1,1.3975115E-4,2.811627E-3,-1.9469921E-3,1.2828453E-3],"split_indices":[51,103,81,0,0,0,0],"split_type":[0,0,0,0,0,0,0],"sum_hessian":[8.606666E3,6.1553037E3,2.4513625E3,2.122861E3,4.0324426E3,2.0149575E3,4.3640503E2],"tree_param":{"num_deleted":"0","num_feature":"104","num_nodes":"7","size_leaf_vector":"0"}},{"base_weights":[-9.520315E-2,-2.5533047E-1,3.8331553E-2,-1.9692938E-1,-5.01417E-1,-8.975819E-2,1.8340369E-1],"categories":[],"categories_nodes":[],"categories_segments":[],"categories_sizes":[],"default_left":[true,true,true,false,false,false,false],"id":116,"left_children":[1,3,5,-1,-1,-1,-1],"loss_changes":[1.8397339E2,5.6127884E1,8.7206894E1,0E0,0E0,0E0,0E0],"parents":[2147483647,0,0,1,1,2,2],"right_children":[2,4,6,-1,-1,-1,-1],"split_conditions":[1.35E1,2.25E1,6.5E-1,-1.9692937E-3,-5.0141695E-3,-8.9758186E-4,1.8340368E-3],"split_indices":[51,80,77,0,0,0,0],"split_type":[0,0,0,0,0,0,0],"sum_hessian":[8.602444E3,3.9113093E3,4.691135E3,3.1625703E3,7.48739E2,2.4915933E3,2.1995417E3],"tree_param":{"num_deleted":"0","num_feature":"104","num_nodes":"7","size_leaf_vector":"0"}},{"base_weights":[9.520315E-2,2.553305E-1,-3.833157E-2,1.969294E-1,5.0141704E-1,8.975816E-2,-1.8340369E-1],"categories":[],"categories_nodes":[],"categories_segments":[],"categories_sizes":[],"default_left":[true,true,true,false,false,false,false],"id":117,"left_children":[1,3,5,-1,-1,-1,-1],"loss_changes":[1.8397345E2,5.61279E1,8.720688E1,0E0,0E0,0E0,0E0],"parents":[2147483647,0,0,1,1,2,2],"right_children":[2,4,6,-1,-1,-1,-1],"split_conditions":[1.35E1,2.25E1,6.5E-1,1.969294E-3,5.0141704E-3,8.975816E-4,-1.8340368E-3],"split_indices":[51,80,77,0,0,0,0],"split_type":[0,0,0,0,0,0,0],"sum_hessian":[8.602444E3,3.911309E3,4.691135E3,3.1625703E3,7.48739E2,2.4915933E3,2.1995417E3],"tree_param":{"num_deleted":"0","num_feature":"104","num_nodes":"7","size_leaf_vector":"0"}},{"base_weights":[-9.430097E-2,-1.8372732E-1,1.4212587E-1,-1.0067451E-1,-3.7095097E-1,1.9362973E-2,2.7552694E-1],"categories":[],"categories_nodes":[],"categories_segments":[],"categories_sizes":[],"default_left":[true,true,true,false,false,false,false],"id":118,"left_children":[1,3,5,-1,-1,-1,-1],"loss_changes":[1.8183344E2,9.6984436E1,3.8651188E1,0E0,0E0,0E0,0E0],"parents":[2147483647,0,0,1,1,2,2],"right_children":[2,4,6,-1,-1,-1,-1],"split_conditions":[2.05E1,1.85E1,5.135E-1,-1.006745E-3,-3.7095095E-3,1.9362972E-4,2.7552694E-3],"split_indices":[28,80,55,0,0,0,0],"split_type":[0,0,0,0,0,0,0],"sum_hessian":[8.598022E3,6.238564E3,2.3594585E3,4.3225913E3,1.915973E3,1.2293184E3,1.1301403E3],"tree_param":{"num_deleted":"0","num_feature":"104","num_nodes":"7","size_leaf_vector":"0"}},{"base_weights":[9.4300985E-2,1.8372732E-1,-1.4212586E-1,1.00674525E-1,3.7095094E-1,-1.9362964E-2,-2.7552694E-1],"categories":[],"categories_nodes":[],"categories_segments":[],"categories_sizes":[],"default_left":[true,true,true,false,false,false,false],"id":119,"left_children":[1,3,5,-1,-1,-1,-1],"loss_changes":[1.8183344E2,9.6984436E1,3.8651188E1,0E0,0E0,0E0,0E0],"parents":[2147483647,0,0,1,1,2,2],"right_children":[2,4,6,-1,-1,-1,-1],"split_conditions":[2.05E1,1.85E1,5.135E-1,1.0067453E-3,3.7095093E-3,-1.9362963E-4,-2.7552694E-3],"split_indices":[28,80,55,0,0,0,0],"split_type":[0,0,0,0,0,0,0],"sum_hessian":[8.598022E3,6.2385645E3,2.3594585E3,4.3225913E3,1.915973E3,1.2293184E3,1.1301401E3],"tree_param":{"num_deleted":"0","num_feature":"104","num_nodes":"7","size_leaf_vector":"0"}},{"base_weights":[-9.340665E-2,-1.704523E-1,1.770591E-1,-3.549827E-2,-2.887097E-1,-5.5176523E-2,2.4333528E-1],"categories":[],"categories_nodes":[],"categories_segments":[],"categories_sizes":[],"default_left":[true,true,true,false,false,false,false],"id":120,"left_children":[1,3,5,-1,-1,-1,-1],"loss_changes":[1.7912653E2,1.06751755E2,2.9349594E1,0E0,0E0,0E0,0E0],"parents":[2147483647,0,0,1,1,2,2],"right_children":[2,4,6,-1,-1,-1,-1],"split_conditions":[2.35E1,1.15E1,3.595E-1,-3.5498268E-4,-2.887097E-3,-5.517652E-4,2.4333526E-3],"split_indices":[51,80,55,0,0,0,0],"split_type":[0,0,0,0,0,0,0],"sum_hessian":[8.593612E3,6.688637E3,1.9049746E3,3.124403E3,3.5642341E3,4.2298337E2,1.4819912E3],"tree_param":{"num_deleted":"0","num_feature":"104","num_nodes":"7","size_leaf_vector":"0"}},{"base_weights":[9.340665E-2,1.704523E-1,-1.7705908E-1,3.5498254E-2,2.887097E-1,5.5176582E-2,-2.4333526E-1],"categories":[],"categories_nodes":[],"categories_segments":[],"categories_sizes":[],"default_left":[true,true,true,false,false,false,false],"id":121,"left_children":[1,3,5,-1,-1,-1,-1],"loss_changes":[1.7912648E2,1.06751785E2,2.934961E1,0E0,0E0,0E0,0E0],"parents":[2147483647,0,0,1,1,2,2],"right_children":[2,4,6,-1,-1,-1,-1],"split_conditions":[2.35E1,1.15E1,3.595E-1,3.5498253E-4,2.887097E-3,5.517658E-4,-2.4333526E-3],"split_indices":[51,80,55,0,0,0,0],"split_type":[0,0,0,0,0,0,0],"sum_hessian":[8.593612E3,6.688637E3,1.9049746E3,3.124403E3,3.5642341E3,4.2298337E2,1.4819912E3],"tree_param":{"num_deleted":"0","num_feature":"104","num_nodes":"7","size_leaf_vector":"0"}},{"base_weights":[-9.251901E-2,3.768723E-2,-2.509485E-1,-1.6350329E-1,1.2388572E-1,-3.0458757E-1,8.123572E-3],"categories":[],"categories_nodes":[],"categories_segments":[],"categories_sizes":[],"default_left":[true,true,true,false,false,false,false],"id":122,"left_children":[1,3,5,-1,-1,-1,-1],"loss_changes":[1.7721579E2,8.180731E1,5.385547E1,0E0,0E0,0E0,0E0],"parents":[2147483647,0,0,1,1,2,2],"right_children":[2,4,6,-1,-1,-1,-1],"split_conditions":[9.5E-1,-2.45E0,5.6499996E0,-1.6350328E-3,1.2388572E-3,-3.0458756E-3,8.123572E-5],"split_indices":[25,77,77,0,0,0,0],"split_type":[0,0,0,0,0,0,0],"sum_hessian":[8.58936E3,4.715039E3,3.8743215E3,1.413944E3,3.3010952E3,3.209617E3,6.647048E2],"tree_param":{"num_deleted":"0","num_feature":"104","num_nodes":"7","size_leaf_vector":"0"}},{"base_weights":[9.2519E-2,-3.768724E-2,2.509485E-1,1.6350329E-1,-1.2388573E-1,3.0458757E-1,-8.123538E-3],"categories":[],"categories_nodes":[],"categories_segments":[],"categories_sizes":[],"default_left":[true,true,true,false,false,false,false],"id":123,"left_children":[1,3,5,-1,-1,-1,-1],"loss_changes":[1.7721577E2,8.180731E1,5.3855453E1,0E0,0E0,0E0,0E0],"parents":[2147483647,0,0,1,1,2,2],"right_children":[2,4,6,-1,-1,-1,-1],"split_conditions":[9.5E-1,-2.45E0,5.6499996E0,1.6350328E-3,-1.2388573E-3,3.0458756E-3,-8.123538E-5],"split_indices":[25,77,77,0,0,0,0],"split_type":[0,0,0,0,0,0,0],"sum_hessian":[8.589361E3,4.715039E3,3.8743218E3,1.413944E3,3.3010952E3,3.209617E3,6.6470483E2],"tree_param":{"num_deleted":"0","num_feature":"104","num_nodes":"7","size_leaf_vector":"0"}},{"base_weights":[-9.164229E-2,-2.477361E-1,3.8245928E-2,-1.9041708E-1,-4.9050698E-1,-8.643741E-2,1.7944404E-1],"categories":[],"categories_nodes":[],"categories_segments":[],"categories_sizes":[],"default_left":[true,true,true,false,false,false,false],"id":124,"left_children":[1,3,5,-1,-1,-1,