{"learner":{"attributes":{},"feature_names":[],"feature_types":[],"gradient_booster":{"model":{"gbtree_model_param":{"num_trees":"1000","size_leaf_vector":"0"},"tree_info":[0,1,0,1,0,1,0,1,0,1,0,1,0,1,0,1,0,1,0,1,0,1,0,1,0,1,0,1,0,1,0,1,0,1,0,1,0,1,0,1,0,1,0,1,0,1,0,1,0,1,0,1,0,1,0,1,0,1,0,1,0,1,0,1,0,1,0,1,0,1,0,1,0,1,0,1,0,1,0,1,0,1,0,1,0,1,0,1,0,1,0,1,0,1,0,1,0,1,0,1,0,1,0,1,0,1,0,1,0,1,0,1,0,1,0,1,0,1,0,1,0,1,0,1,0,1,0,1,0,1,0,1,0,1,0,1,0,1,0,1,0,1,0,1,0,1,0,1,0,1,0,1,0,1,0,1,0,1,0,1,0,1,0,1,0,1,0,1,0,1,0,1,0,1,0,1,0,1,0,1,0,1,0,1,0,1,0,1,0,1,0,1,0,1,0,1,0,1,0,1,0,1,0,1,0,1,0,1,0,1,0,1,0,1,0,1,0,1,0,1,0,1,0,1,0,1,0,1,0,1,0,1,0,1,0,1,0,1,0,1,0,1,0,1,0,1,0,1,0,1,0,1,0,1,0,1,0,1,0,1,0,1,0,1,0,1,0,1,0,1,0,1,0,1,0,1,0,1,0,1,0,1,0,1,0,1,0,1,0,1,0,1,0,1,0,1,0,1,0,1,0,1,0,1,0,1,0,1,0,1,0,1,0,1,0,1,0,1,0,1,0,1,0,1,0,1,0,1,0,1,0,1,0,1,0,1,0,1,0,1,0,1,0,1,0,1,0,1,0,1,0,1,0,1,0,1,0,1,0,1,0,1,0,1,0,1,0,1,0,1,0,1,0,1,0,1,0,1,0,1,0,1,0,1,0,1,0,1,0,1,0,1,0,1,0,1,0,1,0,1,0,1,0,1,0,1,0,1,0,1,0,1,0,1,0,1,0,1,0,1,0,1,0,1,0,1,0,1,0,1,0,1,0,1,0,1,0,1,0,1,0,1,0,1,0,1,0,1,0,1,0,1,0,1,0,1,0,1,0,1,0,1,0,1,0,1,0,1,0,1,0,1,0,1,0,1,0,1,0,1,0,1,0,1,0,1,0,1,0,1,0,1,0,1,0,1,0,1,0,1,0,1,0,1,0,1,0,1,0,1,0,1,0,1,0,1,0,1,0,1,0,1,0,1,0,1,0,1,0,1,0,1,0,1,0,1,0,1,0,1,0,1,0,1,0,1,0,1,0,1,0,1,0,1,0,1,0,1,0,1,0,1,0,1,0,1,0,1,0,1,0,1,0,1,0,1,0,1,0,1,0,1,0,1,0,1,0,1,0,1,0,1,0,1,0,1,0,1,0,1,0,1,0,1,0,1,0,1,0,1,0,1,0,1,0,1,0,1,0,1,0,1,0,1,0,1,0,1,0,1,0,1,0,1,0,1,0,1,0,1,0,1,0,1,0,1,0,1,0,1,0,1,0,1,0,1,0,1,0,1,0,1,0,1,0,1,0,1,0,1,0,1,0,1,0,1,0,1,0,1,0,1,0,1,0,1,0,1,0,1,0,1,0,1,0,1,0,1,0,1,0,1,0,1,0,1,0,1,0,1,0,1,0,1,0,1,0,1,0,1,0,1,0,1,0,1,0,1,0,1,0,1,0,1,0,1,0,1,0,1,0,1,0,1,0,1,0,1,0,1,0,1,0,1,0,1,0,1,0,1,0,1,0,1,0,1,0,1,0,1,0,1,0,1,0,1,0,1,0,1,0,1,0,1,0,1,0,1,0,1,0,1,0,1,0,1,0,1,0,1,0,1,0,1,0,1,0,1,0,1,0,1,0,1,0,1,0,1,0,1,0,1,0,1,0,1,0,1,0,1,0,1,0,1,0,1,0,1,0,1,0,1,0,1,0,1,0,1,0,1,0,1,0,1,0,1,0,1,0,1,0,1,0,1,0,1,0,1,0,1,0,1,0,1,0,1,0,1,0,1,0,1,0,1,0,1,0,1,0,1,0,1,0,1,0,1,0,1,0,1,0,1,0,1,0,1,0,1,0,1,0,1,0,1,0,1,0,1,0,1,0,1,0,1,0,1,0,1,0,1,0,1,0,1,0,1,0,1,0,1,0,1,0,1,0,1,0,1,0,1,0,1,0,1,0,1,0,1,0,1,0,1,0,1,0,1,0,1,0,1,0,1,0,1,0,1,0,1,0,1,0,1,0,1,0,1,0,1,0,1,0,1,0,1,0,1,0,1,0,1],"trees":[{"base_weights":[-1.7642364E-1,-3.9556998E-1,3.5418067E-2,-2.0910665E-1,-5.5977315E-1,-2.2071005E-1,1.9155844E-1],"categories":[],"categories_nodes":[],"categories_segments":[],"categories_sizes":[],"default_left":[true,true,true,false,false,false,false],"id":0,"left_children":[1,3,5,-1,-1,-1,-1],"loss_changes":[4.0722507E2,1.318919E2,1.7844633E2,0E0,0E0,0E0,0E0],"parents":[2147483647,0,0,1,1,2,2],"right_children":[2,4,6,-1,-1,-1,-1],"split_conditions":[1.45E1,1.15E1,-1.3499999E0,-2.0910664E-3,-5.5977316E-3,-2.2071004E-3,1.9155843E-3],"split_indices":[51,80,77,0,0,0,0],"split_type":[0,0,0,0,0,0,0],"sum_hessian":[8.7705E3,4.3105E3,4.46E3,2.0195E3,2.291E3,1.689E3,2.771E3],"tree_param":{"num_deleted":"0","num_feature":"104","num_nodes":"7","size_leaf_vector":"0"}},{"base_weights":[1.7642364E-1,3.9556998E-1,-3.5418067E-2,2.0910665E-1,5.5977315E-1,2.2071005E-1,-1.9155844E-1],"categories":[],"categories_nodes":[],"categories_segments":[],"categories_sizes":[],"default_left":[true,true,true,false,false,false,false],"id":1,"left_children":[1,3,5,-1,-1,-1,-1],"loss_changes":[4.0722507E2,1.318919E2,1.7844633E2,0E0,0E0,0E0,0E0],"parents":[2147483647,0,0,1,1,2,2],"right_children":[2,4,6,-1,-1,-1,-1],"split_conditions":[1.45E1,1.15E1,-1.3499999E0,2.0910664E-3,5.5977316E-3,2.2071004E-3,-1.9155843E-3],"split_indices":[51,80,77,0,0,0,0],"split_type":[0,0,0,0,0,0,0],"sum_hessian":[8.7705E3,4.3105E3,4.46E3,2.0195E3,2.291E3,1.689E3,2.771E3],"tree_param":{"num_deleted":"0","num_feature":"104","num_nodes":"7","size_leaf_vector":"0"}},{"base_weights":[-1.746623E-1,-3.086108E-1,1.6603762E-1,-1.2773167E-1,-4.8982596E-1,-6.788658E-2,3.076492E-1],"categories":[],"categories_nodes":[],"categories_segments":[],"categories_sizes":[],"default_left":[true,true,true,false,false,false,false],"id":2,"left_children":[1,3,5,-1,-1,-1,-1],"loss_changes":[4.0034503E2,2.0632141E2,8.204145E1,0E0,0E0,0E0,0E0],"parents":[2147483647,0,0,1,1,2,2],"right_children":[2,4,6,-1,-1,-1,-1],"split_conditions":[2.15E1,1.35E1,-1.3499999E0,-1.2773166E-3,-4.8982594E-3,-6.788658E-4,3.0764919E-3],"split_indices":[51,79,77,0,0,0,0],"split_type":[0,0,0,0,0,0,0],"sum_hessian":[8.7704E3,6.295411E3,2.4749897E3,3.1514797E3,3.1439312E3,9.3349536E2,1.5414943E3],"tree_param":{"num_deleted":"0","num_feature":"104","num_nodes":"7","size_leaf_vector":"0"}},{"base_weights":[1.7466232E-1,3.0861083E-1,-1.6603765E-1,1.2773168E-1,4.8982602E-1,6.7886494E-2,-3.076492E-1],"categories":[],"categories_nodes":[],"categories_segments":[],"categories_sizes":[],"default_left":[true,true,true,false,false,false,false],"id":3,"left_children":[1,3,5,-1,-1,-1,-1],"loss_changes":[4.0034518E2,2.0632147E2,8.2041405E1,0E0,0E0,0E0,0E0],"parents":[2147483647,0,0,1,1,2,2],"right_children":[2,4,6,-1,-1,-1,-1],"split_conditions":[2.15E1,1.35E1,-1.3499999E0,1.2773168E-3,4.8982603E-3,6.7886495E-4,-3.0764919E-3],"split_indices":[51,79,77,0,0,0,0],"split_type":[0,0,0,0,0,0,0],"sum_hessian":[8.770401E3,6.295411E3,2.4749897E3,3.15148E3,3.1439314E3,9.334954E2,1.5414943E3],"tree_param":{"num_deleted":"0","num_feature":"104","num_nodes":"7","size_leaf_vector":"0"}},{"base_weights":[-1.7292105E-1,-3.8858533E-1,3.5545856E-2,-2.0559025E-1,-5.497486E-1,-2.16031E-1,1.889097E-1],"categories":[],"categories_nodes":[],"categories_segments":[],"categories_sizes":[],"default_left":[true,true,true,false,false,false,false],"id":4,"left_children":[1,3,5,-1,-1,-1,-1],"loss_changes":[3.9435486E2,1.2703436E2,1.7215532E2,0E0,0E0,0E0,0E0],"parents":[2147483647,0,0,1,1,2,2],"right_children":[2,4,6,-1,-1,-1,-1],"split_conditions":[1.45E1,1.15E1,-1.3499999E0,-2.0559025E-3,-5.497486E-3,-2.16031E-3,1.8890969E-3],"split_indices":[51,80,77,0,0,0,0],"split_type":[0,0,0,0,0,0,0],"sum_hessian":[8.770152E3,4.310238E3,4.459914E3,2.0194739E3,2.2907642E3,1.6889556E3,2.7709585E3],"tree_param":{"num_deleted":"0","num_feature":"104","num_nodes":"7","size_leaf_vector":"0"}},{"base_weights":[1.7292109E-1,3.885854E-1,-3.554584E-2,2.0559028E-1,5.497487E-1,2.16031E-1,-1.8890968E-1],"categories":[],"categories_nodes":[],"categories_segments":[],"categories_sizes":[],"default_left":[true,true,true,false,false,false,false],"id":5,"left_children":[1,3,5,-1,-1,-1,-1],"loss_changes":[3.9435495E2,1.27034424E2,1.7215532E2,0E0,0E0,0E0,0E0],"parents":[2147483647,0,0,1,1,2,2],"right_children":[2,4,6,-1,-1,-1,-1],"split_conditions":[1.45E1,1.15E1,-1.3499999E0,2.0559027E-3,5.4974873E-3,2.16031E-3,-1.8890968E-3],"split_indices":[51,80,77,0,0,0,0],"split_type":[0,0,0,0,0,0,0],"sum_hessian":[8.770151E3,4.310238E3,4.459914E3,2.0194739E3,2.290764E3,1.6889556E3,2.7709583E3],"tree_param":{"num_deleted":"0","num_feature":"104","num_nodes":"7","size_leaf_vector":"0"}},{"base_weights":[-1.7120142E-1,-3.030051E-1,1.640224E-1,-1.6279717E-1,-5.296841E-1,-6.5051764E-2,3.027002E-1],"categories":[],"categories_nodes":[],"categories_segments":[],"categories_sizes":[],"default_left":[true,true,true,false,false,false,false],"id":6,"left_children":[1,3,5,-1,-1,-1,-1],"loss_changes":[3.8757245E2,2.0000836E2,7.867294E1,0E0,0E0,0E0,0E0],"parents":[2147483647,0,0,1,1,2,2],"right_children":[2,4,6,-1,-1,-1,-1],"split_conditions":[2.15E1,1.65E1,-1.3499999E0,-1.6279717E-3,-5.2968413E-3,-6.5051764E-4,3.0270019E-3],"split_indices":[51,80,77,0,0,0,0],"split_type":[0,0,0,0,0,0,0],"sum_hessian":[8.769711E3,6.294808E3,2.4749033E3,3.890273E3,2.404535E3,9.3347626E2,1.541427E3],"tree_param":{"num_deleted":"0","num_feature":"104","num_nodes":"7","size_leaf_vector":"0"}},{"base_weights":[1.7120145E-1,3.0300513E-1,-1.6402239E-1,1.6279723E-1,5.2968407E-1,6.5051764E-2,-3.0270016E-1],"categories":[],"categories_nodes":[],"categories_segments":[],"categories_sizes":[],"default_left":[true,true,true,false,false,false,false],"id":7,"left_children":[1,3,5,-1,-1,-1,-1],"loss_changes":[3.8757248E2,2.000083E2,7.867293E1,0E0,0E0,0E0,0E0],"parents":[2147483647,0,0,1,1,2,2],"right_children":[2,4,6,-1,-1,-1,-1],"split_conditions":[2.15E1,1.65E1,-1.3499999E0,1.6279722E-3,5.2968403E-3,6.5051764E-4,-3.0270016E-3],"split_indices":[51,80,77,0,0,0,0],"split_type":[0,0,0,0,0,0,0],"sum_hessian":[8.769711E3,6.294808E3,2.474903E3,3.890273E3,2.404535E3,9.3347626E2,1.541427E3],"tree_param":{"num_deleted":"0","num_feature":"104","num_nodes":"7","size_leaf_vector":"0"}},{"base_weights":[-1.6950098E-1,-3.8177794E-1,3.5667248E-2,-2.0191623E-1,-5.4022205E-1,-2.1135941E-1,1.8625133E-1],"categories":[],"categories_nodes":[],"categories_segments":[],"categories_sizes":[],"default_left":[true,true,true,false,false,false,false],"id":8,"left_children":[1,3,5,-1,-1,-1,-1],"loss_changes":[3.819753E2,1.227312E2,1.6596834E2,0E0,0E0,0E0,0E0],"parents":[2147483647,0,0,1,1,2,2],"right_children":[2,4,6,-1,-1,-1,-1],"split_conditions":[1.45E1,1.15E1,-1.3499999E0,-2.0191623E-3,-5.4022204E-3,-2.113594E-3,1.8625133E-3],"split_indices":[51,80,77,0,0,0,0],"split_type":[0,0,0,0,0,0,0],"sum_hessian":[8.769146E3,4.3094844E3,4.459662E3,2.0193942E3,2.2900903E3,1.6888209E3,2.770841E3],"tree_param":{"num_deleted":"0","num_feature":"104","num_nodes":"7","size_leaf_vector":"0"}},{"base_weights":[1.6950096E-1,3.8177794E-1,-3.5667267E-2,2.0191623E-1,5.402221E-1,2.1135941E-1,-1.8625136E-1],"categories":[],"categories_nodes":[],"categories_segments":[],"categories_sizes":[],"default_left":[true,true,true,false,false,false,false],"id":9,"left_children":[1,3,5,-1,-1,-1,-1],"loss_changes":[3.8197534E2,1.227312E2,1.6596835E2,0E0,0E0,0E0,0E0],"parents":[2147483647,0,0,1,1,2,2],"right_children":[2,4,6,-1,-1,-1,-1],"split_conditions":[1.45E1,1.15E1,-1.3499999E0,2.0191623E-3,5.402221E-3,2.113594E-3,-1.8625135E-3],"split_indices":[51,80,77,0,0,0,0],"split_type":[0,0,0,0,0,0,0],"sum_hessian":[8.769146E3,4.3094844E3,4.459662E3,2.0193942E3,2.2900903E3,1.6888209E3,2.770841E3],"tree_param":{"num_deleted":"0","num_feature":"104","num_nodes":"7","size_leaf_vector":"0"}},{"base_weights":[-1.6782165E-1,-2.9752854E-1,1.6203181E-1,-1.5965046E-1,-5.205039E-1,-2.3086729E-2,3.269629E-1],"categories":[],"categories_nodes":[],"categories_segments":[],"categories_sizes":[],"default_left":[true,true,true,false,false,false,false],"id":10,"left_children":[1,3,5,-1,-1,-1,-1],"loss_changes":[3.7523993E2,1.9343604E2,7.559602E1,0E0,0E0,0E0,0E0],"parents":[2147483647,0,0,1,1,2,2],"right_children":[2,4,6,-1,-1,-1,-1],"split_conditions":[2.15E1,1.65E1,-2.5E-1,-1.5965046E-3,-5.2050385E-3,-2.3086728E-4,3.2696289E-3],"split_indices":[51,80,77,0,0,0,0],"split_type":[0,0,0,0,0,0,0],"sum_hessian":[8.768384E3,6.293655E3,2.4747295E3,3.8899797E3,2.403675E3,1.1664108E3,1.3083187E3],"tree_param":{"num_deleted":"0","num_feature":"104","num_nodes":"7","size_leaf_vector":"0"}},{"base_weights":[1.6782159E-1,2.975285E-1,-1.6203192E-1,1.596504E-1,5.205039E-1,2.3086634E-2,-3.26963E-1],"categories":[],"categories_nodes":[],"categories_segments":[],"categories_sizes":[],"default_left":[true,true,true,false,false,false,false],"id":11,"left_children":[1,3,5,-1,-1,-1,-1],"loss_changes":[3.7524005E2,1.934361E2,7.559603E1,0E0,0E0,0E0,0E0],"parents":[2147483647,0,0,1,1,2,2],"right_children":[2,4,6,-1,-1,-1,-1],"split_conditions":[2.15E1,1.65E1,-2.5E-1,1.596504E-3,5.2050385E-3,2.3086632E-4,-3.26963E-3],"split_indices":[51,80,77,0,0,0,0],"split_type":[0,0,0,0,0,0,0],"sum_hessian":[8.768385E3,6.293655E3,2.4747295E3,3.8899797E3,2.403675E3,1.1664108E3,1.3083187E3],"tree_param":{"num_deleted":"0","num_feature":"104","num_nodes":"7","size_leaf_vector":"0"}},{"base_weights":[-1.661603E-1,-3.7513307E-1,3.5774864E-2,-1.9831538E-1,-5.309599E-1,-2.0701388E-1,1.8376629E-1],"categories":[],"categories_nodes":[],"categories_segments":[],"categories_sizes":[],"default_left":[true,true,true,false,false,false,false],"id":12,"left_children":[1,3,5,-1,-1,-1,-1],"loss_changes":[3.7003598E2,1.186275E2,1.6029822E2,0E0,0E0,0E0,0E0],"parents":[2147483647,0,0,1,1,2,2],"right_children":[2,4,6,-1,-1,-1,-1],"split_conditions":[1.45E1,1.15E1,-1.3499999E0,-1.9831539E-3,-5.309599E-3,-2.0701387E-3,1.8376629E-3],"split_indices":[51,80,77,0,0,0,0],"split_type":[0,0,0,0,0,0,0],"sum_hessian":[8.767524E3,4.30826E3,4.459264E3,2.0192626E3,2.2889973E3,1.6886063E3,2.770658E3],"tree_param":{"num_deleted":"0","num_feature":"104","num_nodes":"7","size_leaf_vector":"0"}},{"base_weights":[1.6616029E-1,3.7513307E-1,-3.5774868E-2,1.9831538E-1,5.309599E-1,2.0701389E-1,-1.837663E-1],"categories":[],"categories_nodes":[],"categories_segments":[],"categories_sizes":[],"default_left":[true,true,true,false,false,false,false],"id":13,"left_children":[1,3,5,-1,-1,-1,-1],"loss_changes":[3.7003595E2,1.186275E2,1.6029825E2,0E0,0E0,0E0,0E0],"parents":[2147483647,0,0,1,1,2,2],"right_children":[2,4,6,-1,-1,-1,-1],"split_conditions":[1.45E1,1.15E1,-1.3499999E0,1.9831539E-3,5.309599E-3,2.070139E-3,-1.837663E-3],"split_indices":[51,80,77,0,0,0,0],"split_type":[0,0,0,0,0,0,0],"sum_hessian":[8.767524E3,4.30826E3,4.459264E3,2.0192626E3,2.2889973E3,1.6886063E3,2.770658E3],"tree_param":{"num_deleted":"0","num_feature":"104","num_nodes":"7","size_leaf_vector":"0"}},{"base_weights":[-1.6451973E-1,-2.921767E-1,1.6006488E-1,-1.1968055E-1,-4.651291E-1,-2.1568354E-2,3.2190692E-1],"categories":[],"categories_nodes":[],"categories_segments":[],"categories_sizes":[],"default_left":[true,true,true,false,false,false,false],"id":14,"left_children":[1,3,5,-1,-1,-1,-1],"loss_changes":[3.6333078E2,1.876864E2,7.277619E1,0E0,0E0,0E0,0E0],"parents":[2147483647,0,0,1,1,2,2],"right_children":[2,4,6,-1,-1,-1,-1],"split_conditions":[2.15E1,1.35E1,-2.5E-1,-1.1968055E-3,-4.651291E-3,-2.1568354E-4,3.2190692E-3],"split_indices":[51,79,77,0,0,0,0],"split_type":[0,0,0,0,0,0,0],"sum_hessian":[8.766461E3,6.2919707E3,2.4744902E3,3.1509878E3,3.1409832E3,1.1663629E3,1.3081273E3],"tree_param":{"num_deleted":"0","num_feature":"104","num_nodes":"7","size_leaf_vector":"0"}},{"base_weights":[1.6451974E-1,2.921767E-1,-1.6006486E-1,1.1968055E-1,4.651291E-1,2.156842E-2,-3.2190695E-1],"categories":[],"categories_nodes":[],"categories_segments":[],"categories_sizes":[],"default_left":[true,true,true,false,false,false,false],"id":15,"left_children":[1,3,5,-1,-1,-1,-1],"loss_changes":[3.6333075E2,1.8768646E2,7.277623E1,0E0,0E0,0E0,0E0],"parents":[2147483647,0,0,1,1,2,2],"right_children":[2,4,6,-1,-1,-1,-1],"split_conditions":[2.15E1,1.35E1,-2.5E-1,1.1968055E-3,4.651291E-3,2.156842E-4,-3.2190694E-3],"split_indices":[51,79,77,0,0,0,0],"split_type":[0,0,0,0,0,0,0],"sum_hessian":[8.766461E3,6.2919707E3,2.4744902E3,3.1509875E3,3.1409832E3,1.1663629E3,1.3081274E3],"tree_param":{"num_deleted":"0","num_feature":"104","num_nodes":"7","size_leaf_vector":"0"}},{"base_weights":[-1.6289648E-1,-3.6863714E-1,3.5861637E-2,-1.9500834E-1,-5.217415E-1,-2.0286278E-1,1.8136474E-1],"categories":[],"categories_nodes":[],"categories_segments":[],"categories_sizes":[],"default_left":[true,true,true,false,false,false,false],"id":16,"left_children":[1,3,5,-1,-1,-1,-1],"loss_changes":[3.5849066E2,1.1440802E2,1.5494612E2,0E0,0E0,0E0,0E0],"parents":[2147483647,0,0,1,1,2,2],"right_children":[2,4,6,-1,-1,-1,-1],"split_conditions":[1.45E1,1.15E1,-1.3499999E0,-1.9500833E-3,-5.217415E-3,-2.0286278E-3,1.8136475E-3],"split_indices":[51,80,77,0,0,0,0],"split_type":[0,0,0,0,0,0,0],"sum_hessian":[8.765309E3,4.30658E3,4.458729E3,2.0190919E3,2.2874883E3,1.6883265E3,2.7704023E3],"tree_param":{"num_deleted":"0","num_feature":"104","num_nodes":"7","size_leaf_vector":"0"}},{"base_weights":[1.628965E-1,3.6863714E-1,-3.58616E-2,1.9500834E-1,5.2174145E-1,2.028628E-1,-1.813647E-1],"categories":[],"categories_nodes":[],"categories_segments":[],"categories_sizes":[],"default_left":[true,true,true,false,false,false,false],"id":17,"left_children":[1,3,5,-1,-1,-1,-1],"loss_changes":[3.5849057E2,1.1440802E2,1.5494609E2,0E0,0E0,0E0,0E0],"parents":[2147483647,0,0,1,1,2,2],"right_children":[2,4,6,-1,-1,-1,-1],"split_conditions":[1.45E1,1.15E1,-1.3499999E0,1.9500833E-3,5.2174143E-3,2.028628E-3,-1.813647E-3],"split_indices":[51,80,77,0,0,0,0],"split_type":[0,0,0,0,0,0,0],"sum_hessian":[8.76531E3,4.30658E3,4.458729E3,2.0190919E3,2.2874883E3,1.6883265E3,2.7704023E3],"tree_param":{"num_deleted":"0","num_feature":"104","num_nodes":"7","size_leaf_vector":"0"}},{"base_weights":[-1.612935E-1,-2.8369898E-1,1.6679725E-1,-1.3030307E-1,-4.768944E-1,-4.4920333E-3,3.427695E-1],"categories":[],"categories_nodes":[],"categories_segments":[],"categories_sizes":[],"default_left":[true,true,true,false,false,false,false],"id":18,"left_children":[1,3,5,-1,-1,-1,-1],"loss_changes":[3.52049E2,1.8912366E2,7.180559E1,0E0,0E0,0E0,0E0],"parents":[2147483647,0,0,1,1,2,2],"right_children":[2,4,6,-1,-1,-1,-1],"split_conditions":[2.05E1,1.45E1,5.065E-1,-1.3030306E-3,-4.768944E-3,-4.4920333E-5,3.427695E-3],"split_indices":[28,80,55,0,0,0,0],"split_type":[0,0,0,0,0,0,0],"sum_hessian":[8.763959E3,6.3827803E3,2.3811792E3,3.5587947E3,2.8239854E3,1.207139E3,1.1740402E3],"tree_param":{"num_deleted":"0","num_feature":"104","num_nodes":"7","size_leaf_vector":"0"}},{"base_weights":[1.612935E-1,2.83699E-1,-1.6679727E-1,1.3030307E-1,4.7689447E-1,4.4920165E-3,-3.427695E-1],"categories":[],"categories_nodes":[],"categories_segments":[],"categories_sizes":[],"default_left":[true,true,true,false,false,false,false],"id":19,"left_children":[1,3,5,-1,-1,-1,-1],"loss_changes":[3.5204907E2,1.8912372E2,7.180557E1,0E0,0E0,0E0,0E0],"parents":[2147483647,0,0,1,1,2,2],"right_children":[2,4,6,-1,-1,-1,-1],"split_conditions":[2.05E1,1.45E1,5.065E-1,1.3030306E-3,4.7689443E-3,4.4920165E-5,-3.427695E-3],"split_indices":[28,80,55,0,0,0,0],"split_type":[0,0,0,0,0,0,0],"sum_hessian":[8.763959E3,6.3827803E3,2.3811792E3,3.5587947E3,2.8239854E3,1.207139E3,1.1740402E3],"tree_param":{"num_deleted":"0","num_feature":"104","num_nodes":"7","size_leaf_vector":"0"}},{"base_weights":[-1.5970543E-1,-3.6234227E-1,3.5984993E-2,-1.9180904E-1,-5.1282555E-1,-1.9881009E-1,1.7907843E-1],"categories":[],"categories_nodes":[],"categories_segments":[],"categories_sizes":[],"default_left":[true,true,true,false,false,false,false],"id":20,"left_children":[1,3,5,-1,-1,-1,-1],"loss_changes":[3.475266E2,1.1039081E2,1.4985204E2,0E0,0E0,0E0,0E0],"parents":[2147483647,0,0,1,1,2,2],"right_children":[2,4,6,-1,-1,-1,-1],"split_conditions":[1.45E1,1.15E1,-1.3499999E0,-1.9180904E-3,-5.1282556E-3,-1.9881008E-3,1.7907843E-3],"split_indices":[51,80,77,0,0,0,0],"split_type":[0,0,0,0,0,0,0],"sum_hessian":[8.762626E3,4.304489E3,4.4581367E3,2.0188867E3,2.2856023E3,1.6879962E3,2.7701406E3],"tree_param":{"num_deleted":"0","num_feature":"104","num_nodes":"7","size_leaf_vector":"0"}},{"base_weights":[1.5970543E-1,3.623423E-1,-3.5985004E-2,1.9180915E-1,5.128255E-1,1.9881001E-1,-1.790784E-1],"categories":[],"categories_nodes":[],"categories_segments":[],"categories_sizes":[],"default_left":[true,true,true,false,false,false,false],"id":21,"left_children":[1,3,5,-1,-1,-1,-1],"loss_changes":[3.4752667E2,1.1039075E2,1.4985196E2,0E0,0E0,0E0,0E0],"parents":[2147483647,0,0,1,1,2,2],"right_children":[2,4,6,-1,-1,-1,-1],"split_conditions":[1.45E1,1.15E1,-1.3499999E0,1.9180914E-3,5.1282546E-3,1.9881001E-3,-1.790784E-3],"split_indices":[51,80,77,0,0,0,0],"split_type":[0,0,0,0,0,0,0],"sum_hessian":[8.762626E3,4.304489E3,4.4581367E3,2.0188867E3,2.2856023E3,1.6879963E3,2.7701406E3],"tree_param":{"num_deleted":"0","num_feature":"104","num_nodes":"7","size_leaf_vector":"0"}},{"base_weights":[-1.5813875E-1,-2.8212723E-1,1.5695949E-1,-1.5041378E-1,-4.954607E-1,-1.829358E-2,3.131547E-1],"categories":[],"categories_nodes":[],"categories_segments":[],"categories_sizes":[],"default_left":[true,true,true,false,false,false,false],"id":22,"left_children":[1,3,5,-1,-1,-1,-1],"loss_changes":[3.4236325E2,1.7661594E2,6.7751274E1,0E0,0E0,0E0,0E0],"parents":[2147483647,0,0,1,1,2,2],"right_children":[2,4,6,-1,-1,-1,-1],"split_conditions":[2.15E1,1.65E1,-2.5E-1,-1.5041378E-3,-4.9546068E-3,-1.829358E-4,3.131547E-3],"split_indices":[51,80,77,0,0,0,0],"split_type":[0,0,0,0,0,0,0],"sum_hessian":[8.761007E3,6.2871655E3,2.4738416E3,3.8882434E3,2.3989219E3,1.1662155E3,1.3076261E3],"tree_param":{"num_deleted":"0","num_feature":"104","num_nodes":"7","size_leaf_vector":"0"}},{"base_weights":[1.5813877E-1,2.8212723E-1,-1.5695946E-1,1.5041375E-1,4.954607E-1,1.8293636E-2,-3.131547E-1],"categories":[],"categories_nodes":[],"categories_segments":[],"categories_sizes":[],"default_left":[true,true,true,false,false,false,false],"id":23,"left_children":[1,3,5,-1,-1,-1,-1],"loss_changes":[3.4236316E2,1.7661597E2,6.775128E1,0E0,0E0,0E0,0E0],"parents":[2147483647,0,0,1,1,2,2],"right_children":[2,4,6,-1,-1,-1,-1],"split_conditions":[2.15E1,1.65E1,-2.5E-1,1.5041375E-3,4.9546068E-3,1.8293636E-4,-3.131547E-3],"split_indices":[51,80,77,0,0,0,0],"split_type":[0,0,0,0,0,0,0],"sum_hessian":[8.761007E3,6.2871655E3,2.4738416E3,3.8882437E3,2.398922E3,1.1662155E3,1.307626E3],"tree_param":{"num_deleted":"0","num_feature":"104","num_nodes":"7","size_leaf_vector":"0"}},{"base_weights":[-1.565877E-1,-3.561443E-1,3.6050826E-2,-1.8841338E-1,-5.042795E-1,-1.9474348E-1,1.7668927E-1],"categories":[],"categories_nodes":[],"categories_segments":[],"categories_sizes":[],"default_left":[true,true,true,false,false,false,false],"id":24,"left_children":[1,3,5,-1,-1,-1,-1],"loss_changes":[3.3678085E2,1.06821106E2,1.4474591E2,0E0,0E0,0E0,0E0],"parents":[2147483647,0,0,1,1,2,2],"right_children":[2,4,6,-1,-1,-1,-1],"split_conditions":[1.45E1,1.15E1,-1.3499999E0,-1.8841338E-3,-5.0427946E-3,-1.9474349E-3,1.7668926E-3],"split_indices":[51,80,77,0,0,0,0],"split_type":[0,0,0,0,0,0,0],"sum_hessian":[8.759352E3,4.302004E3,4.4573477E3,2.018623E3,2.2833806E3,1.6875741E3,2.7697734E3],"tree_param":{"num_deleted":"0","num_feature":"104","num_nodes":"7","size_leaf_vector":"0"}},{"base_weights":[1.565877E-1,3.5614434E-1,-3.6050823E-2,1.8841338E-1,5.042795E-1,1.9474353E-1,-1.7668928E-1],"categories":[],"categories_nodes":[],"categories_segments":[],"categories_sizes":[],"default_left":[true,true,true,false,false,false,false],"id":25,"left_children":[1,3,5,-1,-1,-1,-1],"loss_changes":[3.3678088E2,1.06821045E2,1.4474594E2,0E0,0E0,0E0,0E0],"parents":[2147483647,0,0,1,1,2,2],"right_children":[2,4,6,-1,-1,-1,-1],"split_conditions":[1.45E1,1.15E1,-1.3499999E0,1.8841338E-3,5.0427946E-3,1.9474352E-3,-1.7668927E-3],"split_indices":[51,80,77,0,0,0,0],"split_type":[0,0,0,0,0,0,0],"sum_hessian":[8.759352E3,4.302004E3,4.457347E3,2.018623E3,2.2833806E3,1.687574E3,2.7697734E3],"tree_param":{"num_deleted":"0","num_feature":"104","num_nodes":"7","size_leaf_vector":"0"}},{"base_weights":[-1.5505621E-1,-2.7406776E-1,1.6375531E-1,-1.4395785E-1,-4.8827237E-1,-1.9446824E-3,3.340238E-1],"categories":[],"categories_nodes":[],"categories_segments":[],"categories_sizes":[],"default_left":[true,true,true,false,false,false,false],"id":26,"left_children":[1,3,5,-1,-1,-1,-1],"loss_changes":[3.3236133E2,1.7768747E2,6.7188385E1,0E0,0E0,0E0,0E0],"parents":[2147483647,0,0,1,1,2,2],"right_children":[2,4,6,-1,-1,-1,-1],"split_conditions":[2.05E1,1.65E1,5.065E-1,-1.4395785E-3,-4.8827236E-3,-1.9446825E-5,3.340238E-3],"split_indices":[28,80,55,0,0,0,0],"split_type":[0,0,0,0,0,0,0],"sum_hessian":[8.757479E3,6.3770728E3,2.3804053E3,3.9683384E3,2.4087346E3,1.206888E3,1.1735173E3],"tree_param":{"num_deleted":"0","num_feature":"104","num_nodes":"7","size_leaf_vector":"0"}},{"base_weights":[1.550562E-1,2.7406776E-1,-1.637553E-1,1.4395785E-1,4.882723E-1,1.9447439E-3,-3.340238E-1],"categories":[],"categories_nodes":[],"categories_segments":[],"categories_sizes":[],"default_left":[true,true,true,false,false,false,false],"id":27,"left_children":[1,3,5,-1,-1,-1,-1],"loss_changes":[3.3236127E2,1.7768744E2,6.718843E1,0E0,0E0,0E0,0E0],"parents":[2147483647,0,0,1,1,2,2],"right_children":[2,4,6,-1,-1,-1,-1],"split_conditions":[2.05E1,1.65E1,5.065E-1,1.4395785E-3,4.882723E-3,1.9447438E-5,-3.340238E-3],"split_indices":[28,80,55,0,0,0,0],"split_type":[0,0,0,0,0,0,0],"sum_hessian":[8.757479E3,6.3770728E3,2.3804055E3,3.9683384E3,2.4087346E3,1.206888E3,1.1735175E3],"tree_param":{"num_deleted":"0","num_feature":"104","num_nodes":"7","size_leaf_vector":"0"}},{"base_weights":[-1.5353797E-1,-3.636676E-1,2.4254804E-2,-1.51348E-1,-4.7710562E-1,-2.0861118E-1,1.6118433E-1],"categories":[],"categories_nodes":[],"categories_segments":[],"categories_sizes":[],"default_left":[true,true,true,false,false,false,false],"id":28,"left_children":[1,3,5,-1,-1,-1,-1],"loss_changes":[3.2715393E2,9.659155E1,1.5130978E2,0E0,0E0,0E0,0E0],"parents":[2147483647,0,0,1,1,2,2],"right_children":[2,4,6,-1,-1,-1,-1],"split_conditions":[1.35E1,9.5E0,-1.45E0,-1.5134799E-3,-4.771056E-3,-2.0861118E-3,1.6118432E-3],"split_indices":[51,103,77,0,0,0,0],"split_type":[0,0,0,0,0,0,0],"sum_hessian":[8.755672E3,4.0124246E3,4.743247E3,1.3980526E3,2.6143718E3,1.7561567E3,2.9870903E3],"tree_param":{"num_deleted":"0","num_feature":"104","num_nodes":"7","size_leaf_vector":"0"}},{"base_weights":[1.53538E-1,3.636676E-1,-2.4254784E-2,1.51348E-1,4.7710568E-1,2.0861115E-1,-1.6118428E-1],"categories":[],"categories_nodes":[],"categories_segments":[],"categories_sizes":[],"default_left":[true,true,true,false,false,false,false],"id":29,"left_children":[1,3,5,-1,-1,-1,-1],"loss_changes":[3.2715393E2,9.659161E1,1.5130971E2,0E0,0E0,0E0,0E0],"parents":[2147483647,0,0,1,1,2,2],"right_children":[2,4,6,-1,-1,-1,-1],"split_conditions":[1.35E1,9.5E0,-1.45E0,1.5134799E-3,4.7710566E-3,2.0861113E-3,-1.6118428E-3],"split_indices":[51,103,77,0,0,0,0],"split_type":[0,0,0,0,0,0,0],"sum_hessian":[8.755672E3,4.0124246E3,4.743247E3,1.3980526E3,2.6143718E3,1.7561567E3,2.9870903E3],"tree_param":{"num_deleted":"0","num_feature":"104","num_nodes":"7","size_leaf_vector":"0"}},{"base_weights":[-1.5203834E-1,-2.7255598E-1,1.5403499E-1,-4.433379E-2,-3.887904E-1,-1.5093811E-2,3.0482256E-1],"categories":[],"categories_nodes":[],"categories_segments":[],"categories_sizes":[],"default_left":[true,true,true,false,false,false,false],"id":30,"left_children":[1,3,5,-1,-1,-1,-1],"loss_changes":[3.229781E2,1.6661993E2,6.3096657E1,0E0,0E0,0E0,0E0],"parents":[2147483647,0,0,1,1,2,2],"right_children":[2,4,6,-1,-1,-1,-1],"split_conditions":[2.15E1,9.5E0,-2.5E-1,-4.433379E-4,-3.8879039E-3,-1.5093811E-4,3.0482255E-3],"split_indices":[51,103,77,0,0,0,0],"split_type":[0,0,0,0,0,0,0],"sum_hessian":[8.753684E3,6.28073E3,2.472954E3,2.1198535E3,4.1608765E3,1.1660123E3,1.3069417E3],"tree_param":{"num_deleted":"0","num_feature":"104","num_nodes":"7","size_leaf_vector":"0"}},{"base_weights":[1.5203832E-1,2.7255598E-1,-1.54035E-1,4.4333786E-2,3.887904E-1,1.5093762E-2,-3.0482256E-1],"categories":[],"categories_nodes":[],"categories_segments":[],"categories_sizes":[],"default_left":[true,true,true,false,false,false,false],"id":31,"left_children":[1,3,5,-1,-1,-1,-1],"loss_changes":[3.229781E2,1.6661993E2,6.3096645E1,0E0,0E0,0E0,0E0],"parents":[2147483647,0,0,1,1,2,2],"right_children":[2,4,6,-1,-1,-1,-1],"split_conditions":[2.15E1,9.5E0,-2.5E-1,4.4333783E-4,3.8879039E-3,1.5093762E-4,-3.0482255E-3],"split_indices":[51,103,77,0,0,0,0],"split_type":[0,0,0,0,0,0,0],"sum_hessian":[8.753684E3,6.28073E3,2.472954E3,2.1198535E3,4.1608765E3,1.1660123E3,1.3069417E3],"tree_param":{"num_deleted":"0","num_feature":"104","num_nodes":"7","size_leaf_vector":"0"}},{"base_weights":[-1.5055318E-1,-2.6696503E-1,1.6114089E-1,-1.3947736E-1,-4.7710887E-1,-4.5937728E-4,3.2724756E-1],"categories":[],"categories_nodes":[],"categories_segments":[],"categories_sizes":[],"default_left":[true,true,true,false,false,false,false],"id":32,"left_children":[1,3,5,-1,-1,-1,-1],"loss_changes":[3.176324E2,1.706706E2,6.390431E1,0E0,0E0,0E0,0E0],"parents":[2147483647,0,0,1,1,2,2],"right_children":[2,4,6,-1,-1,-1,-1],"split_conditions":[2.05E1,1.65E1,5.065E-1,-1.3947735E-3,-4.7710887E-3,-4.5937727E-6,3.2724754E-3],"split_indices":[28,80,55,0,0,0,0],"split_type":[0,0,0,0,0,0,0],"sum_hessian":[8.751663E3,6.3719893E3,2.3796743E3,3.966999E3,2.4049902E3,1.2067045E3,1.1729697E3],"tree_param":{"num_deleted":"0","num_feature":"104","num_nodes":"7","size_leaf_vector":"0"}},{"base_weights":[1.5055318E-1,2.6696506E-1,-1.6114092E-1,1.3947734E-1,4.7710893E-1,4.5940196E-4,-3.2724765E-1],"categories":[],"categories_nodes":[],"categories_segments":[],"categories_sizes":[],"default_left":[true,true,true,false,false,false,false],"id":33,"left_children":[1,3,5,-1,-1,-1,-1],"loss_changes":[3.1763248E2,1.7067068E2,6.3904354E1,0E0,0E0,0E0,0E0],"parents":[2147483647,0,0,1,1,2,2],"right_children":[2,4,6,-1,-1,-1,-1],"split_conditions":[2.05E1,1.65E1,5.065E-1,1.3947734E-3,4.771089E-3,4.5940196E-6,-3.2724764E-3],"split_indices":[28,80,55,0,0,0,0],"split_type":[0,0,0,0,0,0,0],"sum_hessian":[8.751663E3,6.3719893E3,2.3796743E3,3.966999E3,2.4049902E3,1.2067045E3,1.1729697E3],"tree_param":{"num_deleted":"0","num_feature":"104","num_nodes":"7","size_leaf_vector":"0"}},{"base_weights":[-1.4908475E-1,-3.5511318E-1,2.5113264E-2,-1.4803001E-1,-4.6590734E-1,-2.0259415E-1,1.5896791E-1],"categories":[],"categories_nodes":[],"categories_segments":[],"categories_sizes":[],"default_left":[true,true,true,false,false,false,false],"id":34,"left_children":[1,3,5,-1,-1,-1,-1],"loss_changes":[3.1406317E2,9.191327E1,1.4458127E2,0E0,0E0,0E0,0E0],"parents":[2147483647,0,0,1,1,2,2],"right_children":[2,4,6,-1,-1,-1,-1],"split_conditions":[1.35E1,9.5E0,-1.45E0,-1.4803001E-3,-4.6590734E-3,-2.0259414E-3,1.589679E-3],"split_indices":[51,103,77,0,0,0,0],"split_type":[0,0,0,0,0,0,0],"sum_hessian":[8.749528E3,4.0080576E3,4.7414707E3,1.3977976E3,2.61026E3,1.7551598E3,2.986311E3],"tree_param":{"num_deleted":"0","num_feature":"104","num_nodes":"7","size_leaf_vector":"0"}},{"base_weights":[1.4908475E-1,3.5511318E-1,-2.5113259E-2,1.4803013E-1,4.6590728E-1,2.0259412E-1,-1.5896788E-1],"categories":[],"categories_nodes":[],"categories_segments":[],"categories_sizes":[],"default_left":[true,true,true,false,false,false,false],"id":35,"left_children":[1,3,5,-1,-1,-1,-1],"loss_changes":[3.1406317E2,9.191315E1,1.4458122E2,0E0,0E0,0E0,0E0],"parents":[2147483647,0,0,1,1,2,2],"right_children":[2,4,6,-1,-1,-1,-1],"split_conditions":[1.35E1,9.5E0,-1.45E0,1.4803013E-3,4.6590725E-3,2.0259412E-3,-1.5896788E-3],"split_indices":[51,103,77,0,0,0,0],"split_type":[0,0,0,0,0,0,0],"sum_hessian":[8.749528E3,4.0080576E3,4.741471E3,1.3977976E3,2.61026E3,1.7551598E3,2.9863113E3],"tree_param":{"num_deleted":"0","num_feature":"104","num_nodes":"7","size_leaf_vector":"0"}},{"base_weights":[-1.4763401E-1,1.2448792E-1,-2.7724764E-1,-9.739391E-2,2.416993E-1,-1.5216076E-1,-4.8069876E-1],"categories":[],"categories_nodes":[],"categories_segments":[],"categories_sizes":[],"default_left":[true,true,true,false,false,false,false],"id":36,"left_children":[1,3,5,-1,-1,-1,-1],"loss_changes":[3.0859064E2,7.344584E1,1.5073956E2,0E0,0E0,0E0,0E0],"parents":[2147483647,0,0,1,1,2,2],"right_children":[2,4,6,-1,-1,-1,-1],"split_conditions":[-2.05E0,-1.95E0,1.65E1,-9.739391E-4,2.4169928E-3,-1.5216076E-3,-4.8069875E-3],"split_indices":[25,77,80,0,0,0,0],"split_type":[0,0,0,0,0,0,0],"sum_hessian":[8.747225E3,2.8221665E3,5.925058E3,9.7557196E2,1.8465945E3,3.6702458E3,2.254812E3],"tree_param":{"num_deleted":"0","num_feature":"104","num_nodes":"7","size_leaf_vector":"0"}},{"base_weights":[1.4763401E-1,-1.2448796E-1,2.7724767E-1,9.73939E-2,-2.4169935E-1,1.5216078E-1,4.8069876E-1],"categories":[],"categories_nodes":[],"categories_segments":[],"categories_sizes":[],"default_left":[true,true,true,false,false,false,false],"id":37,"left_children":[1,3,5,-1,-1,-1,-1],"loss_changes":[3.085907E2,7.344586E1,1.5073947E2,0E0,0E0,0E0,0E0],"parents":[2147483647,0,0,1,1,2,2],"right_children":[2,4,6,-1,-1,-1,-1],"split_conditions":[-2.05E0,-1.95E0,1.65E1,9.7393896E-4,-2.4169935E-3,1.5216077E-3,4.8069875E-3],"split_indices":[25,77,80,0,0,0,0],"split_type":[0,0,0,0,0,0,0],"sum_hessian":[8.747225E3,2.8221665E3,5.925058E3,9.7557196E2,1.8465945E3,3.6702458E3,2.254812E3],"tree_param":{"num_deleted":"0","num_feature":"104","num_nodes":"7","size_leaf_vector":"0"}},{"base_weights":[-1.4619893E-1,3.4925684E-2,-3.384227E-1,-1.2345103E-1,2.18454E-1,-4.3667296E-1,-1.0263878E-1],"categories":[],"categories_nodes":[],"categories_segments":[],"categories_sizes":[],"default_left":[true,true,true,false,false,false,false],"id":38,"left_children":[1,3,5,-1,-1,-1,-1],"loss_changes":[3.0451013E2,1.3093762E2,9.824783E1,0E0,0E0,0E0,0E0],"parents":[2147483647,0,0,1,1,2,2],"right_children":[2,4,6,-1,-1,-1,-1],"split_conditions":[5.5E-1,6.5E-1,3.65E0,-1.2345103E-3,2.18454E-3,-4.3667294E-3,-1.0263878E-3],"split_indices":[25,77,77,0,0,0,0],"split_type":[0,0,0,0,0,0,0],"sum_hessian":[8.744817E3,4.5028154E3,4.2420015E3,2.417204E3,2.0856116E3,2.9936902E3,1.2483113E3],"tree_param":{"num_deleted":"0","num_feature":"104","num_nodes":"7","size_leaf_vector":"0"}},{"base_weights":[1.4619896E-1,-3.492566E-2,3.3842272E-1,1.2345106E-1,-2.1845399E-1,4.3667296E-1,1.0263881E-1],"categories":[],"categories_nodes":[],"categories_segments":[],"categories_sizes":[],"default_left":[true,true,true,false,false,false,false],"id":39,"left_children":[1,3,5,-1,-1,-1,-1],"loss_changes":[3.0451013E2,1.3093764E2,9.824783E1,0E0,0E0,0E0,0E0],"parents":[2147483647,0,0,1,1,2,2],"right_children":[2,4,6,-1,-1,-1,-1],"split_conditions":[5.5E-1,6.5E-1,3.65E0,1.2345106E-3,-2.1845398E-3,4.3667294E-3,1.0263881E-3],"split_indices":[25,77,77,0,0,0,0],"split_type":[0,0,0,0,0,0,0],"sum_hessian":[8.744817E3,4.5028154E3,4.2420015E3,2.417204E3,2.0856116E3,2.9936902E3,1.2483114E3],"tree_param":{"num_deleted":"0","num_feature":"104","num_nodes":"7","size_leaf_vector":"0"}},{"base_weights":[-1.4477794E-1,-2.580616E-1,1.5828697E-1,-1.1650323E-1,-4.3713364E-1,1.9011929E-3,3.1910452E-1],"categories":[],"categories_nodes":[],"categories_segments":[],"categories_sizes":[],"default_left":[true,true,true,false,false,false,false],"id":40,"left_children":[1,3,5,-1,-1,-1,-1],"loss_changes":[3.002218E2,1.6129135E2,5.9845264E1,0E0,0E0,0E0,0E0],"parents":[2147483647,0,0,1,1,2,2],"right_children":[2,4,6,-1,-1,-1,-1],"split_conditions":[2.05E1,1.45E1,5.065E-1,-1.1650323E-3,-4.371336E-3,1.9011928E-5,3.1910453E-3],"split_indices":[28,80,55,0,0,0,0],"split_type":[0,0,0,0,0,0,0],"sum_hessian":[8.742398E3,6.363801E3,2.3785977E3,3.5551045E3,2.8086965E3,1.206428E3,1.1721697E3],"tree_param":{"num_deleted":"0","num_feature":"104","num_nodes":"7","size_leaf_vector":"0"}},{"base_weights":[1.4477795E-1,2.580616E-1,-1.5828694E-1,1.1650324E-1,4.3713367E-1,-1.9011988E-3,-3.1910446E-1],"categories":[],"categories_nodes":[],"categories_segments":[],"categories_sizes":[],"default_left":[true,true,true,false,false,false,false],"id":41,"left_children":[1,3,5,-1,-1,-1,-1],"loss_changes":[3.0022174E2,1.6129138E2,5.9845245E1,0E0,0E0,0E0,0E0],"parents":[2147483647,0,0,1,1,2,2],"right_children":[2,4,6,-1,-1,-1,-1],"split_conditions":[2.05E1,1.45E1,5.065E-1,1.1650324E-3,4.3713367E-3,-1.9011986E-5,-3.1910446E-3],"split_indices":[28,80,55,0,0,0,0],"split_type":[0,0,0,0,0,0,0],"sum_hessian":[8.742398E3,6.363801E3,2.3785977E3,3.5551045E3,2.8086965E3,1.206428E3,1.1721697E3],"tree_param":{"num_deleted":"0","num_feature":"104","num_nodes":"7","size_leaf_vector":"0"}},{"base_weights":[-1.4337245E-1,-3.4359267E-1,2.5705101E-2,-1.4232439E-1,-4.5150816E-1,-1.951517E-1,1.554762E-1],"categories":[],"categories_nodes":[],"categories_segments":[],"categories_sizes":[],"default_left":[true,true,true,false,false,false,false],"id":42,"left_children":[1,3,5,-1,-1,-1,-1],"loss_changes":[2.9591107E2,8.685785E1,1.3588033E2,0E0,0E0,0E0,0E0],"parents":[2147483647,0,0,1,1,2,2],"right_children":[2,4,6,-1,-1,-1,-1],"split_conditions":[1.35E1,9.5E0,-1.45E0,-1.4232439E-3,-4.5150816E-3,-1.951517E-3,1.5547619E-3],"split_indices":[51,103,77,0,0,0,0],"split_type":[0,0,0,0,0,0,0],"sum_hessian":[8.739863E3,4.0009453E3,4.7389185E3,1.397273E3,2.6036724E3,1.7537374E3,2.985181E3],"tree_param":{"num_deleted":"0","num_feature":"104","num_nodes":"7","size_leaf_vector":"0"}},{"base_weights":[1.4337245E-1,3.435927E-1,-2.5705118E-2,1.4232437E-1,4.5150822E-1,1.9515167E-1,-1.5547621E-1],"categories":[],"categories_nodes":[],"categories_segments":[],"categories_sizes":[],"default_left":[true,true,true,false,false,false,false],"id":43,"left_children":[1,3,5,-1,-1,-1,-1],"loss_changes":[2.9591113E2,8.685791E1,1.3588033E2,0E0,0E0,0E0,0E0],"parents":[2147483647,0,0,1,1,2,2],"right_children":[2,4,6,-1,-1,-1,-1],"split_conditions":[1.35E1,9.5E0,-1.45E0,1.4232437E-3,4.515082E-3,1.9515167E-3,-1.5547621E-3],"split_indices":[51,103,77,0,0,0,0],"split_type":[0,0,0,0,0,0,0],"sum_hessian":[8.739863E3,4.000945E3,4.7389185E3,1.397273E3,2.603672E3,1.7537374E3,2.985181E3],"tree_param":{"num_deleted":"0","num_feature":"104","num_nodes":"7","size_leaf_vector":"0"}},{"base_weights":[-1.4198376E-1,-2.5673985E-1,1.4902161E-1,-9.229323E-2,-4.0410125E-1,3.2368212E-3,3.0479106E-1],"categories":[],"categories_nodes":[],"categories_segments":[],"categories_sizes":[],"default_left":[true,true,true,false,false,false,false],"id":44,"left_children":[1,3,5,-1,-1,-1,-1],"loss_changes":[2.9184625E2,1.5183713E2,5.6133667E1,0E0,0E0,0E0,0E0],"parents":[2147483647,0,0,1,1,2,2],"right_children":[2,4,6,-1,-1,-1,-1],"split_conditions":[2.15E1,1.25E1,3.5000002E-1,-9.229323E-4,-4.0410124E-3,3.236821E-5,3.0479105E-3],"split_indices":[51,79,77,0,0,0,0],"split_type":[0,0,0,0,0,0,0],"sum_hessian":[8.737169E3,6.2662363E3,2.4709321E3,2.9622107E3,3.304026E3,1.2769005E3,1.1940315E3],"tree_param":{"num_deleted":"0","num_feature":"104","num_nodes":"7","size_leaf_vector":"0"}},{"base_weights":[1.4198379E-1,2.5673988E-1,-1.4902161E-1,9.229326E-2,4.0410128E-1,-3.2368244E-3,-3.0479106E-1],"categories":[],"categories_nodes":[],"categories_segments":[],"categories_sizes":[],"default_left":[true,true,true,false,false,false,false],"id":45,"left_children":[1,3,5,-1,-1,-1,-1],"loss_changes":[2.9184628E2,1.5183719E2,5.6133667E1,0E0,0E0,0E0,0E0],"parents":[2147483647,0,0,1,1,2,2],"right_children":[2,4,6,-1,-1,-1,-1],"split_conditions":[2.15E1,1.25E1,3.5000002E-1,9.229326E-4,4.041013E-3,-3.2368243E-5,-3.0479105E-3],"split_indices":[51,79,77,0,0,0,0],"split_type":[0,0,0,0,0,0,0],"sum_hessian":[8.737169E3,6.2662363E3,2.4709321E3,2.9622107E3,3.304026E3,1.2769005E3,1.1940315E3],"tree_param":{"num_deleted":"0","num_feature":"104","num_nodes":"7","size_leaf_vector":"0"}},{"base_weights":[-1.4060889E-1,-3.3796424E-1,2.5932597E-2,-1.3989116E-1,-4.4430074E-1,-1.9143228E-1,1.5362054E-1],"categories":[],"categories_nodes":[],"categories_segments":[],"categories_sizes":[],"default_left":[true,true,true,false,false,false,false],"id":46,"left_children":[1,3,5,-1,-1,-1,-1],"loss_changes":[2.8712317E2,8.414389E1,1.3154544E2,0E0,0E0,0E0,0E0],"parents":[2147483647,0,0,1,1,2,2],"right_children":[2,4,6,-1,-1,-1,-1],"split_conditions":[1.35E1,9.5E0,-1.45E0,-1.3989116E-3,-4.4430075E-3,-1.9143227E-3,1.5362054E-3],"split_indices":[51,103,77,0,0,0,0],"split_type":[0,0,0,0,0,0,0],"sum_hessian":[8.734417E3,3.9969333E3,4.737484E3,1.3970195E3,2.5999138E3,1.752937E3,2.984547E3],"tree_param":{"num_deleted":"0","num_feature":"104","num_nodes":"7","size_leaf_vector":"0"}},{"base_weights":[1.4060889E-1,3.3796424E-1,-2.5932608E-2,1.3989119E-1,4.4430074E-1,1.9143221E-1,-1.5362053E-1],"categories":[],"categories_nodes":[],"categories_segments":[],"categories_sizes":[],"default_left":[true,true,true,false,false,false,false],"id":47,"left_children":[1,3,5,-1,-1,-1,-1],"loss_changes":[2.8712323E2,8.414389E1,1.3154536E2,0E0,0E0,0E0,0E0],"parents":[2147483647,0,0,1,1,2,2],"right_children":[2,4,6,-1,-1,-1,-1],"split_conditions":[1.35E1,9.5E0,-1.45E0,1.3989119E-3,4.4430075E-3,1.914322E-3,-1.5362052E-3],"split_indices":[51,103,77,0,0,0,0],"split_type":[0,0,0,0,0,0,0],"sum_hessian":[8.734418E3,3.9969333E3,4.737484E3,1.3970197E3,2.5999138E3,1.752937E3,2.984547E3],"tree_param":{"num_deleted":"0","num_feature":"104","num_nodes":"7","size_leaf_vector":"0"}},{"base_weights":[-1.3924998E-1,-2.4954553E-1,1.5553966E-1,-1.2883201E-1,-4.4934687E-1,4.2267693E-3,3.1122118E-1],"categories":[],"categories_nodes":[],"categories_segments":[],"categories_sizes":[],"default_left":[true,true,true,false,false,false,false],"id":48,"left_children":[1,3,5,-1,-1,-1,-1],"loss_changes":[2.8396844E2,1.5322263E2,5.6023148E1,0E0,0E0,0E0,0E0],"parents":[2147483647,0,0,1,1,2,2],"right_children":[2,4,6,-1,-1,-1,-1],"split_conditions":[2.05E1,1.65E1,5.065E-1,-1.28832E-3,-4.4934684E-3,4.2267693E-5,3.1122118E-3],"split_indices":[28,80,55,0,0,0,0],"split_type":[0,0,0,0,0,0,0],"sum_hessian":[8.731538E3,6.3542495E3,2.377289E3,3.9621133E3,2.3921362E3,1.2060803E3,1.1712089E3],"tree_param":{"num_deleted":"0","num_feature":"104","num_nodes":"7","size_leaf_vector":"0"}},{"base_weights":[1.3925E-1,2.4954557E-1,-1.5553972E-1,1.2883206E-1,4.493469E-1,-4.226838E-3,-3.1122127E-1],"categories":[],"categories_nodes":[],"categories_segments":[],"categories_sizes":[],"default_left":[true,true,true,false,false,false,false],"id":49,"left_children":[1,3,5,-1,-1,-1,-1],"loss_changes":[2.839686E2,1.532226E2,5.6023148E1,0E0,0E0,0E0,0E0],"parents":[2147483647,0,0,1,1,2,2],"right_children":[2,4,6,-1,-1,-1,-1],"split_conditions":[2.05E1,1.65E1,5.065E-1,1.2883205E-3,4.493469E-3,-4.2268377E-5,-3.1122128E-3],"split_indices":[28,80,55,0,0,0,0],"split_type":[0,0,0,0,0,0,0],"sum_hessian":[8.731538E3,6.3542495E3,2.377289E3,3.9621133E3,2.3921362E3,1.2060803E3,1.1712087E3],"tree_param":{"num_deleted":"0","num_feature":"104","num_nodes":"7","size_leaf_vector":"0"}},{"base_weights":[-1.3790354E-1,2.7384812E-2,-3.3129042E-1,-1.8575592E-1,1.5196307E-1,-4.2711678E-1,-1.0300184E-1],"categories":[],"categories_nodes":[],"categories_segments":[],"categories_sizes":[],"default_left":[true,true,true,false,false,false,false],"id":50,"left_children":[1,3,5,-1,-1,-1,-1],"loss_changes":[2.7904953E2,1.2503037E2,8.796283E1,0E0,0E0,0E0,0E0],"parents":[2147483647,0,0,1,1,2,2],"right_children":[2,4,6,-1,-1,-1,-1],"split_conditions":[8.5E-1,-1.45E0,3.65E0,-1.8575592E-3,1.5196307E-3,-4.271168E-3,-1.0300184E-3],"split_indices":[25,77,77,0,0,0,0],"split_type":[0,0,0,0,0,0,0],"sum_hessian":[8.728672E3,4.7066997E3,4.0219724E3,1.7360328E3,2.970667E3,2.8322407E3,1.1897316E3],"tree_param":{"num_deleted":"0","num_feature":"104","num_nodes":"7","size_leaf_vector":"0"}},{"base_weights":[1.3790359E-1,-2.7384805E-2,3.3129048E-1,1.8575594E-1,-1.5196307E-1,4.2711684E-1,1.0300192E-1],"categories":[],"categories_nodes":[],"categories_segments":[],"categories_sizes":[],"default_left":[true,true,true,false,false,false,false],"id":51,"left_children":[1,3,5,-1,-1,-1,-1],"loss_changes":[2.7904962E2,1.2503037E2,8.79628E1,0E0,0E0,0E0,0E0],"parents":[2147483647,0,0,1,1,2,2],"right_children":[2,4,6,-1,-1,-1,-1],"split_conditions":[8.5E-1,-1.45E0,3.65E0,1.8575593E-3,-1.5196307E-3,4.2711683E-3,1.0300193E-3],"split_indices":[25,77,77,0,0,0,0],"split_type":[0,0,0,0,0,0,0],"sum_hessian":[8.728672E3,4.7066997E3,4.0219722E3,1.7360328E3,2.9706667E3,2.8322407E3,1.1897316E3],"tree_param":{"num_deleted":"0","num_feature":"104","num_nodes":"7","size_leaf_vector":"0"}},{"base_weights":[-1.3657266E-1,-2.482393E-1,1.4630526E-1,-3.617745E-2,-3.567696E-1,2.1453829E-1,-1.6735744E-1],"categories":[],"categories_nodes":[],"categories_segments":[],"categories_sizes":[],"default_left":[true,true,true,false,false,false,false],"id":52,"left_children":[1,3,5,-1,-1,-1,-1],"loss_changes":[2.7569482E2,1.4399652E2,5.291017E1,0E0,0E0,0E0,0E0],"parents":[2147483647,0,0,1,1,2,2],"right_children":[2,4,6,-1,-1,-1,-1],"split_conditions":[2.15E1,9.5E0,2.45E1,-3.617745E-4,-3.5676959E-3,2.1453828E-3,-1.6735744E-3],"split_indices":[51,103,81,0,0,0,0],"split_type":[0,0,0,0,0,0,0],"sum_hessian":[8.725676E3,6.2561646E3,2.4695115E3,2.1183555E3,4.137809E3,2.0285452E3,4.4096622E2],"tree_param":{"num_deleted":"0","num_feature":"104","num_nodes":"7","size_leaf_vector":"0"}},{"base_weights":[1.3657263E-1,2.482393E-1,-1.4630534E-1,3.617744E-2,3.567696E-1,-2.1453835E-1,1.6735736E-1],"categories":[],"categories_nodes":[],"categories_segments":[],"categories_sizes":[],"default_left":[true,true,true,false,false,false,false],"id":53,"left_children":[1,3,5,-1,-1,-1,-1],"loss_changes":[2.756949E2,1.4399655E2,5.2910175E1,0E0,0E0,0E0,0E0],"parents":[2147483647,0,0,1,1,2,2],"right_children":[2,4,6,-1,-1,-1,-1],"split_conditions":[2.15E1,9.5E0,2.45E1,3.617744E-4,3.5676959E-3,-2.1453835E-3,1.6735735E-3],"split_indices":[51,103,81,0,0,0,0],"split_type":[0,0,0,0,0,0,0],"sum_hessian":[8.725676E3,6.2561646E3,2.4695115E3,2.1183555E3,4.137809E3,2.0285452E3,4.4096622E2],"tree_param":{"num_deleted":"0","num_feature":"104","num_nodes":"7","size_leaf_vector":"0"}},{"base_weights":[-1.35253E-1,-2.425681E-1,1.5477677E-1,-6.639314E-2,-3.7457865E-1,2.17764E-1,-1.9993933E-1],"categories":[],"categories_nodes":[],"categories_segments":[],"categories_sizes":[],"default_left":[true,true,true,false,false,false,false],"id":54,"left_children":[1,3,5,-1,-1,-1,-1],"loss_changes":[2.7156085E2,1.4807617E2,5.2698944E1,0E0,0E0,0E0,0E0],"parents":[2147483647,0,0,1,1,2,2],"right_children":[2,4,6,-1,-1,-1,-1],"split_conditions":[2.15E1,1.05E1,2.55E1,-6.6393137E-4,-3.7457864E-3,2.17764E-3,-1.999393E-3],"split_indices":[29,80,103,0,0,0,0],"split_type":[0,0,0,0,0,0,0],"sum_hessian":[8.722759E3,6.3670312E3,2.355728E3,2.7279468E3,3.6390845E3,2.0008258E3,3.5490225E2],"tree_param":{"num_deleted":"0","num_feature":"104","num_nodes":"7","size_leaf_vector":"0"}},{"base_weights":[1.35253E-1,2.4256814E-1,-1.547768E-1,6.639319E-2,3.7457865E-1,-2.1776405E-1,1.9993933E-1],"categories":[],"categories_nodes":[],"categories_segments":[],"categories_sizes":[],"default_left":[true,true,true,false,false,false,false],"id":55,"left_children":[1,3,5,-1,-1,-1,-1],"loss_changes":[2.7156097E2,1.4807611E2,5.269895E1,0E0,0E0,0E0,0E0],"parents":[2147483647,0,0,1,1,2,2],"right_children":[2,4,6,-1,-1,-1,-1],"split_conditions":[2.15E1,1.05E1,2.55E1,6.639319E-4,3.7457864E-3,-2.1776406E-3,1.999393E-3],"split_indices":[29,80,103,0,0,0,0],"split_type":[0,0,0,0,0,0,0],"sum_hessian":[8.722759E3,6.3670312E3,2.355728E3,2.7279468E3,3.6390845E3,2.0008258E3,3.5490225E2],"tree_param":{"num_deleted":"0","num_feature":"104","num_nodes":"7","size_leaf_vector":"0"}},{"base_weights":[-1.339468E-1,-3.250175E-1,2.6995888E-2,-1.3456091E-1,-4.276144E-1,-1.722136E-1,1.5676762E-1],"categories":[],"categories_nodes":[],"categories_segments":[],"categories_sizes":[],"default_left":[true,true,true,false,false,false,false],"id":56,"left_children":[1,3,5,-1,-1,-1,-1],"loss_changes":[2.68186E2,7.785498E1,1.2242275E2,0E0,0E0,0E0,0E0],"parents":[2147483647,0,0,1,1,2,2],"right_children":[2,4,6,-1,-1,-1,-1],"split_conditions":[1.35E1,9.5E0,4.615E-1,-1.3456091E-3,-4.276144E-3,-1.7221359E-3,1.5676762E-3],"split_indices":[51,103,55,0,0,0,0],"split_type":[0,0,0,0,0,0,0],"sum_hessian":[8.719806E3,3.9862827E3,4.7335225E3,1.3963915E3,2.5898914E3,1.8670823E3,2.8664402E3],"tree_param":{"num_deleted":"0","num_feature":"104","num_nodes":"7","size_leaf_vector":"0"}},{"base_weights":[1.3394684E-1,3.2501757E-1,-2.69959E-2,1.34561E-1,4.2761445E-1,1.7221358E-1,-1.5676764E-1],"categories":[],"categories_nodes":[],"categories_segments":[],"categories_sizes":[],"default_left":[true,true,true,false,false,false,false],"id":57,"left_children":[1,3,5,-1,-1,-1,-1],"loss_changes":[2.6818616E2,7.785495E1,1.2242275E2,0E0,0E0,0E0,0E0],"parents":[2147483647,0,0,1,1,2,2],"right_children":[2,4,6,-1,-1,-1,-1],"split_conditions":[1.35E1,9.5E0,4.615E-1,1.34561E-3,4.2761443E-3,1.7221358E-3,-1.5676763E-3],"split_indices":[51,103,55,0,0,0,0],"split_type":[0,0,0,0,0,0,0],"sum_hessian":[8.719806E3,3.986283E3,4.7335225E3,1.3963915E3,2.5898914E3,1.8670823E3,2.8664402E3],"tree_param":{"num_deleted":"0","num_feature":"104","num_nodes":"7","size_leaf_vector":"0"}},{"base_weights":[-1.326576E-1,-2.3914832E-1,1.5157054E-1,-1.22135565E-1,-4.3340805E-1,5.450111E-3,3.0202672E-1],"categories":[],"categories_nodes":[],"categories_segments":[],"categories_sizes":[],"default_left":[true,true,true,false,false,false,false],"id":58,"left_children":[1,3,5,-1,-1,-1,-1],"loss_changes":[2.6389722E2,1.4410599E2,5.2247177E1,0E0,0E0,0E0,0E0],"parents":[2147483647,0,0,1,1,2,2],"right_children":[2,4,6,-1,-1,-1,-1],"split_conditions":[2.05E1,1.65E1,5.065E-1,-1.2213556E-3,-4.3340805E-3,5.4501106E-5,3.0202672E-3],"split_indices":[28,80,55,0,0,0,0],"split_type":[0,0,0,0,0,0,0],"sum_hessian":[8.716588E3,6.3409907E3,2.375597E3,3.958318E3,2.3826724E3,1.205689E3,1.169908E3],"tree_param":{"num_deleted":"0","num_feature":"104","num_nodes":"7","size_leaf_vector":"0"}},{"base_weights":[1.3265759E-1,2.3914829E-1,-1.5157056E-1,1.22135565E-1,4.33408E-1,-5.4501165E-3,-3.0202675E-1],"categories":[],"categories_nodes":[],"categories_segments":[],"categories_sizes":[],"default_left":[true,true,true,false,false,false,false],"id":59,"left_children":[1,3,5,-1,-1,-1,-1],"loss_changes":[2.6389716E2,1.4410596E2,5.2247185E1,0E0,0E0,0E0,0E0],"parents":[2147483647,0,0,1,1,2,2],"right_children":[2,4,6,-1,-1,-1,-1],"split_conditions":[2.05E1,1.65E1,5.065E-1,1.2213556E-3,4.33408E-3,-5.4501164E-5,-3.0202675E-3],"split_indices":[28,80,55,0,0,0,0],"split_type":[0,0,0,0,0,0,0],"sum_hessian":[8.716588E3,6.3409907E3,2.375597E3,3.958318E3,2.3826724E3,1.205689E3,1.1699081E3],"tree_param":{"num_deleted":"0","num_feature":"104","num_nodes":"7","size_leaf_vector":"0"}},{"base_weights":[-1.3138069E-1,2.8330801E-2,-3.185999E-1,-1.0809938E-1,2.1136875E-1,-4.1139486E-1,-9.8281756E-2],"categories":[],"categories_nodes":[],"categories_segments":[],"categories_sizes":[],"default_left":[true,true,true,false,false,false,false],"id":60,"left_children":[1,3,5,-1,-1,-1,-1],"loss_changes":[2.6057724E2,1.1747985E2,8.197806E1,0E0,0E0,0E0,0E0],"parents":[2147483647,0,0,1,1,2,2],"right_children":[2,4,6,-1,-1,-1,-1],"split_conditions":[8.5E-1,5.445E-1,3.65E0,-1.0809938E-3,2.1136876E-3,-4.1139484E-3,-9.828175E-4],"split_indices":[25,55,77,0,0,0,0],"split_type":[0,0,0,0,0,0,0],"sum_hessian":[8.713347E3,4.702567E3,4.0107795E3,2.694551E3,2.0080159E3,2.821525E3,1.1892545E3],"tree_param":{"num_deleted":"0","num_feature":"104","num_nodes":"7","size_leaf_vector":"0"}},{"base_weights":[1.3138068E-1,-2.833081E-2,3.185999E-1,1.0809938E-1,-2.1136878E-1,4.1139486E-1,9.8281756E-2],"categories":[],"categories_nodes":[],"categories_segments":[],"categories_sizes":[],"default_left":[true,true,true,false,false,false,false],"id":61,"left_children":[1,3,5,-1,-1,-1,-1],"loss_changes":[2.605772E2,1.17479866E2,8.197806E1,0E0,0E0,0E0,0E0],"parents":[2147483647,0,0,1,1,2,2],"right_children":[2,4,6,-1,-1,-1,-1],"split_conditions":[8.5E-1,5.445E-1,3.65E0,1.0809938E-3,-2.1136878E-3,4.1139484E-3,9.828175E-4],"split_indices":[25,55,77,0,0,0,0],"split_type":[0,0,0,0,0,0,0],"sum_hessian":[8.713347E3,4.702567E3,4.0107795E3,2.694551E3,2.0080159E3,2.821525E3,1.1892545E3],"tree_param":{"num_deleted":"0","num_feature":"104","num_nodes":"7","size_leaf_vector":"0"}},{"base_weights":[-1.3011666E-1,-2.3802257E-1,1.4282294E-1,-1.2294974E-1,-4.2638984E-1,2.0886382E-1,-1.607082E-1],"categories":[],"categories_nodes":[],"categories_segments":[],"categories_sizes":[],"default_left":[true,true,true,false,false,false,false],"id":62,"left_children":[1,3,5,-1,-1,-1,-1],"loss_changes":[2.5659113E2,1.3527762E2,4.952098E1,0E0,0E0,0E0,0E0],"parents":[2147483647,0,0,1,1,2,2],"right_children":[2,4,6,-1,-1,-1,-1],"split_conditions":[2.15E1,1.65E1,2.45E1,-1.2294974E-3,-4.2638984E-3,2.0886383E-3,-1.607082E-3],"split_indices":[51,80,81,0,0,0,0],"split_type":[0,0,0,0,0,0,0],"sum_hessian":[8.710085E3,6.2423267E3,2.4677585E3,3.8760908E3,2.3662358E3,2.0270371E3,4.407214E2],"tree_param":{"num_deleted":"0","num_feature":"104","num_nodes":"7","size_leaf_vector":"0"}},{"base_weights":[1.3011663E-1,2.3802252E-1,-1.4282294E-1,1.2294971E-1,4.2638978E-1,-2.0886382E-1,1.6070819E-1],"categories":[],"categories_nodes":[],"categories_segments":[],"categories_sizes":[],"default_left":[true,true,true,false,false,false,false],"id":63,"left_children":[1,3,5,-1,-1,-1,-1],"loss_changes":[2.56591E2,1.3527762E2,4.9520977E1,0E0,0E0,0E0,0E0],"parents":[2147483647,0,0,1,1,2,2],"right_children":[2,4,6,-1,-1,-1,-1],"split_conditions":[2.15E1,1.65E1,2.45E1,1.2294971E-3,4.263898E-3,-2.0886383E-3,1.6070819E-3],"split_indices":[51,80,81,0,0,0,0],"split_type":[0,0,0,0,0,0,0],"sum_hessian":[8.710085E3,6.2423267E3,2.4677585E3,3.8760908E3,2.3662358E3,2.0270371E3,4.407214E2],"tree_param":{"num_deleted":"0","num_feature":"104","num_nodes":"7","size_leaf_vector":"0"}},{"base_weights":[-1.2886621E-1,-3.1479692E-1,2.7477654E-2,-1.2942329E-1,-4.149561E-1,-1.768308E-1,1.4734334E-1],"categories":[],"categories_nodes":[],"categories_segments":[],"categories_sizes":[],"default_left":[true,true,true,false,false,false,false],"id":64,"left_children":[1,3,5,-1,-1,-1,-1],"loss_changes":[2.531349E2,7.379773E1,1.1588974E2,0E0,0E0,0E0,0E0],"parents":[2147483647,0,0,1,1,2,2],"right_children":[2,4,6,-1,-1,-1,-1],"split_conditions":[1.35E1,9.5E0,-1.45E0,-1.2942329E-3,-4.149561E-3,-1.768308E-3,1.4734333E-3],"split_indices":[51,103,77,0,0,0,0],"split_type":[0,0,0,0,0,0,0],"sum_hessian":[8.706736E3,3.976592E3,4.730144E3,1.3957126E3,2.5808794E3,1.7488285E3,2.9813157E3],"tree_param":{"num_deleted":"0","num_feature":"104","num_nodes":"7","size_leaf_vector":"0"}},{"base_weights":[1.2886623E-1,3.1479695E-1,-2.7477656E-2,1.2942329E-1,4.1495612E-1,1.768308E-1,-1.4734334E-1],"categories":[],"categories_nodes":[],"categories_segments":[],"categories_sizes":[],"default_left":[true,true,true,false,false,false,false],"id":65,"left_children":[1,3,5,-1,-1,-1,-1],"loss_changes":[2.5313496E2,7.379773E1,1.1588974E2,0E0,0E0,0E0,0E0],"parents":[2147483647,0,0,1,1,2,2],"right_children":[2,4,6,-1,-1,-1,-1],"split_conditions":[1.35E1,9.5E0,-1.45E0,1.2942329E-3,4.1495613E-3,1.768308E-3,-1.4734333E-3],"split_indices":[51,103,77,0,0,0,0],"split_type":[0,0,0,0,0,0,0],"sum_hessian":[8.706736E3,3.976592E3,4.730144E3,1.3957126E3,2.5808794E3,1.7488285E3,2.9813157E3],"tree_param":{"num_deleted":"0","num_feature":"104","num_nodes":"7","size_leaf_vector":"0"}},{"base_weights":[-1.2763079E-1,-2.3075737E-1,1.5056962E-1,-6.1504386E-2,-3.5803205E-1,2.1136253E-1,-1.9173284E-1],"categories":[],"categories_nodes":[],"categories_segments":[],"categories_sizes":[],"default_left":[true,true,true,false,false,false,false],"id":66,"left_children":[1,3,5,-1,-1,-1,-1],"loss_changes":[2.4975688E2,1.3678058E2,4.90383E1,0E0,0E0,0E0,0E0],"parents":[2147483647,0,0,1,1,2,2],"right_children":[2,4,6,-1,-1,-1,-1],"split_conditions":[2.15E1,1.05E1,2.55E1,-6.1504386E-4,-3.5803204E-3,2.1136252E-3,-1.9173283E-3],"split_indices":[29,80,103,0,0,0,0],"split_type":[0,0,0,0,0,0,0],"sum_hessian":[8.703196E3,6.349616E3,2.3535798E3,2.7259993E3,3.623617E3,1.998949E3,3.546308E2],"tree_param":{"num_deleted":"0","num_feature":"104","num_nodes":"7","size_leaf_vector":"0"}},{"base_weights":[1.2763077E-1,2.3075736E-1,-1.5056962E-1,6.1504368E-2,3.5803205E-1,-2.1136251E-1,1.9173273E-1],"categories":[],"categories_nodes":[],"categories_segments":[],"categories_sizes":[],"default_left":[true,true,true,false,false,false,false],"id":67,"left_children":[1,3,5,-1,-1,-1,-1],"loss_changes":[2.4975687E2,1.3678058E2,4.9038273E1,0E0,0E0,0E0,0E0],"parents":[2147483647,0,0,1,1,2,2],"right_children":[2,4,6,-1,-1,-1,-1],"split_conditions":[2.15E1,1.05E1,2.55E1,6.150437E-4,3.5803204E-3,-2.1136252E-3,1.9173273E-3],"split_indices":[29,80,103,0,0,0,0],"split_type":[0,0,0,0,0,0,0],"sum_hessian":[8.703196E3,6.349616E3,2.3535798E3,2.7259993E3,3.623617E3,1.998949E3,3.546308E2],"tree_param":{"num_deleted":"0","num_feature":"104","num_nodes":"7","size_leaf_vector":"0"}},{"base_weights":[-1.2640418E-1,2.8739782E-2,-3.085953E-1,-1.0416207E-1,2.0698868E-1,-3.9919853E-1,-9.413169E-2],"categories":[],"categories_nodes":[],"categories_segments":[],"categories_sizes":[],"default_left":[true,true,true,false,false,false,false],"id":68,"left_children":[1,3,5,-1,-1,-1,-1],"loss_changes":[2.4594556E2,1.1136622E2,7.771976E1,0E0,0E0,0E0,0E0],"parents":[2147483647,0,0,1,1,2,2],"right_children":[2,4,6,-1,-1,-1,-1],"split_conditions":[8.5E-1,5.445E-1,3.65E0,-1.0416206E-3,2.0698868E-3,-3.991985E-3,-9.413169E-4],"split_indices":[25,55,77,0,0,0,0],"split_type":[0,0,0,0,0,0,0],"sum_hessian":[8.699843E3,4.699148E3,4.0006946E3,2.6922383E3,2.0069094E3,2.8119038E3,1.1887908E3],"tree_param":{"num_deleted":"0","num_feature":"104","num_nodes":"7","size_leaf_vector":"0"}},{"base_weights":[1.2640417E-1,-2.8739791E-2,3.0859527E-1,1.04162045E-1,-2.0698866E-1,3.991985E-1,9.413166E-2],"categories":[],"categories_nodes":[],"categories_segments":[],"categories_sizes":[],"default_left":[true,true,true,false,false,false,false],"id":69,"left_children":[1,3,5,-1,-1,-1,-1],"loss_changes":[2.4594554E2,1.1136619E2,7.771973E1,0E0,0E0,0E0,0E0],"parents":[2147483647,0,0,1,1,2,2],"right_children":[2,4,6,-1,-1,-1,-1],"split_conditions":[8.5E-1,5.445E-1,3.65E0,1.0416204E-3,-2.0698865E-3,3.9919848E-3,9.413166E-4],"split_indices":[25,55,77,0,0,0,0],"split_type":[0,0,0,0,0,0,0],"sum_hessian":[8.699842E3,4.699148E3,4.0006943E3,2.6922383E3,2.0069094E3,2.8119038E3,1.1887906E3],"tree_param":{"num_deleted":"0","num_feature":"104","num_nodes":"7","size_leaf_vector":"0"}},{"base_weights":[-1.2519191E-1,-2.275491E-1,1.4748125E-1,-1.149969E-1,-4.151856E-1,-1.3451535E-1,2.1972956E-1],"categories":[],"categories_nodes":[],"categories_segments":[],"categories_sizes":[],"default_left":[true,true,true,false,false,false,false],"id":70,"left_children":[1,3,5,-1,-1,-1,-1],"loss_changes":[2.427763E2,1.3350717E2,4.840445E1,0E0,0E0,0E0,0E0],"parents":[2147483647,0,0,1,1,2,2],"right_children":[2,4,6,-1,-1,-1,-1],"split_conditions":[2.05E1,1.65E1,-4.05E0,-1.149969E-3,-4.151856E-3,-1.3451534E-3,2.1972954E-3],"split_indices":[28,80,77,0,0,0,0],"split_type":[0,0,0,0,0,0,0],"sum_hessian":[8.696321E3,6.322951E3,2.3733706E3,3.9532437E3,2.3697075E3,4.838735E2,1.889497E3],"tree_param":{"num_deleted":"0","num_feature":"104","num_nodes":"7","size_leaf_vector":"0"}},{"base_weights":[1.2519188E-1,2.2754909E-1,-1.4748126E-1,1.1499688E-1,4.151856E-1,1.3451536E-1,-2.1972957E-1],"categories":[],"categories_nodes":[],"categories_segments":[],"categories_sizes":[],"default_left":[true,true,true,false,false,false,false],"id":71,"left_children":[1,3,5,-1,-1,-1,-1],"loss_changes":[2.4277634E2,1.3350717E2,4.840446E1,0E0,0E0,0E0,0E0],"parents":[2147483647,0,0,1,1,2,2],"right_children":[2,4,6,-1,-1,-1,-1],"split_conditions":[2.05E1,1.65E1,-4.05E0,1.1499688E-3,4.151856E-3,1.3451535E-3,-2.1972957E-3],"split_indices":[28,80,77,0,0,0,0],"split_type":[0,0,0,0,0,0,0],"sum_hessian":[8.696321E3,6.322951E3,2.3733706E3,3.9532437E3,2.3697075E3,4.8387354E2,1.889497E3],"tree_param":{"num_deleted":"0","num_feature":"104","num_nodes":"7","size_leaf_vector":"0"}},{"base_weights":[-1.23991765E-1,-3.0500665E-1,2.7932141E-2,-4.019665E-1,-1.2361248E-1,-1.7091912E-1,1.4452437E-1],"categories":[],"categories_nodes":[],"categories_segments":[],"categories_sizes":[],"default_left":[true,true,true,false,false,false,false],"id":72,"left_children":[1,3,5,-1,-1,-1,-1],"loss_changes":[2.390914E2,6.9724396E1,1.0963214E2,0E0,0E0,0E0,0E0],"parents":[2147483647,0,0,1,1,2,2],"right_children":[2,4,6,-1,-1,-1,-1],"split_conditions":[1.35E1,2.85E0,-1.45E0,-4.019665E-3,-1.2361248E-3,-1.7091911E-3,1.4452436E-3],"split_indices":[51,77,77,0,0,0,0],"split_type":[0,0,0,0,0,0,0],"sum_hessian":[8.692769E3,3.9661533E3,4.726615E3,2.5838193E3,1.382334E3,1.7468492E3,2.9797659E3],"tree_param":{"num_deleted":"0","num_feature":"104","num_nodes":"7","size_leaf_vector":"0"}},{"base_weights":[1.23991765E-1,3.0500665E-1,-2.7932163E-2,4.0196648E-1,1.2361256E-1,1.7091909E-1,-1.4452438E-1],"categories":[],"categories_nodes":[],"categories_segments":[],"categories_sizes":[],"default_left":[true,true,true,false,false,false,false],"id":73,"left_children":[1,3,5,-1,-1,-1,-1],"loss_changes":[2.3909145E2,6.9724365E1,1.0963213E2,0E0,0E0,0E0,0E0],"parents":[2147483647,0,0,1,1,2,2],"right_children":[2,4,6,-1,-1,-1,-1],"split_conditions":[1.35E1,2.85E0,-1.45E0,4.0196646E-3,1.2361256E-3,1.7091909E-3,-1.4452437E-3],"split_indices":[51,77,77,0,0,0,0],"split_type":[0,0,0,0,0,0,0],"sum_hessian":[8.692769E3,3.9661533E3,4.726615E3,2.5838193E3,1.3823341E3,1.7468492E3,2.9797659E3],"tree_param":{"num_deleted":"0","num_feature":"104","num_nodes":"7","size_leaf_vector":"0"}},{"base_weights":[-1.2280641E-1,-2.2657448E-1,1.3913298E-1,-1.1587058E-1,-4.0858772E-1,2.024861E-1,-1.520159E-1],"categories":[],"categories_nodes":[],"categories_segments":[],"categories_sizes":[],"default_left":[true,true,true,false,false,false,false],"id":74,"left_children":[1,3,5,-1,-1,-1,-1],"loss_changes":[2.3623392E2,1.2537625E2,4.5523506E1,0E0,0E0,0E0,0E0],"parents":[2147483647,0,0,1,1,2,2],"right_children":[2,4,6,-1,-1,-1,-1],"split_conditions":[2.15E1,1.65E1,2.45E1,-1.1587058E-3,-4.085877E-3,2.0248608E-3,-1.520159E-3],"split_indices":[51,80,81,0,0,0,0],"split_type":[0,0,0,0,0,0,0],"sum_hessian":[8.689E3,6.223627E3,2.4653733E3,3.8709058E3,2.3527212E3,2.025036E3,4.4033725E2],"tree_param":{"num_deleted":"0","num_feature":"104","num_nodes":"7","size_leaf_vector":"0"}},{"base_weights":[1.228064E-1,2.2657447E-1,-1.39133E-1,1.1587057E-1,4.0858772E-1,-2.0248613E-1,1.5201586E-1],"categories":[],"categories_nodes":[],"categories_segments":[],"categories_sizes":[],"default_left":[true,true,true,false,false,false,false],"id":75,"left_children":[1,3,5,-1,-1,-1,-1],"loss_changes":[2.3623396E2,1.2537625E2,4.5523502E1,0E0,0E0,0E0,0E0],"parents":[2147483647,0,0,1,1,2,2],"right_children":[2,4,6,-1,-1,-1,-1],"split_conditions":[2.15E1,1.65E1,2.45E1,1.1587057E-3,4.085877E-3,-2.0248613E-3,1.5201586E-3],"split_indices":[51,80,81,0,0,0,0],"split_type":[0,0,0,0,0,0,0],"sum_hessian":[8.689E3,6.223627E3,2.4653733E3,3.8709058E3,2.3527212E3,2.025036E3,4.4033725E2],"tree_param":{"num_deleted":"0","num_feature":"104","num_nodes":"7","size_leaf_vector":"0"}},{"base_weights":[-1.2163126E-1,8.5500255E-2,-2.509556E-1,-1.7367695E-1,1.6114402E-1,-8.706956E-2,-3.7655067E-1],"categories":[],"categories_nodes":[],"categories_segments":[],"categories_sizes":[],"default_left":[true,true,true,false,false,false,false],"id":76,"left_children":[1,3,5,-1,-1,-1,-1],"loss_changes":[2.3270277E2,6.549977E1,1.10042145E2,0E0,0E0,0E0,0E0],"parents":[2147483647,0,0,1,1,2,2],"right_children":[2,4,6,-1,-1,-1,-1],"split_conditions":[4.585E-1,3.585E-1,1.05E1,-1.7367695E-3,1.6114401E-3,-8.706956E-4,-3.7655067E-3],"split_indices":[3,55,80,0,0,0,0],"split_type":[0,0,0,0,0,0,0],"sum_hessian":[8.685305E3,3.3385217E3,5.346783E3,7.5395605E2,2.5845657E3,2.3205046E3,3.0262786E3],"tree_param":{"num_deleted":"0","num_feature":"104","num_nodes":"7","size_leaf_vector":"0"}},{"base_weights":[1.2163123E-1,-8.550028E-2,2.5095558E-1,1.7367692E-1,-1.6114405E-1,8.706955E-2,3.7655064E-1],"categories":[],"categories_nodes":[],"categories_segments":[],"categories_sizes":[],"default_left":[true,true,true,false,false,false,false],"id":77,"left_children":[1,3,5,-1,-1,-1,-1],"loss_changes":[2.3270277E2,6.549977E1,1.10042114E2,0E0,0E0,0E0,0E0],"parents":[2147483647,0,0,1,1,2,2],"right_children":[2,4,6,-1,-1,-1,-1],"split_conditions":[4.585E-1,3.585E-1,1.05E1,1.7367692E-3,-1.6114404E-3,8.7069545E-4,3.7655064E-3],"split_indices":[3,55,80,0,0,0,0],"split_type":[0,0,0,0,0,0,0],"sum_hessian":[8.685305E3,3.3385217E3,5.3467827E3,7.539561E2,2.5845657E3,2.3205044E3,3.0262783E3],"tree_param":{"num_deleted":"0","num_feature":"104","num_nodes":"7","size_leaf_vector":"0"}},{"base_weights":[-1.20467715E-1,2.926862E-2,-2.9672626E-1,-9.959984E-2,2.02027E-1,-3.8489607E-1,-8.886711E-2],"categories":[],"categories_nodes":[],"categories_segments":[],"categories_sizes":[],"default_left":[true,true,true,false,false,false,false],"id":78,"left_children":[1,3,5,-1,-1,-1,-1],"loss_changes":[2.291622E2,1.04554344E2,7.3056885E1,0E0,0E0,0E0,0E0],"parents":[2147483647,0,0,1,1,2,2],"right_children":[2,4,6,-1,-1,-1,-1],"split_conditions":[8.5E-1,5.445E-1,3.65E0,-9.959984E-4,2.0202699E-3,-3.8489606E-3,-8.886711E-4],"split_indices":[25,55,77,0,0,0,0],"split_type":[0,0,0,0,0,0,0],"sum_hessian":[8.681587E3,4.694402E3,3.9871855E3,2.688986E3,2.0054156E3,2.7990366E3,1.1881487E3],"tree_param":{"num_deleted":"0","num_feature":"104","num_nodes":"7","size_leaf_vector":"0"}},{"base_weights":[1.2046771E-1,-2.9268634E-2,2.9672626E-1,9.959984E-2,-2.0202702E-1,3.8489613E-1,8.886704E-2],"categories":[],"categories_nodes":[],"categories_segments":[],"categories_sizes":[],"default_left":[true,true,true,false,false,false,false],"id":79,"left_children":[1,3,5,-1,-1,-1,-1],"loss_changes":[2.2916223E2,1.0455436E2,7.3056946E1,0E0,0E0,0E0,0E0],"parents":[2147483647,0,0,1,1,2,2],"right_children":[2,4,6,-1,-1,-1,-1],"split_conditions":[8.5E-1,5.445E-1,3.65E0,9.959984E-4,-2.02027E-3,3.8489613E-3,8.886704E-4],"split_indices":[25,55,77,0,0,0,0],"split_type":[0,0,0,0,0,0,0],"sum_hessian":[8.681587E3,4.694402E3,3.9871853E3,2.688986E3,2.0054156E3,2.7990366E3,1.1881488E3],"tree_param":{"num_deleted":"0","num_feature":"104","num_nodes":"7","size_leaf_vector":"0"}},{"base_weights":[-1.19316265E-1,-2.1774644E-1,1.4556785E-1,-5.6545403E-2,-3.3954182E-1,2.0373069E-1,-1.8190853E-1],"categories":[],"categories_nodes":[],"categories_segments":[],"categories_sizes":[],"default_left":[true,true,true,false,false,false,false],"id":80,"left_children":[1,3,5,-1,-1,-1,-1],"loss_changes":[2.2631033E2,1.2422009E2,4.483328E1,0E0,0E0,0E0,0E0],"parents":[2147483647,0,0,1,1,2,2],"right_children":[2,4,6,-1,-1,-1,-1],"split_conditions":[2.15E1,1.05E1,2.55E1,-5.65454E-4,-3.3954182E-3,2.0373068E-3,-1.8190853E-3],"split_indices":[29,80,103,0,0,0,0],"split_type":[0,0,0,0,0,0,0],"sum_hessian":[8.677794E3,6.32691E3,2.3508835E3,2.723592E3,3.6033179E3,1.9966399E3,3.542438E2],"tree_param":{"num_deleted":"0","num_feature":"104","num_nodes":"7","size_leaf_vector":"0"}},{"base_weights":[1.19316235E-1,2.177464E-1,-1.4556785E-1,5.6545362E-2,3.395418E-1,-2.0373067E-1,1.8190852E-1],"categories":[],"categories_nodes":[],"categories_segments":[],"categories_sizes":[],"default_left":[true,true,true,false,false,false,false],"id":81,"left_children":[1,3,5,-1,-1,-1,-1],"loss_changes":[2.2631024E2,1.2422009E2,4.483328E1,0E0,0E0,0E0,0E0],"parents":[2147483647,0,0,1,1,2,2],"right_children":[2,4,6,-1,-1,-1,-1],"split_conditions":[2.15E1,1.05E1,2.55E1,5.654536E-4,3.395418E-3,-2.0373068E-3,1.8190851E-3],"split_indices":[29,80,103,0,0,0,0],"split_type":[0,0,0,0,0,0,0],"sum_hessian":[8.677794E3,6.32691E3,2.3508835E3,2.723592E3,3.6033179E3,1.9966398E3,3.542438E2],"tree_param":{"num_deleted":"0","num_feature":"104","num_nodes":"7","size_leaf_vector":"0"}},{"base_weights":[-1.1817505E-1,-2.933647E-1,2.8493445E-2,-1.1929012E-1,-3.881421E-1,-1.0991252E-1,1.865068E-1],"categories":[],"categories_nodes":[],"categories_segments":[],"categories_sizes":[],"default_left":[true,true,true,false,false,false,false],"id":82,"left_children":[1,3,5,-1,-1,-1,-1],"loss_changes":[2.2291208E2,6.517578E1,1.0330816E2,0E0,0E0,0E0,0E0],"parents":[2147483647,0,0,1,1,2,2],"right_children":[2,4,6,-1,-1,-1,-1],"split_conditions":[1.35E1,9.5E0,6.5E-1,-1.1929012E-3,-3.881421E-3,-1.0991252E-3,1.8650679E-3],"split_indices":[51,103,77,0,0,0,0],"split_type":[0,0,0,0,0,0,0],"sum_hessian":[8.674053E3,3.952249E3,4.721803E3,1.3940682E3,2.558181E3,2.5172314E3,2.2045718E3],"tree_param":{"num_deleted":"0","num_feature":"104","num_nodes":"7","size_leaf_vector":"0"}},{"base_weights":[1.18175045E-1,2.933647E-1,-2.8493451E-2,1.19290106E-1,3.881421E-1,1.09912544E-1,-1.8650682E-1],"categories":[],"categories_nodes":[],"categories_segments":[],"categories_sizes":[],"default_left":[true,true,true,false,false,false,false],"id":83,"left_children":[1,3,5,-1,-1,-1,-1],"loss_changes":[2.229121E2,6.517575E1,1.033082E2,0E0,0E0,0E0,0E0],"parents":[2147483647,0,0,1,1,2,2],"right_children":[2,4,6,-1,-1,-1,-1],"split_conditions":[1.35E1,9.5E0,6.5E-1,1.192901E-3,3.881421E-3,1.0991254E-3,-1.8650682E-3],"split_indices":[51,103,77,0,0,0,0],"split_type":[0,0,0,0,0,0,0],"sum_hessian":[8.674053E3,3.952249E3,4.721803E3,1.3940682E3,2.558181E3,2.5172314E3,2.2045718E3],"tree_param":{"num_deleted":"0","num_feature":"104","num_nodes":"7","size_leaf_vector":"0"}},{"base_weights":[-1.1704772E-1,-2.1742222E-1,1.3585E-1,-1.1000676E-1,-3.947052E-1,8.905449E-3,2.71933E-1],"categories":[],"categories_nodes":[],"categories_segments":[],"categories_sizes":[],"default_left":[true,true,true,false,false,false,false],"id":84,"left_children":[1,3,5,-1,-1,-1,-1],"loss_changes":[2.2014108E2,1.1817108E2,4.2568672E1,0E0,0E0,0E0,0E0],"parents":[2147483647,0,0,1,1,2,2],"right_children":[2,4,6,-1,-1,-1,-1],"split_conditions":[2.15E1,1.65E1,3.5000002E-1,-1.1000675E-3,-3.947052E-3,8.905449E-5,2.71933E-3],"split_indices":[51,80,77,0,0,0,0],"split_type":[0,0,0,0,0,0,0],"sum_hessian":[8.670106E3,6.2067876E3,2.4633188E3,3.8660034E3,2.3407844E3,1.2750026E3,1.1883163E3],"tree_param":{"num_deleted":"0","num_feature":"104","num_nodes":"7","size_leaf_vector":"0"}},{"base_weights":[1.1704772E-1,2.1742222E-1,-1.3584998E-1,1.1000675E-1,3.947052E-1,-8.905422E-3,-2.71933E-1],"categories":[],"categories_nodes":[],"categories_segments":[],"categories_sizes":[],"default_left":[true,true,true,false,false,false,false],"id":85,"left_children":[1,3,5,-1,-1,-1,-1],"loss_changes":[2.2014108E2,1.1817105E2,4.2568684E1,0E0,0E0,0E0,0E0],"parents":[2147483647,0,0,1,1,2,2],"right_children":[2,4,6,-1,-1,-1,-1],"split_conditions":[2.15E1,1.65E1,3.5000002E-1,1.1000675E-3,3.947052E-3,-8.9054214E-5,-2.71933E-3],"split_indices":[51,80,77,0,0,0,0],"split_type":[0,0,0,0,0,0,0],"sum_hessian":[8.670106E3,6.2067876E3,2.4633188E3,3.8660034E3,2.3407844E3,1.2750026E3,1.1883163E3],"tree_param":{"num_deleted":"0","num_feature":"104","num_nodes":"7","size_leaf_vector":"0"}},{"base_weights":[-1.15931615E-1,-2.1300004E-1,1.4192304E-1,-1.0629045E-1,-3.9205605E-1,-1.25501E-1,2.1046819E-1],"categories":[],"categories_nodes":[],"categories_segments":[],"categories_sizes":[],"default_left":[true,true,true,false,false,false,false],"id":86,"left_children":[1,3,5,-1,-1,-1,-1],"loss_changes":[2.1696396E2,1.202775E2,4.3487938E1,0E0,0E0,0E0,0E0],"parents":[2147483647,0,0,1,1,2,2],"right_children":[2,4,6,-1,-1,-1,-1],"split_conditions":[2.05E1,1.65E1,-4.05E0,-1.0629045E-3,-3.9205602E-3,-1.25501E-3,2.104682E-3],"split_indices":[28,80,77,0,0,0,0],"split_type":[0,0,0,0,0,0,0],"sum_hessian":[8.666105E3,6.296126E3,2.3699795E3,3.946047E3,2.350079E3,4.8335867E2,1.8866208E3],"tree_param":{"num_deleted":"0","num_feature":"104","num_nodes":"7","size_leaf_vector":"0"}},{"base_weights":[1.1593163E-1,2.1300006E-1,-1.4192303E-1,1.0629047E-1,3.9205605E-1,1.2550104E-1,-2.1046817E-1],"categories":[],"categories_nodes":[],"categories_segments":[],"categories_sizes":[],"default_left":[true,true,true,false,false,false,false],"id":87,"left_children":[1,3,5,-1,-1,-1,-1],"loss_changes":[2.1696397E2,1.20277466E2,4.348794E1,0E0,0E0,0E0,0E0],"parents":[2147483647,0,0,1,1,2,2],"right_children":[2,4,6,-1,-1,-1,-1],"split_conditions":[2.05E1,1.65E1,-4.05E0,1.0629046E-3,3.9205602E-3,1.2550104E-3,-2.1046817E-3],"split_indices":[28,80,77,0,0,0,0],"split_type":[0,0,0,0,0,0,0],"sum_hessian":[8.666105E3,6.296126E3,2.3699795E3,3.946047E3,2.350079E3,4.8335867E2,1.8866207E3],"tree_param":{"num_deleted":"0","num_feature":"104","num_nodes":"7","size_leaf_vector":"0"}},{"base_weights":[-1.1482586E-1,-2.8683516E-1,2.8972814E-2,-2.2403188E-1,-5.424312E-1,-1.06420286E-1,1.8350609E-1],"categories":[],"categories_nodes":[],"categories_segments":[],"categories_sizes":[],"default_left":[true,true,true,false,false,false,false],"id":88,"left_children":[1,3,5,-1,-1,-1,-1],"loss_changes":[2.1428876E2,6.320041E1,9.876261E1,0E0,0E0,0E0,0E0],"parents":[2147483647,0,0,1,1,2,2],"right_children":[2,4,6,-1,-1,-1,-1],"split_conditions":[1.35E1,2.25E1,6.5E-1,-2.2403188E-3,-5.424312E-3,-1.0642029E-3,1.8350608E-3],"split_indices":[51,80,77,0,0,0,0],"split_type":[0,0,0,0,0,0,0],"sum_hessian":[8.662148E3,3.9437332E3,4.718415E3,3.1673503E3,7.763829E2,2.515122E3,2.203293E3],"tree_param":{"num_deleted":"0","num_feature":"104","num_nodes":"7","size_leaf_vector":"0"}},{"base_weights":[1.1482586E-1,2.8683513E-1,-2.8972797E-2,2.2403185E-1,5.424312E-1,1.0642029E-1,-1.8350606E-1],"categories":[],"categories_nodes":[],"categories_segments":[],"categories_sizes":[],"default_left":[true,true,true,false,false,false,false],"id":89,"left_children":[1,3,5,-1,-1,-1,-1],"loss_changes":[2.1428873E2,6.320041E1,9.8762596E1,0E0,0E0,0E0,0E0],"parents":[2147483647,0,0,1,1,2,2],"right_children":[2,4,6,-1,-1,-1,-1],"split_conditions":[1.35E1,2.25E1,6.5E-1,2.2403186E-3,5.424312E-3,1.0642029E-3,-1.8350605E-3],"split_indices":[51,80,77,0,0,0,0],"split_type":[0,0,0,0,0,0,0],"sum_hessian":[8.662148E3,3.9437332E3,4.718415E3,3.1673503E3,7.763829E2,2.515122E3,2.203293E3],"tree_param":{"num_deleted":"0","num_feature":"104","num_nodes":"7","size_leaf_vector":"0"}},{"base_weights":[-1.1373051E-1,-2.0944203E-1,1.4033158E-1,-1.0427524E-1,-3.8624763E-1,-1.2321174E-1,2.078915E-1],"categories":[],"categories_nodes":[],"categories_segments":[],"categories_sizes":[],"default_left":[true,true,true,false,false,false,false],"id":90,"left_children":[1,3,5,-1,-1,-1,-1],"loss_changes":[2.1059308E2,1.16918945E2,4.222513E1,0E0,0E0,0E0,0E0],"parents":[2147483647,0,0,1,1,2,2],"right_children":[2,4,6,-1,-1,-1,-1],"split_conditions":[2.05E1,1.65E1,-4.05E0,-1.0427524E-3,-3.8624762E-3,-1.2321174E-3,2.0789148E-3],"split_indices":[28,80,77,0,0,0,0],"split_type":[0,0,0,0,0,0,0],"sum_hessian":[8.658232E3,6.289134E3,2.369098E3,3.9444824E3,2.3446516E3,4.832342E2,1.8858638E3],"tree_param":{"num_deleted":"0","num_feature":"104","num_nodes":"7","size_leaf_vector":"0"}},{"base_weights":[1.13730505E-1,2.0944203E-1,-1.4033157E-1,1.0427522E-1,3.8624763E-1,1.2321177E-1,-2.0789148E-1],"categories":[],"categories_nodes":[],"categories_segments":[],"categories_sizes":[],"default_left":[true,true,true,false,false,false,false],"id":91,"left_children":[1,3,5,-1,-1,-1,-1],"loss_changes":[2.1059308E2,1.16918976E2,4.222513E1,0E0,0E0,0E0,0E0],"parents":[2147483647,0,0,1,1,2,2],"right_children":[2,4,6,-1,-1,-1,-1],"split_conditions":[2.05E1,1.65E1,-4.05E0,1.0427522E-3,3.8624762E-3,1.2321176E-3,-2.0789148E-3],"split_indices":[28,80,77,0,0,0,0],"split_type":[0,0,0,0,0,0,0],"sum_hessian":[8.658231E3,6.289134E3,2.369098E3,3.9444824E3,2.3446516E3,4.8323416E2,1.8858638E3],"tree_param":{"num_deleted":"0","num_feature":"104","num_nodes":"7","size_leaf_vector":"0"}},{"base_weights":[-1.1264698E-1,2.7960205E-2,-2.8392047E-1,-1.7582694E-1,1.2681416E-1,-3.6935788E-1,-8.264715E-2],"categories":[],"categories_nodes":[],"categories_segments":[],"categories_sizes":[],"default_left":[true,true,true,false,false,false,false],"id":92,"left_children":[1,3,5,-1,-1,-1,-1],"loss_changes":[2.0844455E2,9.579285E1,6.707214E1,0E0,0E0,0E0,0E0],"parents":[2147483647,0,0,1,1,2,2],"right_children":[2,4,6,-1,-1,-1,-1],"split_conditions":[9.5E-1,-2.05E0,3.65E0,-1.7582694E-3,1.2681416E-3,-3.6935788E-3,-8.264715E-4],"split_indices":[25,77,77,0,0,0,0],"split_type":[0,0,0,0,0,0,0],"sum_hessian":[8.654186E3,4.7530225E3,3.9011628E3,1.5522614E3,3.2007612E3,2.7380627E3,1.1631002E3],"tree_param":{"num_deleted":"0","num_feature":"104","num_nodes":"7","size_leaf_vector":"0"}},{"base_weights":[1.1264696E-1,-2.7960213E-2,2.8392044E-1,1.7582692E-1,-1.2681416E-1,3.6935788E-1,8.264707E-2],"categories":[],"categories_nodes":[],"categories_segments":[],"categories_sizes":[],"default_left":[true,true,true,false,false,false,false],"id":93,"left_children":[1,3,5,-1,-1,-1,-1],"loss_changes":[2.0844455E2,9.5792854E1,6.7072174E1,0E0,0E0,0E0,0E0],"parents":[2147483647,0,0,1,1,2,2],"right_children":[2,4,6,-1,-1,-1,-1],"split_conditions":[9.5E-1,-2.05E0,3.65E0,1.7582692E-3,-1.2681416E-3,3.6935788E-3,8.2647067E-4],"split_indices":[25,77,77,0,0,0,0],"split_type":[0,0,0,0,0,0,0],"sum_hessian":[8.654186E3,4.7530225E3,3.9011628E3,1.5522614E3,3.2007612E3,2.7380625E3,1.1631003E3],"tree_param":{"num_deleted":"0","num_feature":"104","num_nodes":"7","size_leaf_vector":"0"}},{"base_weights":[-1.11575074E-1,-2.0866127E-1,1.3258854E-1,-2.2335988E-2,-3.0529752E-1,1.919855E-1,-1.4026895E-1],"categories":[],"categories_nodes":[],"categories_segments":[],"categories_sizes":[],"default_left":[true,true,true,false,false,false,false],"id":94,"left_children":[1,3,5,-1,-1,-1,-1],"loss_changes":[2.0510023E2,1.11452576E2,3.992595E1,0E0,0E0,0E0,0E0],"parents":[2147483647,0,0,1,1,2,2],"right_children":[2,4,6,-1,-1,-1,-1],"split_conditions":[2.15E1,9.5E0,2.45E1,-2.2335986E-4,-3.0529753E-3,1.919855E-3,-1.4026895E-3],"split_indices":[51,103,81,0,0,0,0],"split_type":[0,0,0,0,0,0,0],"sum_hessian":[8.650055E3,6.1892017E3,2.4608525E3,2.1141396E3,4.0750623E3,2.0211705E3,4.3968204E2],"tree_param":{"num_deleted":"0","num_feature":"104","num_nodes":"7","size_leaf_vector":"0"}},{"base_weights":[1.1157507E-1,2.0866127E-1,-1.3258854E-1,2.2335988E-2,3.0529752E-1,-1.919855E-1,1.4026897E-1],"categories":[],"categories_nodes":[],"categories_segments":[],"categories_sizes":[],"default_left":[true,true,true,false,false,false,false],"id":95,"left_children":[1,3,5,-1,-1,-1,-1],"loss_changes":[2.0510022E2,1.11452545E2,3.992595E1,0E0,0E0,0E0,0E0],"parents":[2147483647,0,0,1,1,2,2],"right_children":[2,4,6,-1,-1,-1,-1],"split_conditions":[2.15E1,9.5E0,2.45E1,2.2335986E-4,3.0529753E-3,-1.919855E-3,1.4026896E-3],"split_indices":[51,103,81,0,0,0,0],"split_type":[0,0,0,0,0,0,0],"sum_hessian":[8.650055E3,6.1892017E3,2.4608525E3,2.1141396E3,4.0750623E3,2.0211705E3,4.3968204E2],"tree_param":{"num_deleted":"0","num_feature":"104","num_nodes":"7","size_leaf_vector":"0"}},{"base_weights":[-1.105119E-1,-2.7803063E-1,2.9231533E-2,-2.163903E-1,-5.299486E-1,-1.02726236E-1,1.7978634E-1],"categories":[],"categories_nodes":[],"categories_segments":[],"categories_sizes":[],"default_left":[true,true,true,false,false,false,false],"id":96,"left_children":[1,3,5,-1,-1,-1,-1],"loss_changes":[2.0243149E2,6.095462E1,9.369549E1,0E0,0E0,0E0,0E0],"parents":[2147483647,0,0,1,1,2,2],"right_children":[2,4,6,-1,-1,-1,-1],"split_conditions":[1.35E1,2.25E1,6.5E-1,-2.1639029E-3,-5.2994858E-3,-1.0272623E-3,1.7978634E-3],"split_indices":[51,80,77,0,0,0,0],"split_type":[0,0,0,0,0,0,0],"sum_hessian":[8.646009E3,3.931772E3,4.714237E3,3.1603447E3,7.714272E2,2.5124504E3,2.2017866E3],"tree_param":{"num_deleted":"0","num_feature":"104","num_nodes":"7","size_leaf_vector":"0"}},{"base_weights":[1.1051192E-1,2.780307E-1,-2.923154E-2,2.1639034E-1,5.299487E-1,1.0272625E-1,-1.7978635E-1],"categories":[],"categories_nodes":[],"categories_segments":[],"categories_sizes":[],"default_left":[true,true,true,false,false,false,false],"id":97,"left_children":[1,3,5,-1,-1,-1,-1],"loss_changes":[2.0243158E2,6.095465E1,9.369552E1,0E0,0E0,0E0,0E0],"parents":[2147483647,0,0,1,1,2,2],"right_children":[2,4,6,-1,-1,-1,-1],"split_conditions":[1.35E1,2.25E1,6.5E-1,2.1639033E-3,5.299487E-3,1.0272625E-3,-1.7978635E-3],"split_indices":[51,80,77,0,0,0,0],"split_type":[0,0,0,0,0,0,0],"sum_hessian":[8.646009E3,3.9317717E3,4.7142373E3,3.1603447E3,7.714272E2,2.5124504E3,2.2017866E3],"tree_param":{"num_deleted":"0","num_feature":"104","num_nodes":"7","size_leaf_vector":"0"}},{"base_weights":[-1.094598E-1,-2.0226613E-1,1.3947214E-1,-4.9596027E-2,-3.18363E-1,1.9459336E-1,-1.708057E-1],"categories":[],"categories_nodes":[],"categories_segments":[],"categories_sizes":[],"default_left":[true,true,true,false,false,false,false],"id":98,"left_children":[1,3,5,-1,-1,-1,-1],"loss_changes":[1.997013E2,1.1158084E2,4.0186806E1,0E0,0E0,0E0,0E0],"parents":[2147483647,0,0,1,1,2,2],"right_children":[2,4,6,-1,-1,-1,-1],"split_conditions":[2.15E1,1.05E1,2.55E1,-4.9596024E-4,-3.18363E-3,1.9459336E-3,-1.7080569E-3],"split_indices":[29,80,103,0,0,0,0],"split_type":[0,0,0,0,0,0,0],"sum_hessian":[8.6419375E3,6.2951714E3,2.3467659E3,2.7198855E3,3.5752856E3,1.993068E3,3.536979E2],"tree_param":{"num_deleted":"0","num_feature":"104","num_nodes":"7","size_leaf_vector":"0"}},{"base_weights":[1.09459825E-1,2.0226613E-1,-1.3947211E-1,4.959605E-2,3.18363E-1,-1.9459331E-1,1.7080575E-1],"categories":[],"categories_nodes":[],"categories_segments":[],"categories_sizes":[],"default_left":[true,true,true,false,false,false,false],"id":99,"left_children":[1,3,5,-1,-1,-1,-1],"loss_changes":[1.9970126E2,1.1158081E2,4.018681E1,0E0,0E0,0E0,0E0],"parents":[2147483647,0,0,1,1,2,2],"right_children":[2,4,6,-1,-1,-1,-1],"split_conditions":[2.15E1,1.05E1,2.55E1,4.9596047E-4,3.18363E-3,-1.9459331E-3,1.7080575E-3],"split_indices":[29,80,103,0,0,0,0],"split_type":[0,0,0,0,0,0,0],"sum_hessian":[8.6419375E3,6.2951714E3,2.3467659E3,2.7198855E3,3.5752856E3,1.9930679E3,3.5369788E2],"tree_param":{"num_deleted":"0","num_feature":"104","num_nodes":"7","size_leaf_vector":"0"}},{"base_weights":[-1.0841768E-1,2.8231056E-2,-2.7523705E-1,-1.8328993E-1,1.1866024E-1,-3.5887498E-1,-7.893692E-2],"categories":[],"categories_nodes":[],"categories_segments":[],"categories_sizes":[],"default_left":[true,true,true,false,false,false,false],"id":100,"left_children":[1,3,5,-1,-1,-1,-1],"loss_changes":[1.9693567E2,9.087354E1,6.3839447E1,0E0,0E0,0E0,0E0],"parents":[2147483647,0,0,1,1,2,2],"right_children":[2,4,6,-1,-1,-1,-1],"split_conditions":[9.5E-1,-2.45E0,3.65E0,-1.8328993E-3,1.1866024E-3,-3.5887498E-3,-7.8936917E-4],"split_indices":[25,77,77,0,0,0,0],"split_type":[0,0,0,0,0,0,0],"sum_hessian":[8.637833E3,4.748758E3,3.8890757E3,1.4218684E3,3.3268892E3,2.7265442E3,1.1625314E3],"tree_param":{"num_deleted":"0","num_feature":"104","num_nodes":"7","size_leaf_vector":"0"}},{"base_weights":[1.08417705E-1,-2.823104E-2,2.7523708E-1,1.8328993E-1,-1.1866021E-1,3.5887504E-1,7.8936845E-2],"categories":[],"categories_nodes":[],"categories_segments":[],"categories_sizes":[],"default_left":[true,true,true,false,false,false,false],"id":101,"left_children":[1,3,5,-1,-1,-1,-1],"loss_changes":[1.9693567E2,9.087353E1,6.383954E1,0E0,0E0,0E0,0E0],"parents":[2147483647,0,0,1,1,2,2],"right_children":[2,4,6,-1,-1,-1,-1],"split_conditions":[9.5E-1,-2.45E0,3.65E0,1.8328993E-3,-1.186602E-3,3.5887503E-3,7.893684E-4],"split_indices":[25,77,77,0,0,0,0],"split_type":[0,0,0,0,0,0,0],"sum_hessian":[8.637833E3,4.748758E3,3.8890757E3,1.4218684E3,3.3268892E3,2.7265442E3,1.1625314E3],"tree_param":{"num_deleted":"0","num_feature":"104","num_nodes":"7","size_leaf_vector":"0"}},{"base_weights":[-1.073876E-1,1.0856354E-1,-2.1141684E-1,-6.4182326E-2,1.9997557E-1,-3.9869338E-1,-1.1814477E-1],"categories":[],"categories_nodes":[],"categories_segments":[],"categories_sizes":[],"default_left":[true,true,true,false,false,false,false],"id":102,"left_children":[1,3,5,-1,-1,-1,-1],"loss_changes":[1.94001E2,4.435194E1,1.01749695E2,0E0,0E0,0E0,0E0],"parents":[2147483647,0,0,1,1,2,2],"right_children":[2,4,6,-1,-1,-1,-1],"split_conditions":[-2.05E0,-1.95E0,-1.55E0,-6.418232E-4,1.9997556E-3,-3.9869337E-3,-1.1814476E-3],"split_indices":[25,77,77,0,0,0,0],"split_type":[0,0,0,0,0,0,0],"sum_hessian":[8.633589E3,2.8068633E3,5.8267256E3,9.7142004E2,1.8354431E3,1.936083E3,3.8906428E3],"tree_param":{"num_deleted":"0","num_feature":"104","num_nodes":"7","size_leaf_vector":"0"}},{"base_weights":[1.07387625E-1,-1.0856353E-1,2.1141687E-1,6.418232E-2,-1.9997555E-1,3.9869338E-1,1.181448E-1],"categories":[],"categories_nodes":[],"categories_segments":[],"categories_sizes":[],"default_left":[true,true,true,false,false,false,false],"id":103,"left_children":[1,3,5,-1,-1,-1,-1],"loss_changes":[1.9400105E2,4.4351933E1,1.01749664E2,0E0,0E0,0E0,0E0],"parents":[2147483647,0,0,1,1,2,2],"right_children":[2,4,6,-1,-1,-1,-1],"split_conditions":[-2.05E0,-1.95E0,-1.55E0,6.4182316E-4,-1.9997554E-3,3.9869337E-3,1.181448E-3],"split_indices":[25,77,77,0,0,0,0],"split_type":[0,0,0,0,0,0,0],"sum_hessian":[8.633589E3,2.8068633E3,5.8267256E3,9.7142004E2,1.8354431E3,1.9360831E3,3.8906428E3],"tree_param":{"num_deleted":"0","num_feature":"104","num_nodes":"7","size_leaf_vector":"0"}},{"base_weights":[-1.0636755E-1,-1.9782165E-1,1.3575564E-1,-9.687735E-2,-3.6854845E-1,1.0168704E-2,2.6564717E-1],"categories":[],"categories_nodes":[],"categories_segments":[],"categories_sizes":[],"default_left":[true,true,true,false,false,false,false],"id":104,"left_children":[1,3,5,-1,-1,-1,-1],"loss_changes":[1.9112917E2,1.0792807E2,3.8604404E1,0E0,0E0,0E0,0E0],"parents":[2147483647,0,0,1,1,2,2],"right_children":[2,4,6,-1,-1,-1,-1],"split_conditions":[2.05E1,1.65E1,5.065E-1,-9.687735E-4,-3.6854844E-3,1.0168704E-4,2.6564717E-3],"split_indices":[28,80,55,0,0,0,0],"split_type":[0,0,0,0,0,0,0],"sum_hessian":[8.629311E3,6.2636177E3,2.365693E3,3.9372427E3,2.326375E3,1.2033248E3,1.1623683E3],"tree_param":{"num_deleted":"0","num_feature":"104","num_nodes":"7","size_leaf_vector":"0"}},{"base_weights":[1.06367536E-1,1.9782162E-1,-1.3575563E-1,9.687732E-2,3.6854845E-1,-1.0168683E-2,-2.6564717E-1],"categories":[],"categories_nodes":[],"categories_segments":[],"categories_sizes":[],"default_left":[true,true,true,false,false,false,false],"id":105,"left_children":[1,3,5,-1,-1,-1,-1],"loss_changes":[1.9112912E2,1.07928055E2,3.8604412E1,0E0,0E0,0E0,0E0],"parents":[2147483647,0,0,1,1,2,2],"right_children":[2,4,6,-1,-1,-1,-1],"split_conditions":[2.05E1,1.65E1,5.065E-1,9.687732E-4,3.6854844E-3,-1.0168683E-4,-2.6564717E-3],"split_indices":[28,80,55,0,0,0,0],"split_type":[0,0,0,0,0,0,0],"sum_hessian":[8.629311E3,6.2636177E3,2.365693E3,3.9372427E3,2.326375E3,1.2033248E3,1.1623683E3],"tree_param":{"num_deleted":"0","num_feature":"104","num_nodes":"7","size_leaf_vector":"0"}},{"base_weights":[-1.0535772E-1,-2.6768914E-1,2.969998E-2,-2.0755775E-1,-5.148642E-1,-8.886973E-2,1.8715318E-1],"categories":[],"categories_nodes":[],"categories_segments":[],"categories_sizes":[],"default_left":[true,true,true,false,false,false,false],"id":106,"left_children":[1,3,5,-1,-1,-1,-1],"loss_changes":[1.8912465E2,5.8119415E1,8.793784E1,0E0,0E0,0E0,0E0],"parents":[2147483647,0,0,1,1,2,2],"right_children":[2,4,6,-1,-1,-1,-1],"split_conditions":[1.35E1,2.25E1,5.445E-1,-2.0755774E-3,-5.1486418E-3,-8.886973E-4,1.8715317E-3],"split_indices":[51,80,55,0,0,0,0],"split_type":[0,0,0,0,0,0,0],"sum_hessian":[8.62497E3,3.9165383E3,4.708431E3,3.1516597E3,7.648787E2,2.6861035E3,2.0223275E3],"tree_param":{"num_deleted":"0","num_feature":"104","num_nodes":"7","size_leaf_vector":"0"}},{"base_weights":[1.0535773E-1,2.6768917E-1,-2.9699989E-2,2.0755775E-1,5.1486427E-1,8.886971E-2,-1.8715318E-1],"categories":[],"categories_nodes":[],"categories_segments":[],"categories_sizes":[],"default_left":[true,true,true,false,false,false,false],"id":107,"left_children":[1,3,5,-1,-1,-1,-1],"loss_changes":[1.891247E2,5.8119476E1,8.7937836E1,0E0,0E0,0E0,0E0],"parents":[2147483647,0,0,1,1,2,2],"right_children":[2,4,6,-1,-1,-1,-1],"split_conditions":[1.35E1,2.25E1,5.445E-1,2.0755774E-3,5.1486427E-3,8.886971E-4,-1.8715317E-3],"split_indices":[51,80,55,0,0,0,0],"split_type":[0,0,0,0,0,0,0],"sum_hessian":[8.62497E3,3.9165383E3,4.708431E3,3.1516597E3,7.648788E2,2.6861035E3,2.0223276E3],"tree_param":{"num_deleted":"0","num_feature":"104","num_nodes":"7","size_leaf_vector":"0"}},{"base_weights":[-1.0435643E-1,-1.8278891E-1,1.7070694E-1,-2.7598006E-1,3.124993E-4,-5.4482162E-2,2.3520096E-1],"categories":[],"categories_nodes":[],"categories_segments":[],"categories_sizes":[],"default_left":[true,true,true,false,false,false,false],"id":108,"left_children":[1,3,5,-1,-1,-1,-1],"loss_changes":[1.8603632E2,1.1448341E2,2.7803032E1,0E0,0E0,0E0,0E0],"parents":[2147483647,0,0,1,1,2,2],"right_children":[2,4,6,-1,-1,-1,-1],"split_conditions":[2.35E1,2.85E0,3.595E-1,-2.7598005E-3,3.1249929E-6,-5.448216E-4,2.3520095E-3],"split_indices":[51,77,55,0,0,0,0],"split_type":[0,0,0,0,0,0,0],"sum_hessian":[8.620766E3,6.70828E3,1.9124856E3,4.445298E3,2.2629822E3,4.2582346E2,1.4866621E3],"tree_param":{"num_deleted":"0","num_feature":"104","num_nodes":"7","size_leaf_vector":"0"}},{"base_weights":[1.0435643E-1,1.8278891E-1,-1.7070693E-1,2.7598006E-1,-3.1253023E-4,5.448209E-2,-2.3520091E-1],"categories":[],"categories_nodes":[],"categories_segments":[],"categories_sizes":[],"default_left":[true,true,true,false,false,false,false],"id":109,"left_children":[1,3,5,-1,-1,-1,-1],"loss_changes":[1.8603632E2,1.1448343E2,2.7803005E1,0E0,0E0,0E0,0E0],"parents":[2147483647,0,0,1,1,2,2],"right_children":[2,4,6,-1,-1,-1,-1],"split_conditions":[2.35E1,2.85E0,3.595E-1,2.7598005E-3,-3.1253023E-6,5.448209E-4,-2.352009E-3],"split_indices":[51,77,55,0,0,0,0],"split_type":[0,0,0,0,0,0,0],"sum_hessian":[8.620766E3,6.70828E3,1.9124856E3,4.445298E3,2.2629822E3,4.2582346E2,1.4866621E3],"tree_param":{"num_deleted":"0","num_feature":"104","num_nodes":"7","size_leaf_vector":"0"}},{"base_weights":[-1.03361815E-1,2.8807998E-2,-2.651421E-1,-1.7580837E-1,1.1618779E-1,-3.4691447E-1,-7.410907E-2],"categories":[],"categories_nodes":[],"categories_segments":[],"categories_sizes":[],"default_left":[true,true,true,false,false,false,false],"id":110,"left_children":[1,3,5,-1,-1,-1,-1],"loss_changes":[1.8427605E2,8.483665E1,6.050525E1,0E0,0E0,0E0,0E0],"parents":[2147483647,0,0,1,1,2,2],"right_children":[2,4,6,-1,-1,-1,-1],"split_conditions":[9.5E-1,-2.45E0,3.65E0,-1.7580837E-3,1.1618779E-3,-3.4691447E-3,-7.410907E-4],"split_indices":[25,77,77,0,0,0,0],"split_type":[0,0,0,0,0,0,0],"sum_hessian":[8.616731E3,4.742813E3,3.8739185E3,1.4189829E3,3.32383E3,2.7121553E3,1.1617632E3],"tree_param":{"num_deleted":"0","num_feature":"104","num_nodes":"7","size_leaf_vector":"0"}},{"base_weights":[1.03361815E-1,-2.8808E-2,2.651421E-1,1.7580837E-1,-1.1618779E-1,3.469145E-1,7.410899E-2],"categories":[],"categories_nodes":[],"categories_segments":[],"categories_sizes":[],"default_left":[true,true,true,false,false,false,false],"id":111,"left_children":[1,3,5,-1,-1,-1,-1],"loss_changes":[1.8427606E2,8.483665E1,6.050528E1,0E0,0E0,0E0,0E0],"parents":[2147483647,0,0,1,1,2,2],"right_children":[2,4,6,-1,-1,-1,-1],"split_conditions":[9.5E-1,-2.45E0,3.65E0,1.7580837E-3,-1.1618779E-3,3.469145E-3,7.4108987E-4],"split_indices":[25,77,77,0,0,0,0],"split_type":[0,0,0,0,0,0,0],"sum_hessian":[8.616731E3,4.742813E3,3.8739187E3,1.4189829E3,3.32383E3,2.7121555E3,1.1617632E3],"tree_param":{"num_deleted":"0","num_feature":"104","num_nodes":"7","size_leaf_vector":"0"}},{"base_weights":[-1.0238168E-1,-1.9106646E-1,1.3486809E-1,-4.4735894E-2,-3.0294067E-1,1.8773337E-1,-1.6264157E-1],"categories":[],"categories_nodes":[],"categories_segments":[],"categories_sizes":[],"default_left":[true,true,true,false,false,false,false],"id":112,"left_children":[1,3,5,-1,-1,-1,-1],"loss_changes":[1.8125424E2,1.02632126E2,3.6900303E1,0E0,0E0,0E0,0E0],"parents":[2147483647,0,0,1,1,2,2],"right_children":[2,4,6,-1,-1,-1,-1],"split_conditions":[2.15E1,1.05E1,2.55E1,-4.4735894E-4,-3.0294065E-3,1.8773336E-3,-1.6264156E-3],"split_indices":[29,80,103,0,0,0,0],"split_type":[0,0,0,0,0,0,0],"sum_hessian":[8.61234E3,6.2691167E3,2.3432227E3,2.7168713E3,3.5522456E3,1.9899858E3,3.532369E2],"tree_param":{"num_deleted":"0","num_feature":"104","num_nodes":"7","size_leaf_vector":"0"}},{"base_weights":[1.0238167E-1,1.9106646E-1,-1.3486813E-1,4.4735894E-2,3.029407E-1,-1.8773341E-1,1.626415E-1],"categories":[],"categories_nodes":[],"categories_segments":[],"categories_sizes":[],"default_left":[true,true,true,false,false,false,false],"id":113,"left_children":[1,3,5,-1,-1,-1,-1],"loss_changes":[1.8125432E2,1.0263214E2,3.6900307E1,0E0,0E0,0E0,0E0],"parents":[2147483647,0,0,1,1,2,2],"right_children":[2,4,6,-1,-1,-1,-1],"split_conditions":[2.15E1,1.05E1,2.55E1,4.4735894E-4,3.029407E-3,-1.8773341E-3,1.626415E-3],"split_indices":[29,80,103,0,0,0,0],"split_type":[0,0,0,0,0,0,0],"sum_hessian":[8.61234E3,6.2691167E3,2.343223E3,2.7168713E3,3.5522456E3,1.989986E3,3.532369E2],"tree_param":{"num_deleted":"0","num_feature":"104","num_nodes":"7","size_leaf_vector":"0"}},{"base_weights":[-1.0140958E-1,2.886054E-2,-2.6105806E-1,-8.5674055E-2,1.8127894E-1,-3.4179947E-1,-7.283473E-2],"categories":[],"categories_nodes":[],"categories_segments":[],"categories_sizes":[],"default_left":[true,true,true,false,false,false,false],"id":114,"left_children":[1,3,5,-1,-1,-1,-1],"loss_changes":[1.7905322E2,8.2790596E1,5.8765137E1,0E0,0E0,0E0,0E0],"parents":[2147483647,0,0,1,1,2,2],"right_children":[2,4,6,-1,-1,-1,-1],"split_conditions":[9.5E-1,5.445E-1,3.65E0,-8.567405E-4,1.8127894E-3,-3.4179946E-3,-7.283473E-4],"split_indices":[25,55,77,0,0,0,0],"split_type":[0,0,0,0,0,0,0],"sum_hessian":[8.60803E3,4.740606E3,3.867424E3,2.7069272E3,2.0336787E3,2.7058787E3,1.1615454E3],"tree_param":{"num_deleted":"0","num_feature":"104","num_nodes":"7","size_leaf_vector":"0"}},{"base_weights":[1.0140959E-1,-2.8860522E-2,2.610581E-1,8.567405E-2,-1.812789E-1,3.4179944E-1,7.2834834E-2],"categories":[],"categories_nodes":[],"categories_segments":[],"categories_sizes":[],"default_left":[true,true,true,false,false,false,false],"id":115,"left_children":[1,3,5,-1,-1,-1,-1],"loss_changes":[1.7905322E2,8.2790565E1,5.8765076E1,0E0,0E0,0E0,0E0],"parents":[2147483647,0,0,1,1,2,2],"right_children":[2,4,6,-1,-1,-1,-1],"split_conditions":[9.5E-1,5.445E-1,3.65E0,8.5674046E-4,-1.812789E-3,3.4179944E-3,7.283483E-4],"split_indices":[25,55,77,0,0,0,0],"split_type":[0,0,0,0,0,0,0],"sum_hessian":[8.60803E3,4.740606E3,3.867424E3,2.7069272E3,2.0336787E3,2.7058787E3,1.1615454E3],"tree_param":{"num_deleted":"0","num_feature":"104","num_nodes":"7","size_leaf_vector":"0"}},{"base_weights":[-1.00448154E-1,-1.7698866E-1,1.6760008E-1,-3.6059245E-1,-8.834874E-2,-5.094722E-2,2.302216E-1],"categories":[],"categories_nodes":[],"categories_segments":[],"categories_sizes":[],"default_left":[true,true,true,false,false,false,false],"id":116,"left_children":[1,3,5,-1,-1,-1,-1],"loss_changes":[1.7656647E2,1.0890765E2,2.6175896E1,0E0,0E0,0E0,0E0],"parents":[2147483647,0,0,1,1,2,2],"right_children":[2,4,6,-1,-1,-1,-1],"split_conditions":[2.35E1,-1.75E0,3.595E-1,-3.6059245E-3,-8.8348734E-4,-5.0947216E-4,2.302216E-3],"split_indices":[51,77,55,0,0,0,0],"split_type":[0,0,0,0,0,0,0],"sum_hessian":[8.603605E3,6.6928257E3,1.9107799E3,2.1781204E3,4.5147056E3,4.2560767E2,1.4851722E3],"tree_param":{"num_deleted":"0","num_feature":"104","num_nodes":"7","size_leaf_vector":"0"}},{"base_weights":[1.0044815E-1,1.7698865E-1,-1.676001E-1,3.6059242E-1,8.834874E-2,5.0947215E-2,-2.3022161E-1],"categories":[],"categories_nodes":[],"categories_segments":[],"categories_sizes":[],"default_left":[true,true,true,false,false,false,false],"id":117,"left_children":[1,3,5,-1,-1,-1,-1],"loss_changes":[1.7656647E2,1.0890764E2,2.6175892E1,0E0,0E0,0E0,0E0],"parents":[2147483647,0,0,1,1,2,2],"right_children":[2,4,6,-1,-1,-1,-1],"split_conditions":[2.35E1,-1.75E0,3.595E-1,3.605924E-3,8.8348734E-4,5.0947216E-4,-2.3022161E-3],"split_indices":[51,77,55,0,0,0,0],"split_type":[0,0,0,0,0,0,0],"sum_hessian":[8.603605E3,6.6928257E3,1.9107799E3,2.1781204E3,4.5147056E3,4.2560767E2,1.4851722E3],"tree_param":{"num_deleted":"0","num_feature":"104","num_nodes":"7","size_leaf_vector":"0"}},{"base_weights":[-9.949286E-2,-2.5589383E-1,3.0187488E-2,-1.9717357E-1,-4.988355E-1,-9.304724E-2,1.7063595E-1],"categories":[],"categories_nodes":[],"categories_segments":[],"categories_sizes":[],"default_left":[true,true,true,false,false,false,false],"id":118,"left_children":[1,3,5,-1,-1,-1,-1],"loss_changes":[1.7444278E2,5.551854E1,8.141184E1,0E0,0E0,0E0,0E0],"parents":[2147483647,0,0,1,1,2,2],"right_children":[2,4,6,-1,-1,-1,-1],"split_conditions":[1.35E1,2.25E1,6.5E-1,-1.9717356E-3,-4.988355E-3,-9.304724E-4,1.7063594E-3],"split_indices":[51,80,77,0,0,0,0],"split_type":[0,0,0,0,0,0,0],"sum_hessian":[8.599432E3,3.8976719E3,4.7017593E3,3.1404265E3,7.572456E2,2.5045293E3,2.19723E3],"tree_param":{"num_deleted":"0","num_feature":"104","num_nodes":"7","size_leaf_vector":"0"}},{"base_weights":[9.949286E-2,2.5589383E-1,-3.0187495E-2,1.9717357E-1,4.9883553E-1,9.304723E-2,-1.7063595E-1],"categories":[],"categories_nodes":[],"categories_segments":[],"categories_sizes":[],"default_left":[true,true,true,false,false,false,false],"id":119,"left_children":[1,3,5,-1,-1,-1,-1],"loss_changes":[1.7444281E2,5.5518555E1,8.1411835E1,0E0,0E0,0E0,0E0],"parents":[2147483647,0,0,1,1,2,2],"right_children":[2,4,6,-1,-1,-1,-1],"split_conditions":[1.35E1,2.25E1,6.5E-1,1.9717356E-3,4.988355E-3,9.304723E-4,-1.7063594E-3],"split_indices":[51,80,77,0,0,0,0],"split_type":[0,0,0,0,0,0,0],"sum_hessian":[8.599432E3,3.897672E3,4.70176E3,3.1404265E3,7.572456E2,2.5045293E3,2.1972302E3],"tree_param":{"num_deleted":"0","num_feature":"104","num_nodes":"7","size_leaf_vector":"0"}},{"base_weights":[-9.854955E-2,-1.8558986E-1,1.3117203E-1,-8.919789E-2,-3.4978682E-1,3.991904E-2,2.9194143E-1],"categories":[],"categories_nodes":[],"categories_segments":[],"categories_sizes":[],"default_left":[true,true,true,false,false,false,false],"id":120,"left_children":[1,3,5,-1,-1,-1,-1],"loss_changes":[1.7190274E2,9.864278E1,3.464963E1,0E0,0E0,0E0,0E0],"parents":[2147483647,0,0,1,1,2,2],"right_children":[2,4,6,-1,-1,-1,-1],"split_conditions":[2.05E1,1.65E1,1.8499999E0,-8.9197885E-4,-3.497868E-3,3.991904E-4,2.9194143E-3],"split_indices":[28,80,77,0,0,0,0],"split_type":[0,0,0,0,0,0,0],"sum_hessian":[8.595051E3,6.233429E3,2.361622E3,3.9286528E3,2.3047764E3,1.5073153E3,8.5430664E2],"tree_param":{"num_deleted":"0","num_feature":"104","num_nodes":"7","size_leaf_vector":"0"}},{"base_weights":[9.854957E-2,1.855899E-1,-1.3117202E-1,8.919792E-2,3.4978682E-1,-3.9919026E-2,-2.919414E-1],"categories":[],"categories_nodes":[],"categories_segments":[],"categories_sizes":[],"default_left":[true,true,true,false,false,false,false],"id":121,"left_children":[1,3,5,-1,-1,-1,-1],"loss_changes":[1.7190274E2,9.864279E1,3.464963E1,0E0,0E0,0E0,0E0],"parents":[2147483647,0,0,1,1,2,2],"right_children":[2,4,6,-1,-1,-1,-1],"split_conditions":[2.05E1,1.65E1,1.8499999E0,8.9197914E-4,3.497868E-3,-3.9919026E-4,-2.919414E-3],"split_indices":[28,80,77,0,0,0,0],"split_type":[0,0,0,0,0,0,0],"sum_hessian":[8.595051E3,6.233429E3,2.361622E3,3.9286528E3,2.3047764E3,1.5073154E3,8.5430664E2],"tree_param":{"num_deleted":"0","num_feature":"104","num_nodes":"7","size_leaf_vector":"0"}},{"base_weights":[-9.7615585E-2,1.6041422E-1,-1.7409812E-1,-4.354103E-2,2.2191322E-1,-3.5776088E-1,-8.649742E-2],"categories":[],"categories_nodes":[],"categories_segments":[],"categories_sizes":[],"default_left":[true,true,true,false,false,false,false],"id":122,"left_children":[1,3,5,-1,-1,-1,-1],"loss_changes":[1.6958078E2,2.4655357E1,1.0660187E2,0E0,0E0,0E0,0E0],"parents":[2147483647,0,0,1,1,2,2],"right_children":[2,4,6,-1,-1,-1,-1],"split_conditions":[-3.75E0,3.595E-1,-1.75E0,-4.3541027E-4,2.2191321E-3,-3.5776086E-3,-8.6497416E-4],"split_indices":[25,55,77,0,0,0,0],"split_type":[0,0,0,0,0,0,0],"sum_hessian":[8.590579E3,1.9638895E3,6.62669E3,4.5505093E2,1.5088386E3,2.1389998E3,4.4876904E3],"tree_param":{"num_deleted":"0","num_feature":"104","num_nodes":"7","size_leaf_vector":"0"}},{"base_weights":[9.761559E-2,-1.6041423E-1,1.7409812E-1,4.3541025E-2,-2.2191323E-1,3.5776088E-1,8.649743E-2],"categories":[],"categories_nodes":[],"categories_segments":[],"categories_sizes":[],"default_left":[true,true,true,false,false,false,false],"id":123,"left_children":[1,3,5,-1,-1,-1,-1],"loss_changes":[1.6958081E2,2.4655365E1,1.0660184E2,0E0,0E0,0E0,0E0],"parents":[2147483647,0,0,1,1,2,2],"right_children":[2,4,6,-1,-1,-1,-1],"split_conditions":[-3.75E0,3.595E-1,-1.75E0,4.3541024E-4,-2.2191324E-3,3.5776086E-3,8.6497434E-4],"split_indices":[25,55,77,0,0,0,0],"split_type":[0,0,0,0,0,0,0],"sum_hessian":[8.590579E3,1.9638895E3,6.62669E3,4.550509E2,1.5088386E3,2.1389998E3,4.48769E3],"tree_param":{"num_deleted":"0","num_feature":"104","num_nodes":"7","size_leaf_vector":"0"}},{"base_weights":[-9.668805E-2,3.1458095E-2,-2.4936654E-1,-7.999598E-2,1.8057922E-1,-3.2865378E-1,-6.6311575E-2],"categories":[],"categories_nodes":[],"categories_segments":[],"categories_sizes":[],"default_left":[true,true,true,false,false,false,false],"id":124,